20
-2.376480215035893517e-02 1.383771223005259531e-02 6.536618421989080947e-03 1.828964732814181843e-02 -7.241647751180044093e-04 -6.071377892077469557e-02 -6.156511405748649191e-02 -5.401542144303219523e-02 -4.353332948644832168e-02 -3.646273301227098002e-02 1.297697232608006380e-02 -1.373079160331201927e-02 -7.396779134378272946e-02 4.063374337995953600e-02 6.342469742124123844e-02 -4.596988799489190591e-02 -8.329981355204241211e-02 1.469349140187346282e-02 -4.693870357499821400e-02 -2.675833413961456464e-02 -9.787405818600961038e-02 1.107044035220841084e-02 -2.212710236326068808e-02 6.423797470432586476e-02 -6.175507868281759211e-02 -2.980879804813411915e-02 -9.231350915369136712e-02 3.152549908045252508e-02 -4.352344042021822484e-02 -6.443785524345384437e-03 4.311035708466542243e-02 -4.938043988010203805e-02 -1.727087918530189822e-02 -9.968457379327198137e-03 -2.012804746201855843e-02 8.337930612596644586e-02 4.291025109749481599e-03 -4.785034068792628353e-02 4.358999192527847344e-02 -2.311408580295553836e-02 -6.282134499723616983e-02 -3.387744493880467250e-02 4.682789724862833347e-02 -1.910217589503861169e-02 -4.899930247123274185e-02 4.145426829529256368e-02 -6.753279199010496503e-02 5.403811420727238539e-04 -3.633668861625113239e-02 -4.315591081976989651e-02 -7.424812031628039155e-02 -3.801998503426777531e-02 -4.720673104734691289e-02 4.413030390422124916e-02 2.321032633098030554e-02 -4.583202941216896892e-02 7.697055493274592569e-03 -2.050628357130505203e-02 -5.990935658489653093e-02 -8.802973453984676636e-03 -4.637733426752767979e-02 -2.633653672964671177e-02 2.937278681592962043e-02 -1.632550739781486390e-02 2.331578158053423597e-03 1.476755559892506744e-02 3.807370671577462590e-02 4.293094024791164337e-02 -3.105055517329844209e-02 -8.589208159649827645e-02 -3.174736584661137090e-02 2.061370306118357962e-02 -3.384373135625674128e-02 -7.767737678889369279e-02 9.267974767867327712e-02 -2.864812586152663820e-02 3.313165108164190138e-04 8.391466008816243771e-02 2.055184743400488220e-02 4.003852227425268306e-02 -2.545694854930534781e-02 -6.273965832925311459e-02 1.660133331872941376e-02 8.608601213551243109e-03 -3.354444791308621582e-02 5.810584097595238896e-03 -5.911165018910636421e-03 -3.901705468032726221e-02 -7.240048308196722626e-02 2.115732151795203519e-02 -4.762911380530131245e-02 -7.628015208390727386e-02 -3.342113335113691425e-03 -2.286198125437681819e-02 4.367850531872345676e-02 -3.791177092290129447e-02 -5.287789335741594453e-03 -7.048571920660938114e-03 -5.679806943237198334e-03 -8.483395543562906316e-02 -3.525075612339331060e-02 -5.080195798431432104e-03 7.625257459067366628e-02 -3.673039761954227048e-03 -1.411202852257439390e-02 -5.300472337017633762e-02 6.651277113523533513e-02 -6.863211575508455786e-02 -5.582278368271006985e-02 -4.399267157099476938e-02 -8.107498181021159656e-02 -6.357914198612855949e-02 -4.015727449950170364e-02 1.239936439199724322e-02 -5.368683588653025418e-02 1.806200389872826204e-02 -3.893941691444366415e-02 4.122086595948932369e-02 -3.039385549458332048e-03 -6.771924538889127765e-02 -4.601076974098495392e-02 -3.209349038796483616e-02 4.333243581651251286e-02 7.850034008655401574e-02 -4.695325610367179214e-02 4.607025212122570212e-02 -1.148577632771600847e-02 6.980889530396964734e-03 -3.835913251582672573e-02 -3.855426060566643359e-02 7.260912965525659346e-02 3.656248139275691811e-02 -1.046147726669211138e-02 5.524769777047721514e-02 -4.331362007359124827e-02 -2.307839596363050333e-02 6.994069192336553609e-02 1.971988084698915109e-02 2.662684212640184771e-03 -4.022254413405542545e-02 6.004541326811754093e-02 5.410296163519623391e-02 -3.535503070409169030e-02 -7.329295358268463068e-02 -6.481299453964486923e-02 -3.830809068177408461e-02 6.341337745650015012e-02 -1.814905112256955805e-02 2.422539526162729648e-02 -1.603958481445236228e-02 -3.949085703233535388e-02 2.027176704238156310e-02 1.160125551152922695e-03 -1.628957441931524336e-02 5.448535332199756775e-02 -4.774082067193989760e-03 -8.317865820675936217e-02 -5.040983916985663366e-02 5.009733161409721247e-02 6.260271971602076983e-03 -3.974605536426264324e-02 -3.200807225027244018e-02 5.832212185325556797e-02 3.039892363547684953e-02 1.014418539326507850e-02 5.828298796120349318e-02 6.064850656354199565e-02 -5.319952747208076677e-02 -5.660715892305916846e-02 7.497324839665202301e-02 5.685692988135564695e-03 -4.206291857818820340e-02 7.936772970475976241e-02 -3.473013946891540665e-02 -1.742402818652716290e-02 -5.517649822144246596e-02 2.799886760883276565e-02 -4.911580089356056694e-02 5.984390182380883161e-02 2.298067501505859575e-02 -3.019096957213807803e-02 6.471927530832229103e-02 6.146002281646096438e-03 6.493547790919423912e-02 -5.390808406137288789e-02 6.824283641810460765e-02 3.167099313164836033e-02 -3.857378452462641855e-02 -6.031233620349464586e-02 -3.301820443418687634e-02 1.416930196283089534e-02 1.204850660589471857e-02 -3.992692652422184796e-02 3.648815156739061705e-02 4.876185040087530412e-03 -7.105349954477452323e-02 5.558590849560247210e-02 8.818475330484732561e-03 3.271948651554622278e-02 5.819680771152908882e-02 1.521059826136955673e-02 2.966535397237774103e-03 3.062456596926234689e-02 -6.544897092372091441e-02 3.512898296628545053e-02 -4.840392730995098439e-03 7.549417373294879663e-02 5.122139936787205999e-02 1.462113352892857251e-02 2.056214257619895167e-02 2.512135509068451691e-02 2.984052021821171491e-02 -8.034742766194476887e-03 -4.520137293751853164e-02 -7.856434933149412936e-02 4.727471604467293337e-02 6.529472830171709728e-03 -6.510159557953532072e-02 -2.272988431423778738e-02 1.436828318125477587e-02 6.749578731567817957e-02 -5.085172004021289160e-04 -2.005238739617317897e-02 -9.063725251637473612e-02 -4.761086552397873761e-02 1.076733988886791320e-03 8.741945025387827528e-02 8.214727525178508113e-03 -4.694521317859444930e-04 -1.566986134654248589e-02 1.119595623249514810e-02 4.094654508076995408e-02 -1.285984226499939029e-03 -8.842959968959517719e-03 -4.410509829916593738e-02 2.439410836783858713e-02 7.201065409109831672e-02 -9.086110486160047656e-03 -4.234889221662144904e-02 3.822731013017383744e-02 1.803554210872959293e-02 5.663381255331612768e-02 -8.880245607018663612e-02 -1.113744783520536144e-02 -6.094049440610405620e-03 4.457102194240499665e-02 1.710675463592957468e-02 1.227311178485461160e-02 2.415458580432244123e-02 3.491639933403930390e-02 6.644581468402904756e-02 6.200733440014619818e-02 7.442360263280374533e-02 -2.112049815131271033e-02 -2.855562547739487131e-02 -1.059160541700143038e-02 4.308239667249502691e-02 -7.652706644413383164e-02 2.109584300697644674e-02 -1.768069301904032220e-02 6.992537211665826417e-03 -3.524092327121317036e-02 3.485635488147666855e-02 -7.945109928608685979e-02 6.747180120313603369e-02 8.167650480870926322e-02 -3.724241179504876598e-02 -4.060264246268405902e-02 -3.328579249614726371e-02 -7.925839920719805753e-02 -6.518534116267150902e-02 8.814086881633237391e-02 -1.552413424311312358e-02 -4.009051787343511503e-02 7.737712787298402228e-02 -5.580800532115951645e-02 7.255582729619566157e-03 5.154718013415306166e-03 -4.817116877562070687e-02 2.744462402163284909e-02 3.849875053444781065e-02 5.758287559658338550e-02 -1.952582818482338778e-02 -1.177423371660858004e-02 -1.588921147293601011e-02 8.032695890640180816e-03 -4.509301640168075775e-02 7.137471397185833968e-03 6.394112026668959982e-03 -3.871516508080467822e-02 9.745730513001286607e-03 3.395882480082915936e-03 -6.616454921281864077e-02 -1.339405371167282956e-02 6.956161944780285544e-02 4.532249079503677426e-03 8.879821751854727330e-03 6.728414275034079461e-02 -3.497685638383526280e-02 -2.248045636913658871e-02 1.274942437334627109e-02 2.936196273615004557e-02 4.083606965609203054e-02 7.068099846687540821e-02 1.716454951692200637e-02 -7.851576062310468285e-02 -6.305489616949707526e-03 3.790977318928812762e-02 2.965548592062738908e-02 -8.435965197234694679e-02 -5.714168680331953298e-02 5.100243364841747229e-02 1.860110868011129008e-03 -6.871277996377830877e-02 -2.967830508344279292e-02 -5.128309657230146340e-03 8.209930916287019875e-02 -6.400829026868661009e-02 -2.309711788754993667e-02 -2.071248263538034637e-02 4.214762585086256202e-02 4.501453683895492719e-02 -9.245264433283556516e-02 7.582286110842015314e-02 5.623275295785865047e-02 4.913325413809029735e-02 -1.846302579449941861e-02 -7.671640468420792836e-02 4.659474281139116408e-02 -2.425670578550279816e-02 -6.782987839721408597e-03 4.179071948693938859e-03 -1.894244599212422742e-03 -6.445965862342775861e-03 -3.098052102951007539e-02 -1.488514581899589738e-03 -2.007955078764929804e-02 4.837935958098536771e-02 -5.512146300785084226e-03 2.386055793710114420e-02 4.672697781631682951e-02 -7.929418513693149706e-02 -2.989401000837140290e-02 7.842101299951281454e-03 3.302790314532969874e-03 5.279029279464353408e-02 -1.241315015132539272e-02 7.326123756639213447e-02 -2.513104829817793852e-04 -2.667698488840859750e-02 -8.049249634148143706e-02 -4.588467365628813577e-02 -8.121116044025591604e-03 -3.231852991301483076e-03 -1.328847273362357417e-02 1.441802583369351624e-02 -1.325924538976575723e-02 3.617379838205247999e-02 -4.055395519689617562e-02 7.417606942183190000e-02 1.977264181944656321e-02 3.807842904252290578e-02 -8.260627202067199332e-03 -6.854664461977819090e-02 -6.164614238136921498e-02 1.422578131294912653e-02 1.089380781152015504e-03 2.262481129851700093e-02 -1.032727822474929433e-02 1.854951147778150650e-02 -7.177816066514873528e-02 6.632941320374907690e-02 -6.480722809581435095e-02 -2.802885565877625759e-03 -6.820424939323062319e-02 7.777876238882156651e-03 -4.100910330205826543e-02 6.569516993028375051e-02 7.975179185400669418e-03 -4.780746902483145461e-02 -2.820285410927056077e-02 -9.436653780278143888e-02 7.010714164256827419e-02 7.586583276590588842e-02 3.864879779157406187e-02 -3.496673970265617298e-02 -6.242939464806183947e-02 4.262419216138627759e-02 -7.293799209497195402e-02 2.014273912049582144e-02 2.256833637956970340e-02 2.869879729761844189e-02 -6.951024538310924573e-03 -3.334149903748080505e-03 -6.591359002114201282e-02 -4.462538301369595867e-02 -4.869721622656741737e-03 1.168367268553666821e-02 2.405039585504677516e-02 4.510815809394842085e-02 6.751954266756891865e-02 -3.988108710193864759e-02 -3.533690018252924614e-02 8.243556140685674716e-02 1.669224728298145805e-02 -8.974842445989179851e-02 4.385904876058286522e-02 -5.843197547398101127e-02 -3.030287011951971615e-02 -2.139637112302373786e-02 -6.397702677927341597e-02 -6.799352145403114722e-02 5.819940177803041570e-02 -1.510544536978483503e-02 6.147409064406444273e-02 -4.913499367903220033e-02 6.015498145789362899e-02 -2.017834595645631723e-02 -4.259543085159701176e-02 -3.846471841411616688e-02 1.898522008002194797e-02 6.276051817691766233e-02 -3.003790978905919798e-02 4.613875370681915639e-02 -8.140152055176558960e-03 -7.767920211223197646e-02 -8.403667037571374912e-03 -6.108164890559732163e-02 1.728211719232521787e-02 -2.755529139736329070e-02 5.591666904385722559e-02 1.274139007048958987e-02 -6.476690696638176536e-02 -8.638817317166438969e-02 8.207639654728744738e-02 -4.320590301383400028e-02 1.769891281763814536e-02 4.016725761828021657e-02 -3.098833276007378901e-02 6.018576129147243381e-02 -2.935699332275966064e-02 7.815520328316254151e-02 -6.131368021339296537e-02 -2.141410770977388717e-02 -3.073487324418644820e-02 -1.241284700855444303e-02 6.992410308343438574e-02 -4.794054780895198181e-02 -4.832291725584693387e-02 2.536878635111540145e-02 1.593536067499474324e-02 -5.967357732410774607e-02 -5.221971063262179774e-02 -3.615807796552820280e-02 1.747539083476884816e-02 -4.297050569524094032e-02 3.712955911487158395e-02 2.426942306682275050e-02 -4.448977836490947135e-02 -3.718485531604408256e-02 2.740778617047974139e-02 -1.869222365959666982e-02 -3.382249905475934182e-02 -7.569026144998444727e-02 4.866458266394580595e-02 1.999405007471473719e-02 5.002471100807511645e-02 -2.332210893877575963e-02 -1.138720895992875216e-02 8.602882329011125873e-02 -2.824718439103608356e-02 -1.345486858258101992e-02 -5.144205438563740664e-03 2.691148436708023020e-02 -7.779034405878738900e-02 -6.735078584408001057e-02 -1.369620124642405116e-02 -9.982323810702641714e-03 7.739508339393760816e-02 -6.136520607911070957e-02 -8.220602200420901173e-02 3.295617330181140753e-02 -8.092247287248770238e-02 -3.022475449472524639e-02 3.685534343826438967e-03 7.023307116954487228e-02 -4.095940709844635153e-02 4.043458015296683139e-02 -5.252611936086104549e-02 -4.065354712912247655e-03 5.911304722875854178e-02 -3.889604618900062427e-02 -4.672374388972837245e-02 -1.755565750954573428e-02 7.229702509325716675e-02 -3.129987779519574631e-02 2.794007360586119818e-03 -6.053885294637484371e-02 3.758147470019929798e-02 5.403816577430635426e-02 -2.271682398966252958e-02 2.227177237445255448e-02 -7.647968919104174146e-02 5.649396670019195266e-02 1.887151958059957862e-02 2.523065020700022976e-02 -1.912669344584211296e-03 -4.885108863717452232e-02 1.157894931514194710e-02 -5.159550978164002821e-02 7.456014509157543602e-02 -6.555251221963478980e-02 7.225683313128400398e-02 -4.494625323804978673e-02 5.522756004509125904e-02 -5.463290396894899745e-03 -2.239656335033013770e-02 7.567234562037013224e-02 -6.590550718361841420e-02 7.690199730999964546e-03 6.904092935311231805e-02 -2.562298508295722185e-02 -3.833475766223332082e-02 -5.733712440620750139e-02 -6.200333730832261608e-02 -1.055786343091048678e-02 -1.317944864842000852e-02 -3.090918868416560675e-02 9.190593362899560081e-02 -2.099433603560249204e-02 9.795569080006248652e-02 8.372653773736801752e-02 -5.850450373788944336e-02 -5.345547602165979378e-03 7.426150247624651105e-03 -1.295436466572902866e-02 5.397507168497638758e-02 -1.539487084982184457e-02 3.349395067729071113e-02 -1.569576381582608871e-02 7.370560407824097715e-02 1.343353111055142941e-02 6.148823190323835647e-02 1.562097855921172097e-02 3.702215498244890157e-02 -1.059481489268163101e-02 4.162090775339533089e-02 1.934977439696394103e-02 -4.992941728360583697e-02 -1.998026914962469994e-02 -6.959330282288081482e-02 -1.189999797140843703e-02 8.565616464042692668e-02 1.617523298426819939e-02 -3.527908052337939276e-02 5.187302967490083766e-02 2.407619953742888216e-02 1.439452802845761839e-02 7.820358471312047893e-03 -5.505850464220161944e-02 -1.675478520817768116e-02 5.529356112679587737e-02 -4.682988334242998985e-02 6.069493909641553858e-02 -5.470658563246828116e-02 -5.500538866006008526e-02 3.076330361172779568e-02 5.274689643433583958e-02 5.202983307224341020e-02 7.280339427905500871e-02 -1.333899074551339083e-02 6.035105139744115221e-02 2.920023858040008552e-02 3.358166413558485996e-02 4.035489261363468805e-02 -5.999967450631098903e-02 -6.835689474887989003e-02 4.549824363733227794e-02 1.472989630535473556e-02 7.406037601074161314e-02 3.857362065013610758e-02 -4.734078028901546158e-03 -8.003490180378201868e-02 6.929032806030073488e-02 1.970218851486514600e-02 2.734937571702783163e-02 -4.772493483382657387e-02 4.295651781798266039e-03 1.924130225067032657e-02 1.158827467037705505e-02 1.949587022343962639e-02 -4.899787627023106940e-02 4.223842566117969738e-02 -6.880263198771931210e-02 4.526141091504531618e-04 1.865556347049850475e-02 -2.253364769536068957e-02 -2.028076648886559252e-02 4.696787665530915284e-02 5.655940702472327108e-02 2.247060946595703674e-03 -2.909107902046233554e-02 6.181437406086967568e-02 -7.116704842696898459e-02 -9.475769865331181915e-03 4.592283847627394444e-02 -8.003775611650011321e-03 -3.143721815169917694e-02 -7.935368752386595670e-02 6.391654160456995692e-02 -3.969461439770163858e-02 -5.749231979674809812e-02 7.177411852116939717e-02 6.579114924463531910e-02 -7.474919780461126984e-02 -6.478673823967094972e-03 -6.421552313076885066e-02 6.170457213114100004e-02 4.445189244239439869e-02 1.597864256762008758e-02 -4.172576654909202626e-02 3.259783798168538332e-02 6.595124585151425356e-02 4.939082221411737056e-02 -3.843264722895373825e-02 -4.231323117215767676e-02 -2.905044530820032403e-02 -5.369396467090625791e-02 -5.405549257270362423e-02 -6.276155551427609058e-02 -2.734710705848455211e-03 3.699236122618280997e-02 -3.287709452208548155e-02 -7.965282800637232472e-03 6.233109068805259279e-02 2.665626138125043454e-02 9.645921768478881234e-03 -1.090313914016802395e-02 -1.137090385181535601e-02 8.423906127061815685e-02 4.009266471016808414e-02 1.251440042275375059e-02 -5.316070062345187169e-02 -4.755743511357068271e-02 9.078411424394316337e-03 6.614037308010964518e-03 -7.364523806857747878e-02 3.145378948522677826e-02 -3.475191752498694303e-03 8.345613862181805453e-02 -1.244479319918291062e-02 6.504887709101524196e-02 4.774576513355316583e-03 -8.098622400811429645e-02 -3.372712015659721368e-02 -2.127346515535551152e-02 8.423404304551485033e-02 -9.325254150627683772e-03 -2.814584630312002081e-02 5.062014037783951759e-02 -2.594820235942003894e-02 -6.662991944089799445e-02 2.246673649181523194e-02 -6.128702650198365048e-02 -8.353092908898535063e-02 6.026462308953355745e-02 1.263489300201263779e-02 -7.205790239195861147e-02 -4.640674827101825412e-02 7.083630860065226464e-02 4.685551064138832739e-03 -4.819035614382567723e-02 1.976583475825438932e-02 -7.203042190318320603e-02 -8.432127613489848184e-02 -1.857605101005232670e-02 -5.748299127948337806e-02 -7.138745551210376461e-02 1.749942413055730062e-02 1.769653486869268016e-02 2.217563609316447124e-02 -3.082484351737856468e-02 -5.169029143452082142e-02 7.592778276287868132e-03 -1.843045594723513592e-02 -7.476590173611130652e-03 -3.141307132312622791e-02 1.174508354868468961e-02 -4.482516911833572815e-02 -6.712448518114835783e-02 -5.271322980764985011e-02 1.592969443311556196e-02 -2.276261178686865561e-02 5.067804427819804294e-03 3.154628589474768076e-04 -5.334965179986936312e-02 5.614174565031077035e-02 3.558163693437069175e-02 3.298157581254456544e-02 5.997030504308642485e-02 5.889321268485685906e-02 2.750935993613256789e-02 -8.523048527510183187e-03 6.490532354762418299e-02 5.074635135356335425e-02 -7.318057774520909942e-02 -2.250892736582178755e-02 7.039192955413159716e-03 -4.943910126828257590e-02 5.311884320944401661e-02 5.682273175590726866e-02 7.449577005087945625e-02 5.885122805978006133e-02 -3.457972287506755338e-02 -2.968584454342742401e-02 -3.405546579523152650e-02 -3.894357241087675892e-02 -6.015107435990206530e-02 6.381227147790713428e-02 -2.789272439600001471e-02 1.475675511531924708e-02 -9.326463210427409986e-03 -1.994395782180227727e-02 3.009550926467876794e-02 -7.124098217587901405e-02 -2.673739408520721655e-03 3.672054530363297320e-02 5.209428162197020373e-02 -8.269592169597092535e-02 -2.268005836035591472e-02 6.395280701202840645e-02 1.992274733511616158e-02 4.149143385282369478e-02 -6.324857152200552557e-02 7.136456224308605767e-02 -2.855033187527932295e-02 3.354686472458163343e-02 -7.268902153142178454e-03 5.918229165951011811e-02 4.657550489916043035e-02 -1.127214142089116855e-02 2.177043897839576331e-02 3.672397954512178486e-02 -7.856078992254983406e-02 -9.230349196496383246e-02 -3.535886079773332708e-03 -6.108327837643875470e-04 -1.000739215501095583e-02 -3.118060302174460383e-02 -8.010829535310652269e-03 -8.676363756115387793e-02 1.898307071858427661e-02 1.723408295766004975e-02 2.261372863872472203e-02 7.204678698423580552e-02 -1.806454680319331124e-03 6.622694885454008529e-02 -5.210297482913758826e-02 -5.984925833710905835e-02 -2.963178675530088457e-02 -8.194037690962405196e-02 -3.846176950664215860e-02 -1.160663393015179054e-02 4.306659304162062385e-02 -7.039049694228242948e-03 6.632623591473663094e-02 -1.063015340477846057e-02 6.153026222386850236e-02 -7.815969281124263146e-02 -2.718477084280690459e-02 -5.296926790907868776e-02 2.021821811801934390e-02 4.326443429367603233e-02 5.159002415923210488e-02 -8.199107962180823828e-02 4.468269620806214482e-02 -5.396728782942589175e-02 -4.962092368379426854e-02 -4.672431197345309345e-02 2.881647970247871657e-02 2.648440445410885080e-02 -5.996296255107572137e-02 4.322898722951332845e-02 -3.893383392870748000e-02 -6.792919101470720755e-02 -7.240072062084150495e-02 5.331447037459072225e-02 7.633865969905476168e-02 -3.675599073448480164e-02 -5.671759259557076355e-02 1.860366884095626672e-02 -4.056610182098652206e-02 -1.490944070027468496e-02 -4.140751564759520553e-02 -1.435956657946569140e-02 -4.019873342870965843e-02 2.597707176049116745e-02 -6.295674201428703813e-03 4.008326523129674551e-03 -2.914234822651884729e-02 3.174388864688296175e-02 -4.818980676890143033e-02 4.391988451747877442e-02 -1.501075994718837139e-02 3.919121263813889200e-02 -7.274446583124609400e-02 -6.460642117640633293e-03 7.426474225909018845e-02 -8.952237609238986038e-02 -7.783275297294461881e-02 3.854190472030328413e-02 1.913231868930998641e-02 1.300169340980526431e-02 -4.748538567196710497e-02 1.635116807191822064e-02 2.411978031387696647e-02 8.123769577001525855e-02 -4.228876525131835401e-02 4.272961911611890956e-02 7.003596919000261434e-02 9.634498486666002656e-03 4.907865079190541768e-02 -2.574815889374941144e-02 5.367964433730122720e-02 -3.215243920421562152e-02 8.427682346294387838e-02 7.718034680083496815e-03 4.642860367726852483e-02 -3.231394976996476709e-02 1.335561556291936687e-02 1.041491456909972475e-02 5.649223980490866714e-02 -5.912543619291523583e-03 6.487406320036626095e-02 6.751965021857765127e-03 -4.348163749017570218e-02 5.274666908122655623e-02 9.069782498230080647e-02 -6.103796605000871150e-02 -7.032861359797878964e-02 -6.257494191070832323e-02 4.894911741381250542e-02 4.346405625851134519e-02 1.986048095290975871e-03 6.706525559702740391e-02 5.875217740316690529e-02 1.316069184091624503e-02 8.338630879491937264e-02 -8.146794717096254856e-02 -1.200061839510242583e-02 3.819342420304408514e-02 1.982316753378824542e-02 1.262066561602225544e-02 -3.549492028295971480e-03 -6.708577815150025547e-02 5.807492116284720257e-02 7.330060967036416963e-02 -2.696953651380940703e-02 4.318092424706331672e-03 -1.156413808714651034e-03 -4.549981296212744775e-02 2.598814657671862788e-02 -7.482128470567081524e-02 -5.066585692453162704e-02 4.736802973939217148e-02 -4.147796114236353485e-03 5.704091642596996470e-02 -3.001049322428487806e-02 -4.576182081366111931e-02 3.481245571054475407e-02 -3.470594443622988107e-02 -1.502110297869826798e-02 3.282087415439242234e-02 2.499527653628529078e-02 3.729125738941668766e-02 5.106311207263432295e-02 6.672029199625272022e-02 -6.104766224199852792e-02 6.719163296660118911e-02 2.881741430151456632e-02 1.533066211733469068e-02 -2.745053709635126432e-02 -6.387322492449469535e-02 -8.189593895830116904e-03 2.230870925330850907e-02 -3.882837088978138840e-02 3.007282624644843499e-02 -4.421317222958746213e-02 -5.747414346970473875e-02 4.431560212549374989e-02 2.948430199285682896e-02 2.343417922944192669e-02 1.581189352658023475e-02 -3.712846426204437916e-02 -5.770994696297054860e-02 8.194714894531016092e-02 4.541044783481301000e-02 -6.768207129185613291e-02 5.445951915205331229e-02 -5.231128925652984291e-02 3.993178129498235057e-03 6.209881562954290557e-02 7.908951585285056707e-02 1.327834300101350153e-02 -2.289579253625183275e-02 -6.544115358771476765e-02 -5.113404803027904455e-02 -5.970846634462516345e-02 -1.010139506838231109e-02 -3.783445868631635234e-02 -5.081832114570051379e-02 1.376129924733774691e-02 -7.169108975240474912e-02 -4.287230314096760701e-04 1.256275174863407534e-02 -6.465199626242333630e-02 -6.140973602351845057e-02 6.666141118781741814e-02 -5.242919441890446508e-03 1.272532416667426607e-02 3.513497312684149814e-03 2.064892252697527256e-02 5.914870340082212241e-02 -3.458137152333248115e-02 -7.530087367739050908e-02 -3.420137804816003602e-02 3.832938410094456627e-02 2.121935676948550134e-02 8.045667057446163895e-02 -6.848394706712389313e-02 5.835590855310322789e-02 -8.569349120593831859e-02 -3.429837893098552914e-02 -3.795073155408667381e-02 3.665579144022284436e-02 -1.911125734112565852e-02 5.026527511012165994e-02 8.303110750751623026e-02 3.457947726084083934e-02 -3.249468194730534970e-02 -4.794549216824654098e-02 5.938900286494031705e-02 -3.822796038928490472e-03 1.958539924914895827e-02 -6.947205508159209897e-02 2.748410528961862942e-02 -4.675538779282763929e-02 5.086985489569613439e-02 5.549561193566347056e-02 6.680922459977402250e-02 -6.469643967834594334e-02 -3.008642269979168102e-02 -4.611422929500259837e-02 5.838534695318826906e-02 7.628980137562534070e-02 -4.528443954132822108e-02 -8.469722569960622810e-03 -6.055788646070655451e-02 3.337578141008682581e-02 -5.161857125773235133e-02 -2.654356219847589515e-02 7.332319493895700369e-02 -7.466290098046046535e-03 -5.849509203832112952e-02 2.597673157420137338e-02 -4.958361647030355701e-02 -6.163293320186551127e-02 -1.546511680246205373e-04 5.358094305656110889e-02 -2.078872472313868843e-03 7.101909117458703180e-02 -7.681224486589480205e-02 -5.390330080186347961e-02 -5.345152109402257802e-03 3.819335402993865453e-02 -5.373578831541214740e-02 -4.422178285997682701e-02 1.444097072750673977e-02 -3.014061468914336003e-02 1.726599056286374362e-02 5.674814051058185704e-02 -2.165798582888527751e-02 -9.521255505157213972e-03 -3.459210362510936523e-03 5.607029752366624216e-03 -3.325015678814895181e-02 6.426166450544072706e-02 3.693475063916557260e-03 -5.052514828446878770e-02 -6.694251891674075916e-02 2.907856617475225794e-03 -4.376205353283214861e-02 4.239471731429612922e-02 -2.473761946659460906e-02 -5.241240801853408460e-02 -4.244502852757541661e-02 4.714487102642346550e-02 2.120913764856881267e-02 -5.335192674428976267e-02 -5.562676051595457499e-02
-3.104764018593868247e-02 2.493663425450083626e-02 -3.912109890531771661e-02 -5.203647801722946498e-02 -2.741447456236840996e-02 -9.065191207199631285e-02 -4.723304232732290775e-02 1.080077250126065813e-02 4.359631731835697521e-02 4.015709941908705838e-02 -5.881215133003339646e-02 4.086239009923291199e-02 1.756640642332391727e-02 5.192917549581681225e-02 4.822233966250801147e-03 2.927326763471604920e-02 -1.820569755993355424e-02 -4.070595665197344892e-02 3.810278766804155864e-02 -1.382480680713838762e-02 2.963910004605399551e-02 -2.740522946724715039e-02 -3.343359653784552105e-02 1.057498714198710013e-02 -1.648721652250387595e-02 -4.197731527369071014e-02 -3.386911789418073360e-02 -6.649710503624478575e-03 -6.659390200278056393e-02 -4.986359391135126995e-03 5.848718414112677455e-02 -6.381264150877173635e-02 -2.027095032772469746e-02 4.735562176942435114e-02 -7.231809893427221247e-02 -2.648915420525784978e-02 -6.787926185034222348e-02 -5.051375878973444339e-02 7.504095282112545340e-02 -6.628453462111143224e-02 -5.188001309768846409e-02 1.734749350859555658e-02 7.072913449620037152e-02 4.997977346494965334e-02 -3.840885615510163283e-03 -7.830431163096837621e-02 6.926734747751725485e-02 -3.004888964485587580e-02 1.231064766936532974e-02 5.441633307455014980e-03 7.384365820962832117e-02 2.081100029525957684e-02 -5.959182608103978651e-02 1.668968709419700125e-03 7.606090738178793165e-02 -4.305495001641328201e-02 6.725030612282378861e-02 4.108263103374874825e-02 -5.422943661218723038e-02 2.367990746664688090e-02 -4.784450617057057348e-02 -4.632396377931419923e-02 -4.942678642921494170e-02 -8.457132638427888871e-02 3.518787221290409217e-02 4.108883637749537188e-02 5.923234067157055055e-02 -4.937932261169613452e-02 5.639392004873075570e-02 -1.813655677655196322e-02 1.069896616968277333e-03 6.777468731435773441e-02 -6.184251626843064592e-02 1.605647713831806142e-02 -1.470081501255450160e-02 2.589462512727693649e-02 -1.071061712150787708e-02 -5.767268961921844656e-02 6.934697864554695279e-02 -3.825101991961635250e-02 6.036545356593996797e-02 -5.430832351428718785e-02 6.299492576981968739e-02 6.945579120521132299e-02 7.469452488560800185e-02 3.959645012311246992e-02 -3.323950124440160775e-02 4.731274840840560963e-02 5.199200198283942392e-02 4.529278063048749331e-02 7.600836450870922245e-02 2.136907654350296212e-02 -5.141316713155787838e-02 -7.269350348554304286e-02 -3.734472476430435173e-02 2.972743310898355931e-02 4.597426127755964431e-02 -4.360703647488097488e-03 6.179327216346943569e-02 6.374566960850063489e-03 -7.611168857144182120e-02 6.159738208312563745e-02 3.851416216445169988e-02 -5.404308985409955746e-02 -4.836587459109649434e-02 -2.131272389573832596e-02 2.717794959297216775e-02 -5.398229468904339190e-02 -6.998779604634272622e-02 -5.405943555751283741e-02 -1.188228256982779181e-02 -7.932079249573194268e-02 -2.927887502782518248e-02 4.926775564249176453e-02 -3.203825513361673039e-03 -4.677063340395766489e-02 -5.176528108575674525e-02 2.445439099169324434e-02 -6.418348703602878846e-02 2.445974402887307608e-02 -5.172933073395694775e-02 3.996112748461964903e-02 -4.187332608424478020e-02 -4.517189827536140928e-02 -4.517724290290912707e-03 -3.458721628262047092e-03 7.240332622533804385e-02 -1.219458237650765907e-02 3.898420229478556653e-02 -7.751070602511564434e-02 -5.289917061158931622e-02 4.280307371229905705e-02 3.607837509861943487e-02 5.650806811855616126e-03 3.559910759013756171e-02 -4.646358192671667248e-02 6.747276993126931355e-02 -4.214516707956733610e-02 2.106971446036222037e-02 1.520911849042726194e-02 2.401003573652301173e-02 -7.162940714457884106e-02 3.824653891028631514e-02 -6.763425198630124147e-02 -2.535041298177151750e-02 3.480674467243215914e-02 -5.563883232036202081e-02 -6.407914766022371200e-02 -8.202088605906574653e-03 -1.522303353126272865e-02 5.995346389383238161e-02 -4.448492755215312233e-02 8.834520573280133654e-03 4.654473682746603641e-02 -5.924777737120361792e-02 5.444233873800996548e-02 3.355226925995789811e-02 4.468058373317729606e-03 -4.086177030747946415e-02 -5.553777946366528911e-02 -6.214998232017686364e-02 2.627345904919223957e-02 -5.113938991731650785e-02 -3.894495029952667331e-02 -1.588763810530428779e-03 6.775659302249256721e-02 7.339799637168073487e-02 1.203556101053672748e-03 -3.475818824960386078e-02 -6.903520534807877640e-02 -4.206094484728947758e-02 -4.601961817734926546e-02 6.022031935985797113e-02 -5.490782824454696481e-02 -3.887777019835601811e-02 4.878055618260655757e-02 4.830678455504223978e-02 7.220441158693059747e-02 -5.990556371844537979e-03 -3.624859067791401379e-02 4.152746564486425873e-02 1.534874924437099400e-02 7.221819764048284518e-02 -1.432333319596769058e-02 3.670337023348552857e-02 -9.287781852515145445e-03 -3.454459804217425946e-04 -7.339457979973297574e-02 -3.873596405833312772e-02 4.500618725663188546e-02 1.808951953094095969e-02 1.375164741237366525e-02 1.141342360643910836e-03 5.061917413874874455e-02 -2.189156591253207940e-02 -7.045608563937862112e-02 -3.863640373475338546e-03 -3.733396962872451152e-02 -3.717484181357864209e-02 -4.217657226309941276e-02 9.252793628913997745e-03 -4.973923209258992312e-02 2.293084519453216300e-02 6.637182867891565363e-02 6.912631163572099946e-02 -8.066696510967341638e-02 -2.520634790250670526e-02 2.979032053348095940e-02 -7.537428546002545790e-03 4.442165074744595932e-02 2.859126266380821249e-02 3.638612431826333815e-02 6.134061843037916066e-03 4.016507194162877159e-02 -4.710709907749710545e-02 -2.265444312948444380e-02 -4.902831443704586123e-02 5.299851805604420540e-02 -3.786072380097992018e-02 5.544990961931929585e-02 -3.449107412260283417e-02 -2.441311636867967566e-02 4.598725777256055386e-02 5.781482036877665792e-02 6.648158362491018991e-02 2.457607310576047019e-02 2.764838009947367253e-02 -8.163267122336073656e-02 3.229691496434827086e-02 2.903336952835799609e-02 2.975120882950934437e-02 1.086278195542024136e-02 6.732415097653521308e-02 2.137742681599270195e-02 -4.630583741329268553e-03 -5.382276673004818268e-02 -6.034439085294702326e-02 -4.050482541977367540e-02 -1.644116350976610602e-02 9.216965585998293520e-02 3.851673419669012638e-02 -1.845172598293508878e-03 -4.856756963561786183e-02 -3.141219000844468201e-02 -2.459113171848876025e-02 -7.054224528987719511e-02 -9.216393143806756241e-03 6.982849727131490436e-02 2.107221237872384731e-02 -4.018634125852531616e-03 -6.234805687876907726e-03 3.759441620972662351e-02 -5.089264160549056976e-02 -4.007182278353086519e-02 -7.112829045843958864e-02 -1.579565734903261992e-02 2.760125623523105101e-02 -4.253029710978883937e-02 -2.622015589730338977e-02 5.361296822841984250e-02 4.922893322503425068e-02 -2.506568402637312024e-02 -2.469522583096873253e-02 1.115454754551608446e-02 -1.226569125279469144e-03 -1.051106407315344216e-02 2.782120785696965727e-03 -1.884803733576091364e-02 -7.532470870836657784e-02 7.955817971567087643e-03 4.578421569993558482e-02 -5.862126183720003936e-02 3.959899600818116844e-03 -5.885189506765153150e-02 -5.232448312513709315e-02 -4.535650360766371042e-02 6.296641114505213688e-02 3.900742219133909033e-02 8.090597204743966986e-02 -4.670273353482955192e-02 -7.525817623544941992e-02 -5.965753024031283935e-02 -4.916199030157159672e-02 1.238420810012196525e-02 -5.738619486769820643e-02 1.688841400941375540e-02 1.578484102399850195e-02 -5.986937821003893156e-02 4.047632141883295009e-02 -4.242986312814871902e-02 2.011421888259372348e-02 -1.806238448078395509e-02 -8.921966025424039534e-03 -6.321747242234697362e-02 3.990462223583214618e-02 3.616974326483382574e-02 8.064858917914671799e-02 -2.935268090156809700e-02 4.980937571803952663e-02 5.595470281843055449e-02 -7.033290910523697093e-02 -3.973058791113805166e-02 -7.778824211429438348e-03 3.088918929692528736e-02 1.986727283996775513e-03 -6.916119188180308575e-02 4.821671868484174450e-02 4.362666427485806242e-02 -1.948975652426918406e-02 -1.776153803691974536e-02 -7.202746018463394850e-02 -6.898663845915412041e-02 -5.191230470878338554e-02 -2.342632234809829267e-02 5.599262912152805360e-02 -1.526745515561342761e-02 -4.706135295094057702e-02 5.321899606629516312e-03 4.422992333210186422e-02 4.184862524418747620e-02 3.901593743016527199e-02 2.558718775386820132e-02 -2.673927233729209152e-02 -2.784810313312749419e-02 6.525394048231482336e-02 -1.821627076180529908e-02 -3.932890440161292828e-02 -7.930157615242185154e-02 -4.202745667332138252e-02 6.095460808841837025e-02 -5.433162969510769297e-02 3.654085329430890178e-02 2.373762850388237353e-02 -2.093538640949886911e-02 4.114695622641954126e-02 -5.394236615293101361e-02 3.851626084709762476e-02 3.183060364041093160e-02 8.757733394059634066e-03 -3.005585986365608836e-02 -6.444847160779576534e-02 -1.442224344741883067e-02 2.801404925958937090e-03 2.826107672492897405e-02 1.941523819131118003e-02 -7.845696658403737700e-02 -6.229801534103446281e-02 -1.603533036927047573e-02 5.184396687816365465e-03 -6.118183441969218123e-02 3.834695690608165564e-02 -6.666494429090250549e-03 -3.889520264040186026e-02 -6.612243195161019577e-03 2.106972810581084904e-02 4.557966442391421513e-02 7.610585890316130288e-03 -7.840000900768006806e-03 -2.742483348377602881e-02 1.943564478078872032e-02 8.126690858468757495e-02 -7.178595010075937768e-03 -8.423691378283663933e-02 1.492915527838857212e-02 9.584270167650368183e-03 -5.845385681342003467e-03 -7.867917141934462066e-02 6.439239678816924273e-02 -4.950394065696415991e-02 6.049729455042082704e-02 5.770497835345102244e-02 -3.445643980107141596e-02 -2.816133227728192384e-02 6.195160272688104985e-02 -3.758832636800556182e-02 7.453863250497340560e-03 7.468590176640534095e-02 -2.554234434769278583e-02 -3.703351410304824964e-03 -8.689216645996027111e-02 -1.108362160674843458e-02 -4.212831306690301147e-02 3.426404623448855297e-02 -9.730820998403938785e-03 6.633954324879824671e-02 4.584421054994002043e-02 1.337510780161668515e-02 -2.077668637754065406e-02 -2.758639274082117648e-02 6.008375967284313585e-02 -6.129577751995149426e-02 6.609568374273183666e-02 -2.613506008746473153e-02 -8.243305039433705683e-03 -4.243857071948227422e-02 3.710850462733702310e-02 -4.715155590423802251e-02 1.261001003367265109e-02 -5.961848920490455186e-03 -5.486055445687799265e-02 -6.105359704809486948e-02 -2.980789832318986310e-02 1.392310467576054339e-02 2.796862688885711976e-02 1.913190713744844160e-02 -5.449043658746840352e-02 5.214941665290238199e-02 2.943955909173722602e-02 3.681970816777022787e-02 -6.866164154112996965e-02 -4.272640438221573383e-02 -1.572380407170129862e-02 1.546377232473057119e-03 6.066065116828166237e-02 6.664549062404749591e-02 1.046962053872699770e-02 -2.870400580263357711e-03 2.585590410168548195e-02 7.381897880629607889e-02 3.564740530446246225e-02 7.510948872798817308e-04 -4.336937156705377577e-02 -6.515313698661576169e-02 -4.712772972690938006e-02 7.447307094431954155e-02 -7.470751960196772004e-04 -1.832134735746445905e-02 -6.670081060311368326e-03 5.314113433351749793e-02 -1.548191776693411126e-02 -3.650215798915630583e-02 -1.198466499081120469e-02 1.078479840962215212e-02 3.740906311177211174e-02 1.242300179262871909e-02 -6.339361873816501403e-02 -4.217567116033969082e-02 -7.542713110989791858e-02 -3.136926953839089260e-02 4.521408646090756267e-02 -2.232050852038052272e-02 2.648767421895522212e-03 -7.160379681131798235e-02 5.733205448886846689e-02 1.863344085976947548e-02 2.695500525578826533e-03 -3.116304489317280393e-02 -8.556969065603754754e-02 -4.725881917225215750e-02 1.908403764818724854e-02 -3.242473643499745733e-02 2.741954947115629940e-02 1.861524232657270003e-02 6.117024958241768645e-02 8.589880404975332173e-02 -3.365054357023278264e-02 4.686359035204600704e-02 -3.509072575937566968e-03 1.191284879165050402e-02 4.022269864708722525e-02 2.183497390029257718e-02 -2.087031332704280748e-02 5.616686199571144233e-02 -2.770936526277518411e-03 5.584707539480910504e-02 -2.143167705600050252e-02 -8.006174084492237442e-02 4.882385021310960138e-02 4.487028841329857715e-02 -7.267199953099534593e-02 4.527066331532289545e-02 6.222865536370555950e-02 -7.198287974772132891e-02 -4.008527237582842212e-02 -4.609522001546628722e-02 -5.537963775051384097e-02 3.451638420141405622e-02 2.103098758593150222e-02 -2.478611693170852323e-02 5.186528816578840498e-04 5.742994857083222326e-02 -2.000113612796889165e-02 -5.567621265960534527e-02 2.974927737154812058e-03 6.583166996252463876e-02 2.803416703195268922e-02 2.514296603168407473e-02 4.768215368632019134e-03 -3.729136646338144373e-02 6.565149779301431010e-02 -1.813592335782497622e-02 6.595643854140222084e-02 2.296825961859364027e-03 -1.008943284977672876e-02 -1.510824808669273406e-02 1.730589781717656664e-02 5.587527824216671768e-02 -1.206386910466013609e-02 6.846993123416926508e-02 -7.889852269108237059e-02 4.629176296503320631e-03 -3.700503890729882339e-02 2.398205210083966324e-02 -7.689523206184692775e-03 -5.642322688925563434e-02 6.832870512950044162e-02 -6.773128800828318030e-02 -6.217507197021047288e-02 -3.649330109695286817e-02 -6.542647468758986014e-03 1.752886009403961708e-03 3.221129108013650461e-02 2.294894016614455745e-02 -5.730091814207373402e-02 6.272817209365258613e-03 1.317345655849499683e-02 -2.377504229617259570e-03 -1.652474665215490288e-02 4.101335350702845634e-02 -7.125403136667107784e-02 2.623995494866937853e-02 7.010014486054275129e-02 7.840751872370529951e-02 -3.567223610508959281e-02 -4.466022254649514717e-02 5.950068316394278162e-02 3.308611077075938184e-02 -5.454945850791051432e-02 -1.453510218101410935e-03 7.177525513585314432e-02 3.696002278344476949e-02 4.020439605888996570e-02 -7.969220227168105630e-02 -5.672372858595232416e-03 7.423719463192478274e-02 -3.710686130430792401e-02 -5.229740387254416811e-02 -3.125238067789933624e-03 -3.583328101772662727e-02 -5.313304418487146963e-02 -2.712537771687579050e-02 3.159858112821638254e-02 1.316148793595603959e-02 -1.334037802001076384e-02 3.726762416476317626e-03 4.865579467848718531e-02 3.163955843486747875e-03 4.222598946160337208e-02 3.865075932034220396e-02 3.786827414269543918e-02 6.850393015267462749e-02 -5.708910760886628383e-02 7.212256268957155381e-02 6.322844094227264566e-02 1.182485507832685065e-02 -4.941994219670479277e-02 1.502979844508541690e-02 -3.627569535198051781e-02 7.756586863282359523e-02 6.377076094982510324e-02 2.588564617359777678e-02 3.224717263216808627e-02 5.959680900172893009e-02 -8.438091928302934516e-03 5.142898210267467934e-02 -3.168571132693589337e-02 4.010920805889137131e-02 -4.109047275279583550e-02 -1.109523986637589790e-02 -3.341920362278179985e-02 5.271628228845363223e-02 1.495453384497759906e-02 7.296553400569979857e-03 -5.485483125170623891e-02 5.236045561809504235e-03 8.865571640298818001e-02 -6.001354856640318813e-02 5.449428055596342024e-02 7.607102288287617697e-02 9.538191776898742938e-03 -5.382409801036117103e-02 -2.797912314848134338e-02 8.082573783659338651e-02 -6.214641188040050460e-03 4.976958436926896649e-03 4.940988962140991508e-02 -1.218060953171073643e-02 5.372441492745410468e-02 -5.430710367456903498e-02 5.752511199590911589e-02 -5.350408099865655576e-02 -3.862778846950520178e-02 6.882542699833356370e-03 3.063447311168090992e-02 -6.638319416901979075e-02 -6.063803250637496423e-02 -3.505217011314056691e-02 -5.961988170883220778e-02 3.095749258158039460e-02 -3.613000127968984954e-02 -8.619755138589230148e-02 3.823301721010892440e-02 -1.309069181663474052e-02 2.851844748625585388e-02 -2.238082075654570461e-03 5.525446276358762093e-03 -1.316626707318620942e-02 -2.710980026561047099e-02 1.086479341600452182e-02 2.512455101740265762e-03 3.795484934316341319e-02 5.818139918543992206e-02 7.479446845691230207e-04 -1.226384021583200833e-02 -5.077883940922287009e-02 2.276583019498297847e-02 -2.022486804858663473e-02 -8.736911546285735380e-03 -4.293474438884291311e-02 7.872749223878407199e-02 -5.080222417250931238e-02 -7.055318057549606059e-02 3.891892902823466689e-03 -6.552680923367713850e-02 -3.112309447994604690e-03 4.321871074046753497e-02 7.119235760611158925e-02 -3.952924962716144325e-02 -5.813839269128326381e-02 -8.183285032309626540e-04 3.850128878381037234e-02 -2.842623683516428898e-02 7.374983887024894047e-02 2.106422339207353334e-03 6.656749302531519974e-02 1.652464092575584367e-02 -7.212008794169397219e-02 9.518522367952286442e-03 -5.350248768820517475e-02 3.290493372990677123e-02 4.800109871830157866e-03 -7.028567934665130856e-02 -4.778728409230267177e-02 -6.465391109571660966e-02 -1.290289165657328672e-02 -2.243697321505117026e-02 -2.982487493290585101e-02 1.614963293668272154e-02 3.993436123652720215e-02 -6.438815958474791712e-02 -5.317091809370486782e-02 6.114989315971484235e-02 -6.530552391945010360e-02 2.480632485171222965e-02 -3.057206740645039555e-02 6.868863530062219169e-02 -7.145760246352615697e-02 -5.857673624833475284e-02 -4.867649187725843485e-02 8.609219224996876585e-02 6.422361296657033702e-03 -5.348758736990866236e-02 -1.091433869963244138e-02 -2.065226957319106840e-02 -1.567992319723269818e-03 -5.388557118079992381e-03 3.401853075334819454e-02 2.050436911659432940e-02 -2.603864933810634292e-03 4.344438199475846030e-02 -5.868635340219631458e-02 2.680783105713754888e-02 3.153229043584955538e-02 1.611837631978088256e-02 -8.727626198938130686e-02 -3.377819010782260462e-02 3.459292432610285017e-02 -5.785651780774134223e-02 2.666350043210218880e-03 -4.960912829491962578e-02 -4.076716403331838434e-02 3.171281935861079704e-02 -6.460297329541609540e-03 6.269921240154368962e-03 5.463674583519904926e-02 7.544439105167841109e-02 -2.044573744468090523e-02 1.439582008862771642e-02 -3.062364408148816192e-02 -1.306259845087774825e-02 4.498421459900130148e-02 4.579598698959806008e-02 6.386249181922259988e-02 9.026813224927052182e-02 2.354995907492855173e-02 -2.636919903066437323e-02 1.443592220556758413e-02 -4.397929474667895688e-02 3.792519144461207331e-02 -5.124110199168190743e-02 -6.469024322357162966e-03 6.502117629797166121e-02 -6.502908351466103786e-04 -3.600318056822558732e-02 9.090592186811168735e-03 3.935241170679526501e-02 6.337242608245340081e-02 5.776446950131065156e-02 4.940414362006802229e-02 -5.205737343282553636e-02 -4.044651288971421593e-02 -1.596946282459832389e-02 -7.612267239800154378e-03 -3.963267145201757741e-02 -7.372438859719591953e-02 8.865386567603701293e-03 3.185209817693537143e-02 -1.778336373414662885e-02 3.093551578066022420e-02 1.087664464731917004e-02 -4.614752582528040825e-02 4.467968131852765451e-02 -7.952277946044752910e-02 2.041271718873213792e-02 4.902334477452342104e-02 -4.888496157327058833e-02 4.465983455165258020e-02 -8.300510220118713714e-03 -2.297067552232878729e-02 -6.092386955909413759e-02 -4.749773329057319082e-02 4.499305110537918373e-02 -1.351691902802911599e-02 -3.326058291134557227e-02 5.888091569662427804e-02 -4.572925887028943259e-02 1.062566303226830482e-02 7.790892081140868286e-02 4.550303185490457009e-02 3.123052099173525414e-02 -1.529168028249375082e-02 4.758254373027972356e-02 -6.817555931547807091e-02 5.720301686756251031e-02 -5.152552103969899183e-02 5.436332225108780197e-02 -6.152459327358276303e-02 -6.392132975062396472e-02 5.091639758184754450e-02 -1.515210189653161746e-02 4.667073980429136543e-02 -2.412471002872010328e-02 1.449398936387518919e-02 -2.517476021331103639e-02 5.019604883350983066e-02 -7.039205033054857230e-02 -2.627576290620537922e-02 -1.118561096751660537e-02 -4.079857196783370082e-02 -1.438911112012535715e-03 5.850086587494376239e-02 -5.656169126541496506e-02 -1.923097818410215987e-02 -9.484845967812989900e-03 -3.162904640208283324e-02 3.244713870814109474e-02 -7.796768586196083095e-02 3.626508346584836340e-02 4.469608599038941629e-03 -4.481470655337213842e-04 -3.224012267868069104e-02 -3.376886825403785375e-02 -3.825980014461781431e-02 -8.117754316154965344e-02 -7.993426136242129387e-02 -8.261154794091483261e-03 9.020460604330709717e-03 -7.639412889479157975e-02 5.558928021938203817e-02 1.369194388343646313e-03 6.134212395566949333e-02 -7.067597265556445352e-02 -2.874119532478173599e-03 -3.304168316528065946e-02 -2.676998639335919500e-02 4.484220955077055509e-02 7.407304261226169140e-02 3.073993888817920517e-02 -6.674359353877694356e-02 1.565186315290202634e-02 7.120325854368150797e-02 1.651672015308824557e-02 3.341813256144730154e-02 -5.686158938934168794e-02 2.739943504750419825e-02 3.613411978003477909e-02 4.444295443711809845e-02 -3.888525702297519065e-02 5.846109145136282187e-02 8.086668817838808809e-03 5.358541974987819645e-02 -8.099750251921844502e-02 -6.126497460706561982e-02 -5.171002540071870102e-02 -4.794583475263181072e-03 -8.142078566905734671e-03 -6.485598230107425533e-02 4.907316311301906930e-02 3.293911057789618291e-02 3.781610142986222695e-02 -1.512256495616236436e-02 -4.956767623153388036e-02 1.038661814284352544e-02 -6.777045096147261971e-02 3.528778184242688937e-02 2.279631606178033829e-02 4.950679157739928254e-02 -6.623079682123413081e-02 -5.551228535591265847e-03 -4.354560976291518837e-02 -3.491759755714885644e-02 1.747087205764171966e-02 -3.861945239242448036e-02 -7.554502302056836927e-02 -7.032546506675778353e-02 -3.592208681727086100e-02 -4.591069483393847572e-02 8.686718442514923533e-03 3.067127912352872118e-02 3.841715243863225160e-02 2.071718340670675521e-02 3.556301416983748825e-02 5.107159517498898599e-02 -6.709463091750408892e-02 3.257998005194878699e-02 1.291808980535571333e-02 -2.879147100724698330e-02 1.920407189265254462e-04 2.827848203599143614e-02 2.790847610740025686e-02 6.165000585634134583e-02 -3.498382855816256631e-02 2.373447849258997211e-02 1.379451183035302481e-03 -4.407544614193910359e-02 -2.669719401348783980e-02 -1.549491259351769290e-03 -5.367320976450955239e-02 -2.185852990167370599e-02 1.106597213670466049e-03 -3.208731189103290748e-02 -3.382659163344291925e-02 -6.319004013664446251e-02 7.097492424471452122e-02 3.876541520200889324e-02 6.304208715299461363e-02 -1.154520929769287975e-02 2.427374168529208148e-02 5.649432143739441942e-02 8.278617425670179927e-03 1.620310831144557498e-03 -4.465178499651720201e-02 -3.508106784862938948e-03 -6.410720537774573791e-02 1.158460821870477536e-03 -3.676745267913624632e-02 -4.590901602831334860e-02 -1.505247697711346519e-03 -7.017402132038576268e-02 5.598739066202048503e-02 2.730595884018971898e-03 6.109192769871111574e-03 -3.745787225030699791e-03 4.020622144035510253e-04 -2.196684706352468319e-02 3.690899045304973231e-02 -5.064358936898023106e-02 -2.839071591894906654e-02 -3.734936140909768387e-02 2.834990581799834430e-02 1.582326421108105549e-02 -7.598703965748984657e-02 -9.317402411987323399e-03 -5.279146257243233498e-02 1.662106644344809800e-02 3.191466396688221342e-03 4.234659144262890168e-02 6.606806318833643998e-02 6.635764291800209935e-02 5.543764062982043522e-02 4.768799324118313393e-02 1.489978176667146499e-02 5.200550691698302419e-02 -3.816123606422627129e-02 -1.363758458374065945e-02 -5.739302673505897873e-02 -5.864378876592591522e-02 3.133322309986605325e-02 -5.351370466932327957e-02 -1.610922911568015564e-02 5.497531740887547091e-02 5.308382621901994863e-02 -1.146948929233424647e-02 -1.524150940424734077e-02 -1.570856937088103977e-02 4.366734030870441513e-02 -1.992247278120298434e-02 2.403764120472503402e-02 1.946707565683340746e-02 7.218061671287105685e-02 9.118028346768907236e-03 -7.271812904902742736e-02 -1.176641689527766280e-02 -6.501085704823249267e-02 3.394752326040599566e-02 2.445648776631429225e-02 -1.518273680692113110e-02 -4.989424634852168694e-02 -1.588450617631191608e-02 7.994168721685485091e-03 4.279071293660885456e-02 4.007136884730422288e-02 -1.316037102517210282e-02 -2.364176129212871430e-02 1.693298367359001924e-02 1.339355262851756566e-02 -4.311663751351661744e-02 -5.550599078733262082e-02 5.097780046866258463e-02 2.594514738506031523e-02 -4.598880901805716542e-03 1.632289435367371630e-02 -2.308479825386648698e-02 6.838832062565723680e-02 -4.671025114068309142e-02 -3.147417079788985411e-02 1.822333046558673175e-02 -3.377339127534760566e-02 4.565172696212432130e-02 5.122126424569287996e-03 4.682272106318554998e-03 -5.618547831936065821e-03 -4.029590758596661437e-02 1.732573290192005941e-02 8.330921290330770002e-02 9.295165142386044993e-03 -4.592612902190092161e-02 3.158323749260794761e-02 -2.872865905451103125e-02 -4.751973867223614062e-02 -5.083607369190420305e-02 2.482545088571710620e-02 7.417715338826320372e-03 -5.007141904863193771e-02 7.607512046331347047e-03 3.914403890732735120e-02 3.883631574082830988e-04 5.578851421658891085e-02 -3.979128012800280112e-03 -4.425700244497329100e-02 1.866953710159941892e-03 -3.811225421095954663e-02 4.853182880464106813e-02 6.932128703321223384e-02 1.203141250907781117e-02 5.988785133257420318e-02 6.462026940953685683e-02 4.366950513653173466e-02 4.189537382988554881e-02 -8.350808534421208518e-02 -3.574239102216077157e-02 6.908494296423964287e-02 7.236154616495067693e-02 5.863887129146720667e-02 6.017340259964622934e-02 3.245171618620888709e-02 5.663501656291289321e-02 -5.685898215722125920e-02 3.564472346895197763e-02 -5.672727409575247653e-02 -3.559488569201368913e-02 -2.203471007874097110e-02 -4.835266773379583161e-02 -4.882211369196990530e-02 -1.695299913784130072e-02 -2.434745805729771062e-02 4.566944711184319199e-04 -2.184724024946704812e-02 -2.882821749559442287e-02 -6.247017327177992879e-02 7.045679540431496433e-03 5.572150831446016916e-02 -2.141240696068893654e-02 -6.052582140575283459e-02 4.967673054803147664e-02 -5.645349931778578106e-02 -5.368337538619270127e-02 4.610932753322730809e-02 -5.343077693471396522e-03 6.401356831710003359e-02
5.882975017634046316e-02 -7.745192127288784423e-02 -4.166945153829833270e-02 -6.846002469453811579e-02 -6.272362537868367977e-03 -7.268286640322169090e-02 -1.313999155875630008e-02 7.035495818201101259e-02 2.249741685925886123e-02 5.389427360268383288e-02 1.872237501350917585e-02 1.686456423738585605e-02 -9.419285235030862291e-03 8.124767013571437824e-02 -1.757985367487841996e-02 6.046821178282422993e-02 7.627691184708502992e-02 7.449705133103619314e-02 4.919596485628004862e-02 -7.275169943983619825e-02 4.503227197411974886e-02 -5.471315031742419316e-02 -1.321791546965015926e-03 -4.531370704499446123e-02 -2.853740649175260172e-02 -1.998935515136305869e-03 -9.260228760827798888e-03 5.160429691441952710e-02 6.184921711960829349e-02 -6.824759710943534285e-02 5.918242975660046451e-02 -2.668597325166067319e-02 3.684911300309103889e-03 -1.276273456462239525e-02 1.260352103300285340e-02 -4.674489579781724441e-02 3.183523598739854826e-02 -2.497096201769027218e-02 6.055370251977318374e-02 -5.829931994713993815e-02 7.608768139680636977e-02 -5.356072759234739578e-02 3.478160766565188688e-02 -3.053078944979652903e-02 1.137195275755382810e-02 6.643117957273532437e-02 6.534277366479725180e-02 8.221542683866744916e-02 3.605172342073421216e-02 -4.975066220157471630e-02 -3.544576859921444445e-02 -1.326318659544823038e-02 -2.146708284642062300e-03 4.533627864261674523e-02 -2.566719845352065724e-02 -4.325044120257787172e-02 -6.288260000880557810e-02 1.559374032728121952e-02 -4.780942344414213993e-03 -1.850325731825594802e-02 9.327417266857257819e-03 -2.572028944816549811e-02 5.966869369053905137e-02 -3.630060268962644054e-02 6.964561513644856872e-02 1.271295061622788609e-04 2.978875801916084851e-02 1.717268504908512836e-02 -6.931973044274442053e-02 -6.117221983485485876e-02 -3.800438494227249137e-02 -3.914649437495630081e-03 4.605685814132886441e-02 -1.053360919064525759e-02 4.164908461188846639e-02 -1.488575357093581061e-02 -4.480084702961549536e-02 -2.393909856248513986e-03 -3.993871648649195694e-02 -3.624321138920234830e-02 7.033107234986790690e-02 -3.324474531117277420e-02 2.981355783991581840e-02 2.095750639170501639e-02 6.745111144630311362e-02 -5.383001029586822334e-02 8.095749162583698588e-02 1.750255574421324956e-02 -1.818873464012008695e-02 5.455326215933442927e-03 4.196353982855036829e-02 5.194228976775273898e-02 1.663784061348103646e-03 5.555216767712701544e-03 4.970330393536702418e-02 7.626725528869439386e-02 -7.522083218946760963e-02 3.889354630404547042e-02 -8.594288790758318475e-02 3.578483366092173427e-03 -5.025180080009945122e-02 -5.271779004929060680e-02 -2.108609338040162012e-02 3.463043235643873535e-02 -6.149067218182631411e-02 -7.944932443221759677e-02 -6.304601907603464561e-02 -3.852323290641267162e-02 3.572570900930862638e-03 5.439100929278474494e-02 -5.635183628379816789e-02 5.524782815519605622e-02 -2.402251903889789791e-02 -4.900386816483712910e-02 1.167681784363704817e-02 4.379592229458199176e-02 -2.665029401371377810e-02 -8.508455646778360915e-02 -2.815557916086149429e-02 8.272287204427993326e-03 -8.337994082856740180e-03 -3.435752173168005186e-02 -4.136643730101632194e-02 6.915767916327975051e-02 7.172419445085082695e-03 -3.243908839032781655e-02 -1.848370133530273171e-02 2.364677627360480330e-02 -3.193129812943920620e-02 6.017183559747289051e-02 -4.932079281620138644e-02 6.811352506695614317e-02 -4.274550974648099605e-02 2.630438478296633770e-02 6.519433949784450566e-02 -4.090416006314320785e-02 3.431855394385004837e-02 8.249305818653199012e-04 -2.731585650145475132e-03 -6.669090567686626614e-02 -5.200205698657379971e-02 6.552961588811165305e-02 1.351204308930349998e-02 -5.074190269011091825e-02 3.426802955899403702e-02 4.048990563430247824e-02 -4.364995458895815778e-02 3.574490800063259005e-02 -4.173138445018853213e-03 4.967712499315013464e-02 5.394920159557099401e-03 3.877507594229914062e-02 -6.208679942781187427e-02 4.408721003156324675e-02 2.187377627303927624e-02 -4.724722909798881321e-02 -9.910997984164948704e-03 -3.477716904912936391e-02 -8.430995009490151182e-02 4.231408032202164243e-02 -6.823097865663067460e-03 2.477171318200570294e-02 -1.342718124786875140e-02 1.958025084405602689e-02 6.658192301594889617e-02 -2.576912654213511442e-02 -5.150828644084639012e-04 5.126172763147892469e-02 2.875856430656697701e-02 3.183200798252706909e-02 3.434125532941156855e-02 4.814641046101954952e-02 -5.055609223389011947e-02 -2.180493800512343233e-02 -4.836762308843609720e-02 -6.150575967473283223e-02 2.867633147617139073e-03 8.664635732441761107e-02 2.439942776958355791e-02 -1.687211991823335533e-02 -2.133262729570640712e-02 5.422552601454826149e-02 -5.486453856917958977e-02 -5.240045233395036056e-02 -2.881269381007225613e-02 -7.844536329702885002e-02 -3.167759101871694960e-02 -5.019998394427750699e-02 4.447516208023292311e-02 5.219313172628693709e-02 2.209516344028181201e-02 7.438671352268692860e-02 5.057350571432842057e-02 1.484052075844951440e-02 -6.050199715781996029e-02 -3.344447899786028716e-02 3.756127795172360673e-02 -5.278559899846104603e-02 -1.769474473371659626e-02 -3.955149067112395667e-02 1.333522716658374751e-03 5.200165540975690975e-02 4.684043245459230953e-02 8.581615214426852045e-02 6.927477071714161112e-03 5.902228227334138655e-02 -4.315697150839662571e-02 5.850326248440004123e-02 -9.143149732775232574e-03 -1.716498629537654627e-02 -4.168873220542366337e-02 6.423319364865047454e-02 7.151148092244742627e-02 -1.537022002628005536e-03 1.181899696805087038e-02 -6.094345634941516175e-03 -5.067230696873946394e-02 9.291552159342249262e-03 3.809636121222622490e-02 2.750946232291992186e-02 -2.599799547581076176e-02 -3.098504672290330886e-02 -4.061416272057396387e-02 3.246298664073096057e-02 -9.837591579852951809e-03 6.792845262161927022e-02 -4.723887276817286679e-02 -1.490912381343522004e-02 -2.772883559872270473e-04 2.937672199749911950e-02 -1.601896753324104014e-02 8.365567642901002021e-02 -8.397312098560193172e-02 -7.846932134135144177e-02 -5.354872531873742375e-02 -4.846873043152685225e-03 2.154535701839596987e-02 6.346242024262958858e-02 4.907526351984074775e-02 -4.221710728146327307e-02 1.262685502427656099e-02 -1.725224725131206671e-02 1.186434399367360809e-02 4.185907690492057798e-02 -1.667958119476211157e-02 3.678165800666185429e-03 6.089720924212386338e-02 6.280058103202287856e-02 -1.770827258710812660e-02 -4.161569121551865480e-02 6.446852172095000021e-03 -7.014426397873244068e-02 -4.522750926935825005e-02 5.571252462518708898e-02 7.375991571153556192e-02 -1.267618662267063802e-02 -7.839778176381073660e-02 -4.682429297617040492e-02 -3.250618221086404303e-02 7.412255727645221393e-03 -2.936656273832863664e-02 -5.988331798368046188e-02 1.562475652201232232e-02 6.271644136888569754e-02 -4.192992840366903395e-02 -1.667637650307552885e-02 -6.264068062620288535e-02 3.597464221066318246e-02 -3.177891952825329883e-03 -7.207141559286164845e-02 6.086290140933825477e-02 -1.020051289300488370e-02 5.672998756451802516e-02 7.439393980395488104e-02 -7.468813872434502954e-02 1.362275207870426892e-02 -3.905851908835989567e-02 -9.465135224242447048e-03 -7.950276389388422071e-02 -2.041713114020166434e-02 3.788417901553746414e-02 4.825365937825944890e-02 1.522309079158641089e-02 2.182507795477715493e-02 4.950631145721189758e-02 -8.520542715003814882e-02 -4.813561899056782029e-02 2.598243929850938341e-02 2.881555464548319137e-02 2.248139325096313451e-02 3.789925794312539592e-02 2.721228719142135960e-02 -5.585108379406969470e-02 -3.889966744890219208e-02 -1.840900483754095724e-03 4.977859322897132399e-02 2.034784211352654373e-02 5.541285730412367355e-02 -3.207706720850846821e-02 -1.306229101710362078e-02 -2.801112940804240808e-02 2.598417082044118115e-02 -5.575132020844061898e-02 1.696232640404858952e-02 4.622026964568316798e-02 6.294629183679124884e-02 5.493623901663849396e-02 -2.843293993712262338e-02 1.610769877496763536e-02 -2.757674269300649725e-02 -6.283624972999900249e-02 3.642733637215670589e-02 3.030182307370591147e-02 -5.777529579374413027e-03 -1.890020833283914681e-02 -6.411122401598948195e-02 3.289020963304772893e-02 4.459763045761580558e-02 -6.285330508945662087e-02 -2.754800864838847715e-02 -6.385955739605436721e-02 6.725217079271218756e-02 6.216751206809940922e-02 5.459823499942700192e-02 4.895461349475881650e-03 6.755768578236578080e-03 8.066068259337957902e-02 -1.596566532190949253e-02 -1.877594478337793645e-03 -4.522740333210491237e-02 7.181227655405668375e-02 -1.274312869756442750e-02 -6.919908815562690607e-02 -5.553874686426210627e-02 -8.048054349911938632e-02 -1.500808137077467436e-02 -4.912511338093103475e-02 8.357460423130812222e-03 2.251906465994722370e-02 -8.833290515132503429e-04 6.009187881126820674e-02 1.625182715077130510e-02 -2.975643225134643258e-02 -1.319671318812801371e-02 1.598743113057476961e-02 -4.836380512667504128e-02 5.070640705368819473e-02 7.497493514190134434e-02 -7.911986865174977512e-02 3.710541155651642803e-02 5.907914794099436429e-02 7.642072372535342606e-02 -3.406778521362827106e-02 6.785013054234069474e-02 3.687743948850689263e-02 6.537982090081244368e-02 1.889402067874039123e-02 -2.787662283836677898e-02 -7.727489544653812215e-02 6.716235009095283814e-02 -1.358016948025849054e-02 4.427896518498553036e-02 4.607663738473565668e-02 -1.159787254583646843e-02 2.645924603900872210e-02 2.519810726663311053e-03 -8.446092855223777743e-03 -6.148901374504476929e-03 -2.465101508884858308e-02 -3.243236969825206290e-02 2.745432120113313126e-02 -5.292232839258736998e-02 1.967066792088160640e-03 -1.669852545198408089e-02 7.286913229668591507e-02 6.767345760134727863e-03 -4.966555881392425292e-02 5.076404508230066698e-02 -7.585368558590108168e-02 3.254216664131111963e-02 -4.455458818569186380e-02 3.194105247142640935e-02 -4.704767957467166639e-02 9.063136554015940871e-02 3.267631171788103715e-03 -2.778115310962877248e-03 -5.422164114699608989e-02 -3.556512560986863081e-02 -2.786766594222548146e-02 -6.250444953520313540e-02 -6.042879678629833017e-03 2.398707241926673495e-03 -3.818192564933974714e-02 7.127817715118722752e-02 5.246251596379099269e-02 3.585156183113642758e-02 7.299492759570064271e-02 -2.411081970077310482e-02 6.668117407509102645e-02 8.302408770184531439e-03 -2.007538408010740155e-02 5.065680604769397938e-02 -5.491467696705115351e-03 1.946476478545920014e-02 -1.446394059807060498e-02 -3.825214121474227597e-02 7.300957631325998010e-02 7.959770752555171691e-02 3.228408421123618588e-02 6.803708755124555918e-02 6.765374487450279140e-02 -5.726776566310139149e-02 5.504434998776989302e-02 4.026923458913312520e-02 7.648455705809373804e-03 -7.877747432050283272e-02 4.421578390691522330e-03 -1.104500731342538192e-02 2.643261532393116967e-02 -1.912853760630081439e-03 -5.654244999403303801e-02 2.982963391790443425e-02 -2.769803690070717084e-02 2.938062455571461423e-02 -5.867148865732449425e-02 -3.609419715555951813e-02 -4.416681723999603751e-03 -6.297136514437952359e-02 3.678678655707071782e-02 2.375210353072299690e-02 -1.720604202596075910e-02 -1.190364830835975891e-02 -4.988731833833058571e-02 -3.045581839572533700e-02 7.493667392503031155e-02 -8.150169002913574406e-03 -5.806224480964457951e-02 -4.930425689209785162e-02 -3.967143273580593654e-02 -2.886505936051755178e-02 -1.990821578491930310e-02 -7.027023673070460774e-02 -5.297998848965993629e-02 4.012196493195759051e-02 3.801198595924432100e-02 -2.213910024756355135e-02 -1.309235151848329656e-02 -5.203173368162950646e-02 4.816519873621866177e-02 -4.515669419128623407e-02 1.841660419470634094e-02 3.686302390868297085e-02 -4.001126696778928987e-02 -3.783677173809266853e-02 -6.076398528897491297e-02 6.368021619203810546e-02 4.996892337066606571e-02 -6.414739594356136387e-02 4.503283110300932562e-02 -3.666985431701227233e-02 3.866611704310701086e-02 -1.889218641510445607e-02 -3.390081053559233521e-03 1.400576939649833368e-02 -7.833865902794058533e-02 -2.646954226966851190e-02 -3.130591816445783132e-02 3.721045504377646501e-02 -2.321714322845107314e-03 -5.055848561126081303e-02 1.185670700737871675e-02 8.388641794319803835e-02 5.238916987906413331e-02 1.809375246152784139e-02 1.967231051002171077e-02 2.334017289593594974e-02 -5.352319144238192744e-02 -5.902859606912118362e-02 2.328048664362016712e-02 -3.263779089916106491e-02 -4.564925642225751978e-02 7.611606692910508065e-02 7.275603062090398032e-02 -8.386389554380528633e-02 2.902604793789334559e-02 -6.515457226600564200e-02 1.381227822226487913e-02 6.099913453533040153e-02 1.256134603426666690e-02 -7.619513184431282726e-02 -4.964094529009331624e-02 6.616764562058272993e-03 -4.571334963269086532e-02 -5.758443914895724353e-02 2.066131150955125007e-02 6.672920596708739605e-02 -7.621637053616496515e-02 1.065487901190513217e-02 -6.561744829371854437e-02 3.881043727679314020e-02 2.128415010305679742e-02 -1.164317930731822125e-03 -6.604771439892141716e-02 -1.756939552882178998e-02 -6.433986740283016356e-03 -1.593879085815234561e-02 2.563636662364351601e-02 -3.450516711340696069e-02 6.304024837039780282e-02 -7.779678972503709100e-02 5.724971998916335292e-02 -6.560727813582595269e-02 -8.991729167527177935e-02 6.008422517640985006e-02 -7.321745117389406865e-02 -1.034873675442663649e-02 5.978727949563213302e-03 1.508877378540461785e-02 -1.927005881677473775e-02 -1.380003012083468213e-02 6.547210620518706219e-03 5.964399429757619858e-02 -2.009370915749861264e-02 -1.813343720969150946e-02 6.220896148790953234e-02 -1.334386894124709247e-02 -3.714073237431163993e-02 3.283466574085185108e-02 3.207403487154619065e-02 -9.609482669467754590e-03 -4.334826228204508025e-02 -1.974955483712364374e-02 5.959518860140867319e-02 7.369147810622068973e-02 -3.035955470446003238e-02 3.294841280545485890e-02 -3.201806262963776545e-02 1.867037750974199009e-02 6.831375826193490999e-03 4.444344389262418205e-02 5.479200910423062676e-02 -4.272702765611145759e-02 3.743426418631822655e-02 -1.596295292745172900e-02 3.453582422511887462e-02 -5.670247010452962588e-02 2.024786779981697232e-02 -1.955583907674183705e-02 3.380029524400683660e-02 -2.663601397482479038e-02 -6.222711578894558199e-02 4.052232801712354893e-02 -6.126357877833038534e-02 -1.636620556123636466e-02 -4.509472407946345587e-03 -6.681626810718588327e-02 -6.971278124099969387e-02 1.046071101712048833e-02 8.870059237539754116e-02 3.287700285748929030e-02 8.246288640737013675e-02 -6.711342250882189331e-02 2.209687503486169186e-02 -7.489695206720589638e-02 -3.831054554470682272e-02 -4.018506780218417812e-02 -3.662735056255111282e-02 1.501806765935705459e-02 -1.133963407890785716e-02 5.236698384817511237e-02 -1.189512407414165286e-02 5.013143799223353930e-02 -2.645194637056964837e-02 -1.414544588380108048e-02 1.229031368897259661e-02 -6.574531749266675218e-02 4.977449836806333711e-02 -3.721627998088342104e-02 5.411287210166488421e-02 1.758202492981553958e-03 -4.688574577832366197e-02 4.007595444529013506e-03 1.433311311882337451e-02 5.545341535342325490e-02 -2.135020640491637825e-02 -4.141576787354183525e-02 -2.724128805445105370e-02 4.995520872526485606e-02 -3.671723542861651812e-02 2.416164650615677117e-02 -1.656867771835494538e-02 -3.664526888020821788e-03 -1.126203551084603051e-02 -4.614011530714987042e-02 5.352130574192465358e-03 -2.652901167532530774e-02 4.885778461070659079e-02 -3.826038892545476078e-02 4.047384266471372449e-02 -3.820409080946289559e-02 -9.050287151869213995e-03 -1.132944099059859586e-02 -6.952703720092175133e-02 -6.705072800966115076e-02 -3.344384672074124376e-02 -5.967672183992687313e-02 -2.088505574737762119e-02 -2.475475864147866356e-02 1.944922080195116490e-02 -4.760669979956831666e-02 1.638071984546727797e-02 2.688844173694654709e-03 -6.525692953748118974e-02 6.821946111951734948e-02 -3.567850283642894083e-02 -1.687705851059477513e-02 -3.032426164863128229e-02 -6.589031113091037804e-03 6.010999185160582209e-02 -1.217898224523173735e-02 -1.527872180706026269e-02 8.206971032183785555e-03 -3.850336501228046604e-02 7.800978551738382838e-02 -2.072053323945871953e-02 -2.943096313903825756e-03 7.858486713359531806e-02 -3.273656487847986796e-02 -8.433912173934350609e-02 1.599472027523417619e-02 4.254456628831684156e-02 5.162582622148589873e-02 -5.504264121639072804e-02 4.401022364152264166e-02 -4.797568267365030781e-02 -1.360932045066323703e-02 5.344441198564232887e-02 5.087392908863680452e-02 1.494100140374212717e-02 2.507384935989274630e-02 7.159200657767392229e-02 4.741478122544464519e-03 -7.300309322907251597e-02 -7.647757832737992964e-03 2.052718562511503947e-02 -7.690916265275508056e-03 -2.979584874806617475e-02 -1.458734898754432581e-02 -3.786951067349222932e-02 3.928273611557677597e-02 -4.092059631584179374e-02 -1.822418404484782081e-02 -4.850693338355571010e-02 -5.062035589410161796e-02 -3.986036076344344481e-02 6.720716867094023161e-02 4.796356133791340043e-02 -4.570117416103280233e-02 5.319076261935050398e-02 6.100583786545820536e-02 -6.968074395637008714e-03 5.007375098601957869e-02 -2.020657597099978497e-02 -4.646146310440354282e-03 2.122562944539001413e-03 7.707959239306774735e-02 -7.191048119260044780e-02 -6.163159718963221075e-03 3.601570460335738744e-02 -7.218223054845114561e-02 -2.959839622951896537e-02 -2.944180028828889684e-02 -3.050394788938492682e-02 5.874605874821367014e-03 7.476944153257342185e-02 4.037417555447551931e-02 4.483829788075618245e-02 -3.764263414644436478e-02 -4.339172780481272140e-02 8.274547790422491500e-03 -6.283704501845303880e-02 -5.823564309161907704e-02 4.163824326925747756e-03 -5.294723039472876147e-02 -3.386709182025979693e-03 -1.639822211954006410e-03 -7.320528704091337768e-02 6.499181766047651410e-02 9.406794640555859663e-03 1.913316578809958618e-02 -3.597205510622960428e-02 5.101283644797834776e-03 5.725991080902140262e-02 6.214078322147589470e-03 1.272721854694581524e-02 1.042559911150035823e-02 -5.310474435159358991e-02 4.498908553179405828e-02 -5.673465073592814240e-02 -5.357498495010450112e-02 -1.944956616505832611e-02 -9.197851364666309593e-02 5.444188560879074934e-03 1.162556882424704147e-02 -9.858801750262815786e-03 -1.394089267690829664e-02 5.155880004518778592e-02 -1.827666911763330820e-02 -1.338376937244264465e-03 3.703112043154521693e-02 4.411862559540091072e-02 -2.426864929793477732e-02 6.863458811472843146e-02 -5.621319815257755370e-02 -1.813719519092375429e-02 5.102661350129667622e-02 -6.733360776501745582e-02 4.085823399294296471e-02 -4.550536772232108285e-02 6.689769783158618088e-02 2.481940543153643083e-02 -2.212085716751584566e-02 -9.971012558128780623e-03 3.091195195831576703e-02 5.882565041613484896e-02 -1.364816482228019268e-02 -4.480171619831830460e-02 8.609466137217316583e-04 1.773828775460425944e-02 2.592350966536712334e-02 -3.641101111001618373e-02 2.668749803954922374e-03 -3.097430690082928970e-02 4.828642226815574312e-02 4.787070598058111581e-02 6.196558861042444216e-02 2.021226244613407927e-02 1.546451367658148099e-02 -5.065055866163090809e-02 3.043174916784830569e-02 5.517048929780773298e-02 8.795938882061475617e-02 4.544637447125654539e-02 -9.440571669894804591e-03 2.999640175630873332e-02 5.308490740301732846e-02 -4.579647887047364439e-04 -7.109003812395845931e-03 -3.544369062246034707e-02 5.771194297731234088e-03 -3.986456666196134396e-02 1.824699047073291905e-02 6.944615831124820171e-02 -3.069718849271413710e-02 -6.599924301824182382e-02 -3.307437276619764471e-02 -5.314596410462659078e-03 3.632440635529110562e-02 1.091013502200678691e-04 4.905523532252925589e-02 -6.907685586779949150e-02 7.973971693094841773e-02 2.720264971207779145e-02 3.237622518536435734e-02 5.032201100975820102e-02 1.589284288664953582e-02 -4.913547940897958211e-02 -3.997462829465270318e-02 -1.208862304870328766e-02 -1.595724823251633978e-02 -4.617891570831995224e-02 7.806879112882675331e-02 -8.953215974147809772e-04 6.689609164483882597e-02 8.992176140578398910e-03 -3.368773233214206880e-02 -6.700771868193615421e-02 6.146928924377056264e-02 1.633778286227433041e-02 -1.336995538232463136e-02 -1.519901196615700218e-03 3.136128896851453352e-02 1.641638607207406009e-02 6.212784444825099339e-03 -4.015835191361699641e-02 4.153589265616922099e-02 4.949601164172670598e-02 4.717121429183417786e-02 -2.296514961985021090e-03 2.517638984382993342e-02 -5.477817584046187210e-02 6.418053733806132477e-02 4.141420937958833690e-03 -7.455981653850749999e-03 2.176133576168256048e-02 4.784184350503239286e-02 -2.194957764101609227e-03 -8.289960718521091620e-02 3.023138741809828015e-02 8.436449809433940739e-02 2.044302172124347686e-02 5.941720604845428938e-02 1.709811195880682130e-02 8.913739991313317235e-02 -1.084540807943748346e-02 6.778305993326014245e-02 -5.535188898587233702e-02 -1.215262004925942232e-02 3.794290422528465156e-02 4.978213766198676810e-02 -4.609792026563340646e-03 -5.610274404100947312e-03 -4.923765201485121035e-02 -4.035300270486186225e-02 4.646151297659484314e-02 3.112249062645253226e-03 1.586718507562605990e-02 -3.898311324854644710e-02 -4.430474670121176128e-02 -8.491003623547518919e-02 3.430253256964475167e-02 5.151937859204321069e-02 -3.990135639771653225e-02 -3.418730916863930297e-02 2.660082203832634870e-02 -6.907373156657332924e-02 -3.651772979180462758e-02 -1.404949303762923624e-02 -5.475889116250247379e-02 5.725060921747018861e-02 2.482471140402129836e-02 5.176110585455380442e-02 1.407361333327953549e-04 5.942770137960332738e-02 -1.572047155516747771e-02 5.777014293352281116e-02 -2.061206079677918579e-02 -7.660628318158391181e-02 -2.982018259606165032e-03 6.051025231105424534e-02 -3.160813757832967442e-04 6.397650825223299975e-02 6.242059545601292420e-02 1.927230514481502151e-03 -5.574381267147685004e-02 -1.037072559670920539e-02 -9.053561268121161631e-02 -1.139801826631417579e-03 4.672276197907564155e-02 8.947677869625159097e-02 -4.497753718424359753e-02 -3.296587471064794939e-02 -3.715455892493581963e-02 1.643250749380876716e-02 -3.810682430589186487e-02 -2.321257589199879692e-02 1.482227704085069785e-02 -3.436580650642444279e-02 -3.402033551627385577e-02 -5.151238378265042550e-02 -2.919437231782028019e-02 -2.220387456981369120e-02 2.891492255672603595e-02 -3.793537675891810179e-02 -6.177174858909114524e-02 -7.114731153541542508e-02 1.180487516985784247e-02 3.937703446188349499e-02 4.543088644370625595e-02 2.644292600244310329e-02 6.463427474207525392e-02 -3.479105029877208044e-02 -8.393327172726613300e-03 1.923330367362106191e-02 3.255490180354209812e-02 2.908738321337465439e-03 -2.709661547821328245e-02 -5.921978710227712717e-02 5.235774755718684143e-02 -4.754030657999860215e-02 1.314258979486750308e-02 8.873937582385240871e-03 -6.437007880479778295e-03 -8.516372355661558716e-03 6.910380531063851917e-02 -5.818061123366739806e-03 7.485076658340947264e-02 5.398010712328597110e-02 -6.192414336256398671e-02 -4.477861658060698635e-02 -5.022275822445245591e-02 1.025597545417404610e-02 -5.083090882345142440e-03 -3.860147488364062962e-02 -7.163741180336538616e-03 -6.083254841503600574e-02 -5.121299607412036631e-03 -5.707395821138813718e-02 -7.288973953189865906e-02 -4.751180028291920876e-02 5.044705419170065347e-02 -7.373695450928870188e-02 -2.325476475269034476e-02 -4.038852038909235970e-02 8.626965185279009476e-03 -2.632624369948985757e-02 -3.336989138879360717e-02 -3.237764920650026274e-02 -3.788063534312061803e-02 3.186248645914634137e-02 5.267510271442925329e-02 -5.321913390340179961e-02 -7.877762186540915312e-02 1.795228981525655992e-02 -1.605338464705588844e-02 1.138912107648600708e-02 -4.995212630708719542e-02 -7.213560933506868965e-03 -8.026749698125104290e-03 1.039701864900021214e-02 -5.857632589167283133e-02 -6.481125092599474002e-02 -4.624903073061762543e-02 5.340305848320600667e-04 4.377268232286373600e-02 4.402490624395132696e-02 6.057693626925989699e-02 -7.865079220093157755e-03 -5.666206624181354540e-02 5.907538726565664949e-02 6.160866999625029539e-02 4.660955150877329339e-02 1.249015264944980906e-02 -4.201848354712987843e-02 8.354876379567022573e-03 5.002978380988588186e-02 3.175667537567048674e-03 4.911799934034547649e-02 -1.188001172837033041e-02 -7.136394156756034612e-02 4.077251260279824568e-02 1.726335242963253011e-02 1.430596704605335834e-02 -5.647348449713156943e-02 3.682937932746215698e-02 -2.658263239507200129e-02 -4.216131148685453578e-02 5.406215145271088540e-02 2.893226010018430249e-04 1.246569087473826769e-02 3.724833633748771827e-02 -5.780408375202070181e-02 6.634036809949661433e-03 1.094610073168003628e-02 -4.205330913790199937e-02 4.740299726855160684e-02 -6.478003389166830939e-02 -4.846263908272259446e-02 -4.008122766715918432e-03 3.683603838279010797e-04 -5.707225712070130436e-02 7.308891912880841057e-02 1.500567859519532678e-02 8.734759403585139192e-02 -3.472738165278461964e-02 1.573039526734337779e-02 4.804485150230818069e-02 1.589171379355541758e-02 7.279027584548943518e-03 -6.371800738123246932e-03 3.557977123264531583e-02 -4.246444448228490348e-02 -5.324691571722579841e-02 1.532353717642962257e-02 -3.824127746028135183e-02 -6.160570958601080394e-02 4.070799373237787150e-02 -3.215662933115931432e-02 -6.257431141336072811e-02 -3.554969277230284747e-02 9.069811604141686870e-03 -1.917838020754363687e-02 2.128639585673040499e-02 3.278657954421464182e-02 6.928495627326558548e-02 -6.085724630838127563e-02 7.886681450891164236e-02 -8.881494875125910300e-04 1.357188496156003753e-02 2.132091999359758336e-02 -2.478638007898112741e-02 -6.258167768319164437e-02 -3.873778280074913205e-02 7.259874356105100457e-02 1.498264655661201740e-02 -5.686863393886355811e-02 -2.996760052760672616e-02 -7.804906856865211073e-02 3.541972934685156532e-02 5.898204529736688490e-02
-6.129972245729359628e-03 1.837201405134954862e-02 -1.328731611522241014e-02 -3.659159893841087280e-02 6.453236282637500598e-02 5.787853532639547494e-02 4.404135264552817147e-03 1.683199534736037548e-02 7.045223765116520251e-03 1.852115086733536337e-02 5.806251258477346244e-02 4.212833996906251155e-02 -1.123625159361218810e-02 4.992439958733371069e-02 4.332957479409911550e-02 -7.126850163426907969e-02 1.019030270599789213e-02 3.888140242251991036e-02 4.228346473314614079e-02 5.792711017383195965e-02 -9.392020899982781931e-03 3.822124335411878054e-03 6.716940900899216749e-02 -4.211770580051509005e-02 -6.631022340652942271e-02 -3.798163890092737249e-02 1.963489481544757054e-02 3.202479976521537680e-02 -8.283423160588709866e-02 -1.370046079168167272e-02 4.171804917670818985e-03 8.069811069888263577e-02 -5.986749924476370693e-02 7.381137385918916383e-02 1.039279980651146816e-03 4.409931901651751446e-02 -2.625852848274595058e-02 -6.503555684198268627e-02 -4.506764276665213217e-03 -4.878246252104800201e-02 7.223797186751834687e-02 -2.793671353486589654e-02 9.077064233305013469e-03 -6.394916571132007455e-02 7.006951447040170311e-02 2.804045222874330598e-02 8.255314165104743473e-02 -2.311650306231009463e-02 3.343112809033722127e-02 -1.294430390757722593e-02 -1.244141829869104508e-02 -4.533740467975761607e-02 3.726971937033043969e-02 4.640677707565307036e-02 -4.669657561331158613e-02 -6.726902593955624843e-02 -2.966783511456581521e-02 -1.654809699318784619e-02 -5.664946146271550298e-02 4.335978125556472912e-02 6.351482662667767842e-02 6.812202651071266879e-02 -2.286441348569482473e-02 -5.845269051466141230e-02 7.858423497293967955e-03 1.560594087099578982e-02 -6.364456386697105172e-02 4.530567048007278635e-02 1.269308598626511450e-03 1.629895669399400449e-02 -4.081426993330744546e-02 4.288642043779364310e-02 1.968414835787665133e-03 4.806599989701623721e-02 -8.707031665501912751e-03 -2.044675456619133788e-02 -4.747570616865703919e-02 -4.017864062632242605e-02 -1.094496758490728743e-02 3.548864404744372231e-02 5.972431403607035560e-02 2.025410156033692968e-02 -3.695507666077237768e-02 -6.540923731021937304e-02 -2.974667384261873992e-02 -4.787897265048402656e-02 -3.789853645572801438e-02 -3.465959267314148301e-02 6.033570737462202321e-02 -5.299581785627477393e-02 1.992825178947522230e-02 -7.914974283173017988e-03 2.135440056461197431e-02 6.183261508875295860e-03 5.643993137761272883e-05 -8.402196992473597026e-03 -4.212871670758461251e-02 2.378033107004453098e-02 -2.695227823425479577e-02 -2.075069849127207048e-04 3.034384066292241527e-02 1.672542396207686924e-02 -4.874904566160579572e-02 2.439171879353798505e-02 9.352404440251704159e-04 6.544766770770377162e-02 7.905459291526482912e-02 4.779908326908724470e-02 -5.988443052526921245e-02 -4.985616574605808426e-02 -4.834133435811419771e-02 4.338124976856889969e-02 5.046022734088114609e-02 1.829236084942415658e-02 -6.746480097201378034e-04 -4.517185169891946295e-02 -2.309352969370246506e-02 -5.698292650157456285e-03 -2.543449538633535401e-02 2.471384342797555613e-03 -2.494266125718892779e-02 -5.080162785217501309e-02 3.803228039627929574e-02 4.568445805319390485e-02 2.664137539651876066e-02 2.856302865297029661e-02 -1.998870564007664344e-02 4.980914715161705031e-02 -1.241979663326236299e-02 -6.770593991788405319e-02 4.746782281536805065e-02 7.105572558373499104e-02 -4.829412523382935196e-02 5.735013422185353260e-03 4.927767013183604466e-02 4.255462590677418222e-02 5.527757160697311517e-02 5.230064789324050112e-02 -6.171202848113794409e-02 -1.499267057167503504e-02 -4.572358820056978551e-02 -6.769462559826786019e-02 3.284910589098279099e-02 -3.123484291244376168e-02 -2.968083920475756213e-02 3.061697990972400696e-02 8.962820271193709665e-02 -5.147648051000994207e-02 6.823498290566142044e-02 -7.058820717298651404e-02 -5.740380552186535867e-02 3.658139149807324020e-02 2.906651628436089305e-03 -3.919959444597689163e-03 6.959063036169724041e-03 -1.824497199267599915e-02 -3.968485315349768588e-02 5.300081580749394644e-02 3.095367674203869726e-02 -4.752417251636563422e-02 4.861408479743287853e-02 4.068920018111555487e-02 2.802517935033249988e-02 -4.118407172882632139e-02 -9.279837067170866940e-03 3.528476211669775292e-02 -4.672351110402998137e-02 -3.592137683333920806e-02 1.329780547677110979e-02 -5.099901467333296801e-02 6.321412169295251293e-02 6.333994183467954453e-02 4.188775620458894816e-02 -8.334340128177653365e-03 4.421154955671009745e-02 -3.075249909110200700e-02 6.715040378771020002e-02 5.363347459465100942e-02 -6.011669204218302032e-02 5.618353120035337461e-02 1.099577654143763135e-02 -4.298262085074108091e-02 6.311353493837495998e-02 -1.077437703130127052e-02 -6.003230447621182159e-02 -6.948703776416842448e-02 -1.768872394998415379e-02 -3.299501910634711904e-02 -1.125313012792067240e-02 -1.254825246146352123e-02 -5.810122248295304659e-02 -6.103840893351235308e-02 5.043765194880628529e-03 -2.492851539935949517e-02 -4.663661336995141710e-02 -7.359841920134695126e-02 -4.269221423088764844e-02 -1.567869180415429678e-02 5.115969955939928676e-02 4.960254678808592027e-02 -4.585258412442001774e-02 5.549410898897434025e-02 3.402680521838010591e-02 -5.702525433193120219e-02 -4.337906767327085605e-02 -6.063802095910034162e-02 -2.879062500069442740e-02 5.296003002518010622e-02 -1.243192693110905037e-02 -2.897956839185785935e-02 1.965064383215834459e-02 -7.246385589151958058e-04 4.716334722330293994e-02 -3.913726833413892076e-02 2.804925580825724449e-02 5.913356632726322198e-02 -4.747960931439013099e-02 -4.814047124162740970e-03 -6.843794234293559819e-02 -7.581246609254356505e-02 -1.420228243864032555e-02 -4.220634614468941892e-03 -7.798624550390996502e-02 5.666912122667587537e-02 -2.965200842590997449e-02 -1.087859425216635388e-02 5.130544143427880066e-02 -1.858871125390935963e-02 3.607250942946084449e-02 4.371489303496198242e-02 -4.460526812136533098e-02 -6.055834512263592179e-02 -2.470434784070598203e-02 7.384959129996879201e-02 -4.199809474034302270e-02 3.866978461691984725e-02 2.871109935866550042e-02 -5.369246974098644543e-02 5.217278399617040346e-02 1.713476313453508176e-02 -5.100381039344990125e-02 7.558235629346092554e-02 -7.929516467638442895e-03 3.444964328063484377e-02 1.590892066556792717e-02 3.310514440790036927e-02 -3.290702616966691835e-02 6.782356060493256733e-02 -7.261749509903497879e-02 1.113973126038611712e-02 2.841219614734400919e-02 5.161377162482401471e-02 -5.585386565883119353e-02 -5.157811580011721631e-02 3.717594964629993004e-02 -2.292559784859042951e-02 4.753787715897875299e-02 1.796611166178502597e-02 5.443812064214126334e-02 4.065648378362314401e-03 -2.988439392672931003e-02 -2.366966338487705088e-02 -4.494405042411037110e-02 5.814594512505531082e-02 1.976549566733713098e-02 4.240992016650902557e-02 6.048869489976333585e-02 -4.853077947860733390e-03 -3.036334972998235363e-02 1.622299289179378670e-02 4.192603156260026227e-03 -2.738829486531061189e-02 -1.084973649772307154e-02 5.160885957056658702e-02 5.036828889231183271e-02 9.571792812577618230e-04 4.531455078475581794e-02 -6.349837603624994276e-02 5.566481505169521699e-02 -4.291455542690004316e-02 4.811150914108686810e-02 -1.044962503417247793e-02 2.577333085337936078e-02 -7.017850571522951664e-02 -1.973500170089433417e-02 4.374298566270112820e-03 -5.509123899093316262e-02 -1.814037259710321245e-02 -5.712137084776532786e-02 -2.516238322260717225e-02 -7.305475168335084230e-03 -3.433909180347807094e-02 -6.179742507410796587e-02 3.112079671586271551e-02 5.628585478584549606e-02 -1.424407688500587202e-02 -5.374577988473216300e-02 6.211781706668369901e-02 -5.573507191711137964e-04 6.343497118149579728e-02 6.980961047262845831e-02 -4.081344969152925217e-02 2.647503897762997285e-02 -1.359473745012589399e-02 -7.223626794905652071e-02 7.401292362574404815e-02 3.705378898045601221e-02 -5.471616386488497782e-03 -5.711884723647432660e-02 5.819015134895207803e-02 -1.806827611469222217e-02 5.057970294489490259e-02 7.599418311364766580e-03 7.270770859477819481e-02 -1.718241999183082666e-02 3.501426451614627483e-02 -1.132224695013950809e-02 9.752607543742962491e-04 7.388190054974548560e-02 8.358147528892771738e-02 -7.429022085331858649e-02 7.214779326585372965e-02 3.606088735073507967e-02 1.006187307922594421e-02 -3.072056715457137030e-02 -5.076814926545735601e-02 6.834557997062218337e-02 5.816379293192628502e-02 4.144226628648292263e-03 -1.398446193728558086e-02 1.713733976476066595e-02 -5.693859611779950730e-02 5.129171252700270855e-02 -7.798866061803698402e-02 -6.491340673174957054e-02 -1.079962736167973912e-02 3.423834831051696809e-02 -6.651250398174717027e-02 3.510336864443700661e-02 -6.762752504002753073e-02 5.868188342253898709e-02 7.772854426579436926e-02 -5.314293440300485449e-02 3.825332135000623218e-02 2.444033140485241118e-02 -1.005728207044994001e-02 7.817517561690714989e-02 5.685315062303622144e-03 7.121593745752791138e-02 3.769162650755357967e-03 -3.471497815836867284e-02 6.995550810748121795e-02 5.121007554577249737e-02 4.855197590206128400e-02 -3.169132333535246149e-02 3.000851794209923734e-02 -2.688004466706267470e-02 -5.215451990394649739e-02 -2.229792992044499211e-02 2.067464907890909087e-02 -1.269181147657836954e-02 -2.081529406936837023e-02 4.711942068522958355e-02 -1.627754603429746802e-02 5.508241919846630641e-02 -1.879421612978969883e-02 -1.608998129309075625e-02 4.724717826842513707e-02 4.545045620469974346e-02 3.795678243844129163e-03 -1.875687456437086231e-02 -6.002112776937094940e-03 5.468159455248673001e-02 -8.498773585908881573e-03 6.999223803887102968e-02 4.884497831223116177e-02 3.791744487738652608e-02 -6.542549102497242919e-02 6.359529537572101987e-02 -1.021753186392031394e-02 7.936679895743632782e-04 3.457776655647055997e-02 -6.710562410691259250e-02 -5.819419257283130198e-02 2.841080396978881359e-02 2.783542435655056088e-02 -4.151475652751156209e-02 -9.429544934696205624e-03 2.651999818695150932e-02 -6.853982408241793278e-02 6.733586372411901055e-02 6.987259328186307128e-02 -4.712792115794689485e-02 -7.511933280375675259e-02 1.843302161585978413e-02 4.239829207586002721e-03 9.797972961220001008e-04 -4.304066430580282682e-02 1.118138196242449839e-02 -4.873553463771095745e-02 5.557096378772697493e-02 -3.050701693555193158e-03 -7.149192668724281552e-02 5.837689543282482268e-02 -7.686692954876143957e-02 7.503745559917644747e-02 2.440726859338852514e-02 5.374846255380265336e-02 3.165088475314448146e-02 -6.255384416804828096e-02 -6.587931385725821071e-03 -2.754299180629817684e-02 -5.977868384464760272e-03 -2.144233607771616618e-02 2.962412611918604360e-02 -3.679753614864259698e-02 -4.946501926879143252e-02 4.009860865128363205e-02 1.689834571836837385e-02 -7.348706951525103837e-02 7.677818632714973612e-02 -1.664198865394716370e-02 -1.891186685506789089e-02 -7.593924784666787609e-02 -7.367904573303483973e-02 5.976354063498513780e-02 -2.845143002634892976e-02 2.045731981067773139e-02 -3.860712573880465803e-03 4.121924091719433164e-02 5.599978882666444696e-02 7.105760606675176616e-02 -2.203102609819819827e-03 -7.288902047900960857e-03 -4.047709617451076408e-02 -8.645302712963407604e-03 6.349574505181897199e-02 -2.403248491268732048e-03 -5.257474952569987647e-02 9.796147825620875327e-03 3.035506096328961789e-02 -4.938594211331932132e-02 -6.168864507716623896e-02 8.311577930167327044e-02 -6.048544691831162640e-02 3.307396098659810130e-02 3.177032870024228128e-02 -4.097411212465881802e-02 6.270772363453509801e-02 -7.100765961077055988e-02 -3.557667090366399554e-02 -3.167814017284056871e-02 -2.482851784814127730e-02 -1.270986894938575928e-03 6.893001287176375724e-02 1.542324179225873504e-02 -5.019202266737175788e-02 -4.788538894837398446e-02 -4.817571760650030468e-03 1.079630686504497172e-02 -4.668963514560556943e-02 4.554526549619319215e-02 -5.194150795011696214e-02 -8.018162948385204603e-02 -5.870462027279153144e-02 5.035176674625382182e-02 5.636821060563711183e-02 6.113841340720885947e-02 -3.783395549976752842e-02 -3.445754366709252031e-02 1.067877422195403049e-03 4.946036403506662293e-02 1.830119245617516099e-02 -4.521607198428649783e-03 -3.385775564945781024e-02 -6.432314833655010389e-02 -2.830755779965147753e-02 5.926201580039167083e-02 -6.227552774734856911e-02 -3.742081928434533300e-02 3.784076299066714555e-02 -7.119633191661844940e-02 -6.237516535489883579e-02 1.499893822931237797e-02 -8.498636106255381961e-02 -3.378180069859570284e-02 2.098961933171547903e-02 2.000868926776202053e-02 5.875390758696354826e-02 -6.067515379573911599e-02 3.342481901812278944e-02 -1.879443481967903520e-02 4.178836209663046308e-02 3.710205161597715517e-02 1.649090068853718838e-02 1.476197797721585242e-02 -2.632132895942660561e-02 -5.313645368296722460e-02 -4.131988176044117285e-03 -3.384126376417987553e-02 -2.423965798139265590e-02 -2.864764241044832904e-02 -8.292206539355120865e-02 1.170315141013930985e-02 -5.427131207213902603e-02 8.887853228167577613e-02 -5.709406961715787765e-02 5.602417383306533549e-02 5.147172903095328239e-02 -4.021090876835264200e-02 -6.981237350336318148e-02 -5.562598656081293655e-03 -4.819747745709638230e-04 3.523157852264493378e-02 3.929830139766826019e-02 4.626618492580590603e-02 2.780352956020324881e-02 3.971260970162160397e-02 5.275050050379591349e-02 4.402657548233769591e-02 6.262777681649296657e-02 -2.972291003713404406e-02 -6.325826494639787134e-02 -3.453038882580409391e-02 6.331086440482561195e-02 3.691083469230525133e-02 -3.777405861710195212e-02 -4.551148074120249520e-02 -2.752041756182209767e-02 2.343513338656427400e-02 -8.770891455159779068e-03 -7.961488791375914698e-02 3.461833954691357490e-02 -7.408861795905316572e-02 4.728730715203083301e-02 6.679255737264097603e-02 3.864971920831226232e-02 4.176629414037197341e-02 -5.399136297198874057e-02 -5.429833932211116515e-02 5.031346103813765652e-02 -5.118425151183672583e-02 -7.655547335952117560e-02 3.632516456999768106e-02 -5.300808113595229659e-02 4.430133503152482860e-02 2.791934412788744935e-02 6.158667874863358455e-02 1.995195704269569700e-02 2.447970059038494933e-02 2.136958794763786987e-02 -7.038324191543195163e-02 -2.851543139291094417e-02 9.130180551279110795e-03 8.492696361021016827e-02 -3.491233075634259803e-02 -1.330819611149246240e-02 7.254815983546855640e-02 4.380259305664647995e-02 3.643757770222791348e-02 5.357466188564208309e-02 3.617156430263924333e-02 4.367877063219772343e-03 -5.974009270102733499e-02 3.814710729359961638e-02 -1.256231571668991152e-02 5.887098253285839855e-02 3.517185801496485603e-02 -5.718667123860358970e-02 3.608496631581316338e-02 4.313751220263152553e-02 -2.136627917771312737e-02 2.112947734932939248e-02 8.578785423178369313e-03 -1.478511636843105742e-02 7.331795005283567312e-02 6.003720777140279796e-03 -3.312535985317741766e-02 -2.742494113261877836e-02 3.372500260924129328e-02 5.685738178936061704e-02 -3.271246861264194561e-02 8.716184697432755729e-03 -2.017998712703093431e-02 -6.601594895457341128e-02 6.133220776340794073e-02 -8.671051969043511165e-02 4.192083877202776310e-02 8.312379087719208581e-02 -5.174278512728074098e-02 -3.176154580911697695e-02 -3.673544046210787395e-02 2.155284588120893324e-02 2.895831246944748430e-02 4.147630671582116374e-02 -6.978513962261814751e-02 -6.735861601701319257e-02 -5.111877853119202453e-02 -1.960568139311353458e-02 9.070792683691239955e-04 3.902916337522535639e-02 -3.364135053377138862e-02 -2.025735212824267967e-02 2.217770026614574591e-02 5.556583634115573600e-02 5.210539947376260916e-02 -6.332652061519931930e-02 2.286323198864808823e-02 -4.931289933803408021e-02 9.500051096644137813e-03 3.162837807276682595e-02 2.213734021109238850e-02 1.049829212104340555e-02 -5.577958445709079588e-02 -1.059470287472232680e-02 -7.917349932176182339e-03 -5.456016915278390916e-02 -1.979098764007491376e-04 -2.543901208244531489e-02 -3.257586974517009265e-02 -3.172907008858064787e-02 -1.950962796524630420e-03 8.762431616816021215e-03 -6.027732315886003694e-02 6.586650948366191971e-02 -2.147708433831002281e-02 8.027183563686333956e-03 2.195481219134401158e-03 1.398277549990602567e-02 1.743880460569832008e-02 4.699260656633024585e-02 3.331950024197322113e-02 4.858502045837150007e-02 4.974969306941550568e-02 4.600918926654128105e-02 3.684099279238511188e-02 9.348794715032247848e-02 2.491257318841766030e-02 3.446118371948703879e-02 -3.741728532108225258e-02 3.598714443181750405e-02 7.828576489840505248e-03 -1.342385386008279093e-02 2.748939797305926733e-02 -3.106012776124708608e-02 7.775034148308132553e-02 6.772697127051972854e-02 2.345493747430895878e-02 7.760815030924610169e-02 -4.167631103412907517e-02 -1.558726917339269512e-03 2.026664040752338553e-02 2.575613334857861092e-02 3.185733943562959330e-02 5.293631716006378350e-03 3.774087921513741284e-02 -2.314717725885432915e-03 -7.514915897959489888e-02 1.397830338475877093e-02 6.162870988713789466e-02 1.081574707139328767e-02 1.753747356753488154e-02 7.014374286739982756e-02 1.513840268903284339e-02 -1.564318767974372248e-02 3.083233617093571535e-02 -5.144189822825056407e-02 8.771978226197329684e-03 2.777315610016047476e-03 -4.753887127655472000e-02 -3.705822734149767650e-02 5.210988134003667616e-02 6.736612555212329045e-02 7.837958770392536995e-03 -3.180054102819148548e-02 3.192484730387629838e-02 8.112706453633022549e-03 -4.511184190775384406e-02 5.905539266477462940e-02 -8.902717139333002697e-03 3.896694521673994827e-02 1.729325489478322764e-02 1.139503801072591464e-02 4.392452269509219270e-02 -4.765882308248188537e-02 -4.231088779295536645e-02 -1.147002430292864798e-02 -2.719872419988167075e-02 -4.268249192474998614e-03 -8.151797261005334916e-02 -9.030794334116879971e-03 -2.462893936159304986e-04 1.534580357541047435e-02 5.562609460445599313e-02 -4.617897618788451009e-02 -4.626021041505318232e-02 -4.957473695214614784e-02 6.606529244329354365e-03 5.979183252903663010e-02 5.475790660150015726e-03 6.337447125723466579e-02 6.617833726274453821e-02 5.460514636045898929e-02 -6.473685449881901033e-02 -3.928855281193241629e-03 1.831435992051673109e-02 -2.575561239055689997e-02 2.644442702195174202e-02 -4.450547238765244912e-02 2.986183623512751045e-02 -8.537694358775418935e-02 -4.548975504882939169e-02 -6.864917534950118472e-02 -8.113581095178153124e-02 2.839841692176932678e-02 9.576231714334884626e-02 -4.221789491267174954e-02 -1.708347845020104575e-02 -4.108140186962332824e-02 -5.215816977200560950e-02 -1.254600099199717003e-02 3.052364675918071285e-02 -4.148395447182529061e-02 3.231492663259497716e-02 -6.978762042328755244e-02 3.064435343719194502e-02 1.505156946994040505e-02 6.124021720423921365e-03 3.432311808573277473e-02 -3.491759729932231160e-02 -1.223110020022615853e-02 4.290848277260175120e-02 5.305144669966382898e-02 -4.152920038964145327e-03 -4.476889769683312786e-02 6.329315634663203183e-02 6.618994679666937754e-03 -8.366571515913837076e-02 -3.870435375556229018e-02 -5.586297771345308943e-02 -3.746216399669518443e-02 -6.433510924087160188e-02 -2.670982851368990801e-02 -3.528109741176654185e-02 -2.130309330074909788e-02 1.570177475141194476e-02 -7.268170776694991841e-02 2.711596246507419136e-02 4.039700552282753793e-02 5.420324797977092712e-02 -5.937304378982388720e-02 -2.006036533974272368e-02 -1.010023269590440594e-02 -5.593786996874307998e-02 -3.425384216483855909e-02 -2.348282941698120671e-03 -3.510474181095781659e-02 6.008294911623161816e-02 -5.793358904361602113e-02 -6.464121459833994943e-02 5.159979959003508504e-02 5.654471267689865910e-02 2.907632137306681488e-03 5.321089145657990210e-02 4.840936832820865766e-03 7.058296797288669822e-02 6.269676390028607049e-02 -2.155289087180780813e-02 -5.281701942146220519e-02 -1.485592670827773527e-02 3.851986031080462114e-02 2.233956590881828672e-02 7.382394930303652278e-03 1.460347204794268557e-02 4.516564311387748221e-02 7.345369996972965498e-02 -3.215281632848376175e-02 3.032298011950430860e-02 -8.380917837306942064e-02 2.894581474764632706e-02 5.388289514541377140e-02 6.331206760418311985e-02 -2.297499236884251519e-02 1.715177720730440974e-02 2.675914078060878318e-02 -3.613834561782081067e-02 3.793789444867923938e-02 -5.203034427150965424e-02 5.988176716874832328e-02 1.363526863640688626e-02 -1.616007306905070662e-02 -5.213031673412630435e-02 -5.601838663666413969e-03 4.833037421283805507e-02 -3.078662263174476027e-02 -4.977478175603163718e-02 -5.052228068653576848e-02 7.327633082803032549e-02 -6.039009372091112132e-02 -1.885994090131056303e-02 2.490817720288693651e-02 5.924442558095874278e-02 2.729635686532031272e-02 -1.722679843243572415e-02 4.406247721665254580e-02 -2.957107457994289507e-02 -6.033623625450288547e-02 -3.703719233683321760e-02 -7.890711107674594493e-02 -4.079539871794625461e-02 9.839384434161446008e-03 -4.465975647026467626e-03 -8.508167677265733586e-03 3.181528531089661271e-02 -6.070842257252927893e-02 -3.478890885594581456e-02 -3.298313790101606302e-02 6.192695071243150412e-02 -7.316794156203992872e-02 -4.957232575747155465e-03 8.443505333710634234e-03 -4.094534411820988096e-02 8.439966624705022569e-02 2.723020214127847439e-03 -7.058952902596661583e-02 2.524518175746517500e-03 4.750021455963601008e-02 -1.150194859036729814e-02 3.494217172447953296e-02 -7.360956209608124357e-02 1.668568112943913438e-04 4.364304992433262059e-02 -5.291762762310846246e-02 5.774458380930793527e-02 -1.403365053914350929e-02 -1.158436886990673112e-02 7.648356833440786429e-02 -3.580334740391685755e-02 6.181395898973006398e-03 -3.286330276876489598e-02 -5.187389712883191256e-02 6.009262256090634746e-02 1.700358300079456847e-02 2.178082098371213193e-02 3.569231772030550024e-04 1.995926097328616991e-02 -8.781309768091343296e-03 -5.196630937707244491e-02 1.539713915578886684e-02 6.443116072860141999e-03 -1.469323898999998906e-02 5.065871987806194049e-03 1.175235155488369571e-02 -1.989878090000665734e-02 1.535308743912220698e-02 2.848547523709189788e-02 1.185173741572621495e-02 -3.344565875458423154e-02 1.372482471350195375e-02 -6.742362457940564990e-02 7.190626949870803850e-04 1.496915104229114800e-02 5.035615310060579525e-02 -8.341029877345490506e-02 -2.592339421791334253e-02 1.546984934881850959e-02 -6.513038747741159429e-02 6.398167644776886487e-02 -7.930051504821447259e-03 6.859692909770395697e-02 -9.515875412962665827e-03 6.889936833213262946e-02 -4.492359672032902179e-02 -6.363851382793325739e-02 -4.278643510708475539e-02 -5.499243494337369836e-02 -6.817865479403766027e-02 2.037023938575057563e-02 4.260026706904271321e-02 -4.181785305269997838e-02 5.680411006054284645e-02 3.314686623289871820e-02 -6.930647233765947768e-02 -4.956241797351525896e-02 1.998589605214402473e-02 -2.366696500681823856e-02 -9.394927837835902185e-03 1.273326781847789781e-02 -2.751481518636103574e-02 -5.542671914958807039e-02 -3.256654550663475034e-02 -6.214555255309171800e-02 9.337379725359074012e-02 -3.426530262811661870e-02 8.969702293496951973e-03 -3.172525122119586403e-03 4.699519051978509609e-02 7.725675052830910383e-02 -4.650720670225354063e-03 7.062242387607275962e-02 4.512054152902410936e-03 3.934670953642943614e-02 -5.858538768998149820e-02 5.969832762988132313e-02 -5.549518861566922479e-02 -7.014442615709452766e-02 1.800147308419821485e-02 -2.457197784580750222e-02 1.662520639588455432e-02 2.700498425389432841e-03 3.610818130834351830e-04 -3.425212366288837157e-02 -4.062456042530779993e-02 -5.791399348396293612e-02 2.120853093749014082e-02 2.136717192879441021e-02 4.720632224618731554e-02 -3.660073256368440858e-02 1.286774003608624761e-02 