20
-3.792526658297127318e-01 -2.201926882826016063e-01 3.581365867249500234e-01 5.020338068930040309e-01 -2.413161125964483900e-01 2.050905926115851596e-01 4.179784579297520647e-02 1.968286531855835408e-01 -5.234772473037259122e-01 3.625075328085664017e-01 -1.270500569296519333e-01 3.615575846522838255e-01 -4.889457250706774616e-01 2.191424488181861752e-01 -3.552428831416251098e-01 4.816171368693180077e-01 1.011435476021255164e-01 2.857554125458518501e-01 5.327929258663866019e-02 -3.980293779659899167e-01
-1.985818858979630092e-02 7.551760541480147249e-02 7.912415020605627347e-02 -2.426443095351809090e-02 -2.564317779105763223e-02 -8.844505609421475859e-03 2.762046978640582753e-02 -4.258805618569315617e-03 4.257314638252634315e-02 4.692556338354201412e-02 6.857711086723595161e-03 -7.492661440514547522e-02 8.236446553485005789e-03 -2.093958411239808456e-02 1.240136569768664730e-02 -1.771472814899349366e-02 5.910674564168413164e-02 -4.026349559495601138e-02 3.811509695893103376e-03 -5.879324538453323257e-02 7.653147669689380761e-02 4.282657579477033155e-02 -5.331133603766599616e-02 4.201078470062023784e-02 3.864188860333394974e-03 -4.221450648958556540e-02 -3.978540401710397439e-02 5.932476572934101272e-02 -6.436391601593585698e-02 3.072479232134675206e-02 6.800385232446531925e-02 1.750143644775455044e-03 -5.647571683682249370e-03 5.153944661952049311e-02 4.650855831489928566e-02 -4.661749071991994758e-02 3.081411055118600528e-02 2.492463711599603518e-02 3.849188356956664142e-02 3.260345055357605909e-02 -5.462246945515353974e-02 -1.319160157013503365e-02 3.660752002808221467e-02 5.898246633858449453e-03 1.590775937642067636e-02 9.638361707374190276e-03 1.215115161219224938e-03 -2.965249670703315465e-02 -6.026204576456244133e-02 -1.300738062467556543e-02 -4.819917179782391703e-02 -9.407466591181275553e-03 -6.883501874037963042e-02 -5.398220372857323590e-02 -1.481999720704075922e-02 -4.755989896106378734e-02 -2.171928635543275005e-02 5.334187812237584092e-02 1.217040790288478717e-02 -6.521580081411507135e-02 2.176635673642933824e-02 -3.503919578812077218e-02 1.366150080835466102e-02 3.597478051873090332e-02 5.033940428883309365e-02 -9.048202269781067258e-03 -1.523824441807475338e-02 -3.844324459864417731e-02 -8.744362191204275991e-02 -4.830933249714885330e-02 7.203704011863067136e-02 -6.469592251390160476e-02 6.196954252875129521e-02 -2.866672040845181027e-02 -1.902007512424351565e-02 7.133501328396518737e-02 2.848133807104764621e-03 5.492050595439492561e-02 3.559172818195364962e-02 -6.175304730448633039e-02 -3.300385338438550920e-02 1.718045439387266490e-02 -5.974451161929499043e-02 -2.057565733435405553e-02 7.252980697739734584e-02 3.667943945917600396e-02 4.496781695229890019e-02 -5.950236656340214536e-02 1.130824480464981711e-03 4.333580828331933671e-02 -3.604824824533831018e-02 5.499842216021073177e-02 1.411213734094587426e-02 3.752157336411773847e-02 4.172070644645042153e-02 4.124340879399249898e-02 -5.965293520217997136e-02 5.856688938187983029e-02 3.677868263397118115e-02 -4.173770484586756396e-02 -3.484944989685068162e-02 -2.047148721247452063e-02 2.623673342641102968e-02 1.076108401727447761e-02 -6.134606285141463999e-02 -2.766100999985676712e-02 -3.782527539489712737e-02 -1.384379654019182032e-02 -4.945190056190729155e-02 -1.951005368703289181e-02 -6.451490556483366334e-02 1.827633599296048586e-02 -3.162193447680261994e-03 5.662712748937062841e-03 -5.145980046255017870e-02 -8.003909457543620376e-02 -4.346457599307584213e-02 3.156085364020694284e-02 -6.826603976163830856e-02 -3.503004216602364357e-02 1.587250002790794451e-02 -2.990711812941853221e-03 4.505787895352265926e-02 1.364766233282844327e-02 -1.446510708425313534e-02 4.853437310192199733e-02 5.264299932592335883e-03 -1.181951078770106939e-02 6.778717241279383354e-02 4.398386992889523339e-02 2.277872859940964501e-02 -3.752762596613402196e-02 -9.373406112653283329e-03 7.377143334812261144e-02 5.956761173241844481e-02 -3.752784681017444501e-02 8.457828555961657488e-03 -5.734411333640829223e-02 5.288361930642002801e-02 -2.563678224472148992e-02 -4.378677582339927932e-02 -6.705763306827590420e-02 2.029722225371780389e-02 -4.233864891740175135e-02 -6.859244153362166474e-02 2.273098353416883391e-02 5.645172971472665717e-03 5.485860359483297338e-02 -7.997115163330927728e-03 2.841788830312474978e-02 7.186332510125409412e-02 7.898250478969638666e-02 6.345556856133492685e-03 -5.536929802657964556e-02 3.166315262990530149e-02 -5.264406833467679542e-02 1.834970823031882234e-02 -3.928806521462890888e-02 -1.236812517224350309e-02 2.514556203923613842e-02 -4.286824085262583989e-02 -2.767350509964635469e-02 6.459703417943581105e-02 7.342380959143716967e-02 6.007814562001928711e-03 -5.208003139176364815e-02 6.512363598570300449e-02 7.941601718034525803e-02 6.576198639726069106e-02 6.482422548834938791e-02 6.948593322490156932e-02 -7.629038532492514457e-02 -8.199075880110383990e-03 3.137945728627997838e-03 -1.144831092178250076e-02 6.044802549817632903e-02 -5.610128234110364764e-02 -5.562939976266566972e-02 -6.530013766775288886e-02 7.800004922669456602e-03 6.734243630767948463e-02 9.679397566490009590e-04 -3.313312720271481548e-02 4.475137968669472277e-02 -8.043319433659275319e-02 -3.491362954823580556e-02 -1.219942610957873950e-02 4.487804432674783600e-02 -5.936101268456602659e-02 5.806824920057380296e-02 9.415308775730959340e-03 -1.502175225166579170e-02 -3.123020131990257272e-04 4.766064545282225340e-02 3.509860427811538341e-02 -3.106896126195659089e-05 3.555279956692072169e-02 -1.747757931567643988e-02 1.085278216467008665e-02 3.443993723960962761e-02 1.116581035901152881e-02 -5.716054830113125734e-02 -1.213982869901343055e-02 -4.892766006744259794e-02 -5.340928343405630663e-02 -6.039412441505987578e-02 -2.911109350612936519e-02 3.019692642714465452e-03 -6.898618498894562578e-02 1.786173753953673726e-02 1.747694769393918698e-02 3.668417744551155657e-02 -1.644677088353854039e-02 -5.008827922046622805e-02 5.826080231079056732e-02 -4.985105911936510426e-02 -4.123262265986123859e-02 -4.107453555554931024e-02 -2.800989339089824184e-02 -4.475096540848192556e-02 4.715909310408313709e-02 2.652168727424619038e-02 8.823504087568741563e-03 2.769173602484853794e-02 6.146500081456906378e-02 6.339967354465504690e-02 3.135773677926044500e-02 -1.667118911082705575e-03 3.153733724033094127e-02 -9.747717278884772407e-03 8.343925197728731258e-03 6.040663675972191698e-02 5.752687380747639051e-02 6.463456301063415232e-02 2.950888034255644363e-03 -3.316990289624846544e-02 -1.678734210676915625e-02 -3.093289297355788711e-02 1.742058989238297328e-02 -6.135141279851725332e-02 -1.826788203679627701e-02 -3.357853483145806922e-02 -3.634233355138712096e-02 4.590824010685451081e-03 -4.467209202884142583e-02 1.757995566668582935e-02 -2.477648300581701893e-02 5.317740335654877470e-02 5.097900195801114559e-02 -2.647015786065537706e-03 -1.429866684566104230e-03 -1.091974864710573874e-02 9.188967144541770188e-03 9.270517585498174937e-03 -3.604445078976156042e-02 5.950421174390891493e-02 4.194971640460125502e-03 -4.520137298045047436e-02 4.597704674793039181e-02 2.052406715191116421e-02 -4.450747781496096345e-02 6.641565889043642146e-02 -4.728231906752613373e-02 3.734703145995039997e-02 2.068140636617406963e-02 3.595260311080605842e-02 -5.277089859007737249e-02 3.478310880344967493e-02 -2.458697791101869395e-02 7.175023120829196466e-02 -5.042662495365957814e-02 -9.136314164536467330e-03 -3.532361735897900090e-02 -3.611781575379269249e-02 -6.528027015923623666e-02 2.843282054100945699e-02 3.236357908212165319e-02 1.100327274143885273e-02 2.023572967282184776e-02 1.146734195429373847e-02 -2.914406536217943600e-02 1.355242410235516816e-02 -1.596265296518387805e-02 6.609229606071724550e-02 -2.328238377655248229e-02 1.995117154762713306e-03 -6.114806707203196412e-02 3.458475808555195371e-03 -1.300129388870438669e-02 -8.225571301655340561e-03 -3.803219442183197047e-02 -7.016819281506533890e-02 1.758383914045703140e-03 4.958674753318935424e-02 -1.573888859445972052e-02 4.531265776111584320e-03 5.841461643848963603e-02 4.421140481407794670e-02 -6.469155097695361567e-02 7.395217769023693100e-02 3.137685829180022340e-02 2.938006852140982381e-02 6.269171117386113101e-02 -5.151518480206108280e-02 -8.382407222360568899e-02 2.671069840522517086e-02 4.721140846004383967e-02 -2.905986874326582214e-03 2.082902351746823352e-02 9.193787704880138772e-03 -1.500214027973259534e-02 6.306054607734273842e-02 -6.196169196986891364e-02 -2.237530790518848026e-02 7.027865273006925206e-02 -4.398365327665949148e-02 1.307504643254856457e-02 -7.872486748551350833e-03 8.336139011147844155e-03 -2.272591137220221838e-02 -3.806839291292474226e-02 2.571758152455253660e-02 -2.078428042534033460e-02 -7.295046112348103906e-02 5.713035944518277121e-02 1.805802846405996087e-02 9.462172511406444783e-04 -6.379276798965870243e-02 4.076442357833223035e-02 -2.403953534143446480e-02 1.566868022351925599e-02 1.679342444400098999e-02 7.593047640816992516e-02 -5.777772776189781662e-02 -3.516707778038025145e-02 3.151064211643928720e-02 3.365497454108898334e-02 1.252796281107106981e-02 3.298135316153665009e-02 2.697924702451454104e-02 -4.951807341219536911e-03 2.191231022204024464e-02 7.650342116457026220e-02 8.696163880192637335e-03 -8.364156369696802706e-02 2.600485119597643023e-03 -5.637885982094700127e-02 3.876324755063911137e-02 -7.799905280982898093e-02 -5.156711832211071517e-02 -3.070778230492577851e-02 -3.043839976670277645e-03 -1.167555780886306988e-02 5.311513552693521156e-02 1.689277348813914698e-02 -1.242320932200050541e-02 -2.767514954134448965e-02 -2.500473299522619486e-02 4.995238183117704095e-02 7.390483736139281945e-02 -3.298493569943769521e-02 6.598774277060437399e-02 -1.566679934359437726e-02 5.537117181841095387e-02 -3.389187781730791660e-02 3.100740622424269857e-02 5.052469414538568460e-02 -6.011138091913967307e-02 3.070869463926873683e-02 -1.828091660524397075e-02 4.761379028976065603e-02 9.609186133245807213e-03 -1.276697324024395237e-02 4.167331649001559252e-02 6.989134146306248685e-02 -5.980245143271181729e-02 1.513787403786075528e-02 -5.044550475573027909e-02 5.123929216094601918e-02 -1.815262377645880665e-02 -8.481991128523874712e-02 -6.807929809690611844e-02 -2.326337663864775848e-02 6.042346090247632112e-02 -2.512811181847608710e-02 -1.059389410293721558e-02 2.993436882264528462e-02 -4.260748104827942473e-02 9.867469895256913981e-03 3.914242591605767568e-02 3.272957029308822680e-02 7.098843687019804061e-02 -1.703091604956571969e-02 5.033247896244390229e-02 5.261940839631233657e-02 1.407649329645674699e-02 -5.388937396807718522e-02 2.116936531350590428e-02 2.807563338990962370e-03 -5.102389064224440579e-03 -1.157228231593654746e-02 -9.975395401685141494e-03 5.391363618426380649e-02 -5.882577562222796042e-02 7.058680974620239190e-02 -5.135264715652449255e-03 5.428190793937804487e-02 -4.544778310477507605e-02 5.806565776296603726e-02 6.861486216576180575e-02 -6.502624224297783029e-02 -2.463909117800261103e-02 -6.051824687770676614e-02 3.603238911856915944e-02 1.803385003157894489e-02 -5.021272815010321619e-03 7.670591134062883232e-02 3.006307108858192589e-03 -3.549432290441394133e-02 3.934764329468214833e-02 3.646952823624961815e-02 7.206238494582029204e-03 -5.518043238124527294e-02 -4.649933738626091384e-02 2.562819563100167050e-02 -5.512105568064690903e-02 -4.012545065547869216e-02 3.940660347521975082e-02 3.656800602649156601e-02 4.576264055473090731e-02 4.338364010025339002e-02 1.104751601312718018e-02 -3.976030844475642034e-02 -2.951499020712974528e-02 -6.115467238960756863e-02 -2.078103432892751054e-02 4.030851105412062009e-04 5.830098492795509485e-02 -2.678603583190750093e-02 3.790764573481480298e-02 7.239867863168795992e-02 -4.846096724482720774e-02 5.439954724059146290e-02 -4.469363960404193481e-02 -3.897092832956348951e-02 -1.005891266847699569e-02 -1.173184984646889056e-03 1.095430319159401917e-03 3.549628049658685308e-02 -3.288918515835109052e-02 7.699033218756333452e-03 5.323282038146614353e-02 -5.501098478219108162e-02 5.522231319946464823e-02 -6.575454192722784974e-02 2.886637223076691378e-02 -2.656865780886730199e-02 -1.836245625990498564e-02 4.695185850810083134e-02 -2.953668120881580011e-02 6.743520975762567343e-03 4.984272369662015589e-02 5.538326080546025765e-02 3.104306426280769790e-02 -1.291053772047680466e-02 -6.823823619601779300e-02 3.188071927873693812e-02 -4.143869129634224907e-02 -4.588110615957079197e-02 -1.025848803622628896e-02 6.256230023455769396e-02 3.306374106738069717e-03 -6.622184444493356414e-02 -5.205499020398268034e-02 3.633339814033106734e-03 3.400341628411708561e-02 4.125431465430035027e-02 4.884205090445568540e-03 -2.619313526319280716e-02 -5.693084018066880275e-02 6.672412705139777259e-03 -6.300039344675625874e-02 4.453070084056869049e-02 1.227479843375930274e-02 -6.693159630693822082e-02 -2.763500685824055517e-02 4.663636284519078606e-02 6.162857898373316073e-02 2.421737563449165645e-02 -5.570575315023087309e-02 -4.826547891190940270e-02 -7.398892323785542791e-02 2.519456748146813724e-02 -3.450134567627637788e-02 6.085859695033463135e-02 -5.137954222682300509e-02 -2.685705320093872972e-02 -6.542110023110571382e-02 3.530866559120748871e-02 1.709681568338171018e-02 3.844126282812108941e-02 6.502771921380447705e-03 6.849497448928569543e-02 4.202440440774763558e-02 3.949105344106577931e-02 -4.100694634311406565e-03 3.089651663093058095e-02 4.955502453629909848e-02 3.704509829266491860e-02 -2.458370142186454971e-02 4.351858342431397242e-02 -5.130395801257896932e-02 1.673901099467745013e-02 -8.105069986776834712e-02 5.496430417832988413e-02 3.913454302792894468e-02 8.538321692739013480e-02 -2.189244815989399226e-02 5.737698996103322846e-02 2.185084470068638512e-02 -7.335812380106594699e-02 -7.512410388306572928e-02 -6.884555007108782154e-02 -8.389736760693516926e-03 -1.586446675944663473e-02 3.496479459042585447e-02 -1.248528522443020927e-02 2.515735694456458157e-02 4.513666838323955599e-02 -7.041471382451060940e-03 2.037104513240329054e-02 -5.380446160744663774e-03 2.135353530310593606e-02 -3.938366366241843886e-02 1.041919392722485613e-02 7.581969316567867267e-02 2.201425533871953846e-02 6.074293411978202127e-03 -3.085789255448217333e-02 -8.053529314078863854e-02 -8.753181678063881588e-02 -2.981694065264096222e-02 -2.463632566407105220e-02 4.522783113923170561e-02 -3.791361432198142589e-02 -4.146308615424813826e-02 1.910888218504878380e-03 -2.009337258911439092e-02 2.297550411413268670e-02 5.001769664345401267e-02 -3.497223686331832337e-02 4.349752573775443609e-02 -7.207541681150149426e-02 -2.031634585087177536e-02 -5.679725057696111135e-02 -5.091201642676380923e-02 1.767345628807477295e-02 -6.387491490718859299e-02 1.966032797900386236e-02 -4.274328310133119341e-02 6.833567528561736160e-02 6.736409115299425883e-03 -1.531316345000473950e-02 1.409814152888743538e-02 -5.397192943178912017e-02 2.904372639070408255e-02 6.779428964194494922e-02 -9.305392599158708589e-02 6.905238106733657677e-02 -2.874891387383797514e-02 1.238747932407566373e-02 -2.594547702299361894e-02 -2.518541258346084985e-02 5.949763598072065063e-02 -1.800266076571503324e-02 -1.053789183200496554e-02 6.866262217544688573e-02 -7.316118299957963256e-02 -1.966967984793618549e-02 -2.901616023927025556e-02 -2.032920092270851936e-02 -5.756293418668731628e-03 2.123634610428386596e-02 9.862440457609616962e-03 6.026349014514670310e-02 -5.446373911531377648e-02 -3.594458179295420552e-02 3.075955548534101136e-02 -3.693736320042476096e-02 3.592958851933656522e-02 4.606716564556866816e-02 -8.432176915792870264e-02 2.161895583314421207e-02 -2.866462555646014099e-02 -6.248797867515488991e-02 6.071359760050155929e-02 5.366431395269724569e-02 -5.030341431464274704e-02 -6.216929361822205735e-02 5.784111840671530419e-04 4.661788161480426990e-02 6.104950075337461923e-02 -2.430185892212893828e-02 6.508205385131982101e-02 -4.775521561212857369e-02 -2.074279333634779232e-02 4.790693279912773550e-02 -1.745367869175907041e-02 -6.124082712897473135e-02 -5.356903661399795707e-02 -2.047211670079373755e-02 -6.326416013004498851e-02 -2.300744245262707766e-02 -6.351310369817299295e-02 -6.180488115985863229e-02 -3.715564573036588686e-02 1.788451863186897237e-02 -6.106379635444587894e-02 -6.071079110612592061e-02 -1.560466619135385431e-02 9.268747426209131279e-02 2.917197544502853068e-02 -7.485623866778168267e-02 5.742299966241753290e-02 2.396875994213278072e-02 -6.401573997777325851e-03 4.443480429215342781e-02 1.145421331274914384e-02 -2.332692705924095319e-02 8.828828035738241209e-02 3.492446865192577049e-02 2.237587627410412769e-02 -2.297343487558127159e-02 -3.760496629555229453e-02 1.326769377801157064e-02 -8.070869275172501411e-02 7.178799753357924252e-02 5.159897023822996448e-02 7.361551000161797691e-03 5.358208857251072627e-02 8.409630822956157617e-03 -6.242939588037518285e-03 -6.538147943570216114e-02 -8.592979253243711313e-03 -2.172978677220847865e-02 -3.431628669661724446e-02 1.736936034586630123e-02 -2.545879337735703837e-02 3.189935316647095342e-03 7.058965439365958924e-03 3.262285722729475756e-02 4.485959355081768629e-02 -6.265757184947710889e-02 2.804461931089599624e-02 2.075250074299888822e-02 -3.524376570603885567e-02 -5.411085212473861622e-02 -4.855613527454934880e-02 -5.099313108358295710e-02 2.244953160681237292e-02 6.755564316514112155e-02 2.011617216612690204e-02 3.726751646977438572e-03 -6.026047109478577246e-02 8.896891793525015316e-03 -5.380381735134851483e-03 2.802118210784121377e-02 -5.929973006417615933e-02 4.814425048621115422e-02 -4.272332024668214906e-02 -7.097058343121270818e-02 1.046987432964347625e-02 -3.646835407073004826e-02 1.269625753962544054e-02 5.612843581939076787e-02 -4.647812734078190892e-03 -6.234997525385038708e-02 5.038494466827429926e-04 -5.490504069678881632e-02 -3.777831428047120910e-02 -9.606331734821518809e-02 4.037900730128415189e-02 -2.942402247680704283e-02 2.163201996187862422e-02 5.081960269721326473e-02 -1.144136435692727320e-02 -2.780482535871561800e-02 7.372221993670381723e-02 2.781349943162460259e-02 1.144035165651085574e-02 -2.960760579842504001e-02 1.554010039095897466e-02 7.934736587942764485e-02 7.982230481468409466e-02 -3.409404239373602097e-02 2.487703683774536781e-02 -5.013246152693826702e-02 -4.572747411816686924e-02 2.987505230470951720e-02 -2.365638740824486594e-02 2.725585157611003922e-02 1.200830268873529644e-02 1.877795242907878345e-02 2.751682216178488044e-02 3.861018912085372595e-02 4.475278143251728430e-02 -3.135968494913015520e-02 2.230008083267373195e-02 -1.767977456595611757e-02 2.572136670013239375e-03 -4.577934925394098326e-02 -1.045799632237954559e-02 5.289448666836423646e-02 6.038732333749263770e-02 3.220378826104935283e-02 -4.254072018481301794e-03 -2.575096243025135068e-02 -2.668873351313871822e-02 2.936114587597836792e-02 -1.789728200812520237e-02 3.387747570352826060e-02 4.097058278454700914e-02 -5.013484828562817658e-02 -2.189708325500853286e-02 -3.936166454518088414e-02 -7.382468464226047897e-03 -7.238305536518790939e-02 6.171766865149322379e-02 7.448975352722235488e-02 5.998206082804924226e-03 -4.568039009671670536e-02 3.376113426716095128e-02 -3.938576956046557775e-02 -7.031858461974987984e-02 5.016732056180135679e-02 -4.180183259785713590e-02 -6.078416986283859819e-02 1.200914303943240207e-04 -1.605096681378359591e-02 3.456512603297460379e-02 -5.739227251218221096e-04 8.043146603316153262e-03 5.012141664190412904e-02 1.265486168269569327e-02 -6.906570813890018645e-02 -4.909524364778129757e-02 -7.430722172683944249e-02 -6.520070887832148110e-02 3.243875848060036315e-02 3.647230780934784117e-02 -4.229890050683476205e-02 -8.494380626575941465e-03 6.078343995401970642e-04 -5.868342820323294885e-03 5.233374764771112769e-02 -4.556238508669675086e-02 7.413438513806777999e-03 4.308550361891266833e-02 4.292185272851559152e-02 3.303005170880532471e-02 1.529078277577239353e-02 -4.667721173310979826e-02 -3.059545179959477154e-02 7.574815674651200204e-02 -2.269480771624769657e-03 -5.537915882001329115e-02 -7.129925054877439550e-02 4.226776638623769983e-02 -1.047303676520757246e-02 7.089422788932545072e-02 5.061665062999933656e-02 4.337475027384195096e-03 5.985573201352869382e-02 -3.778763969251100474e-02 -3.548746985180326746e-02 1.088493762147337875e-02 2.956212526510730923e-02 -1.789020688309596319e-02 4.344422341627592749e-02 6.069605207037023775e-02 -2.896493271192947597e-02 -7.474895939588230634e-03 -4.367185642823075142e-02 -1.457672159681411804e-02 -9.536054376482720751e-02 -4.058170368878797479e-02 2.931820076714485371e-02 -1.364280117801066824e-02 -5.741713479141023063e-02 7.208716566645732848e-02 -6.833311691684411382e-02 5.186784490070038556e-02 7.229933695076923295e-02 5.260978404514861373e-02 7.628032146780408529e-02 -2.346438485241044911e-02 -7.539921898292430147e-02 1.214946842503391439e-02 -5.916122690491980307e-02 1.209313221299465439e-02 7.737420855053667688e-03 4.179632816165739645e-02 -2.563169689134821641e-02 6.592950626815326232e-02 -2.228782728870095167e-02 4.818431803641229708e-03 1.372570877726418323e-02 3.210059207016050659e-02 5.603298740561891284e-02 -7.092319696075939650e-02 -6.357073728171677880e-03 -4.193460200957886685e-02 -2.815977229845423833e-03 2.370181430978623993e-02 -2.946987439388864052e-02 -4.229979141796705311e-02 -3.002941080142375666e-03 -2.792116399854575187e-02 -6.648714126470721061e-03 -2.031223403978400788e-02 -8.380738009996880483e-03 -7.487511248822224796e-02 5.748403551249869903e-02 3.774257144201405290e-02 -6.742279433802007838e-02 4.710839725591733917e-02 -2.208894002668682771e-02 -2.237743859676679867e-02 -5.383844515784719231e-02 2.219798435833896660e-02 4.562117336724935343e-03 5.772499646396955092e-02 3.925301154820867722e-02 -2.787728027945823167e-02 1.023646973288078361e-02 -6.462123246241578689e-02 6.456933746009213375e-03 -1.151547474189097697e-02 9.306584478574375999e-03 -3.506537951508353207e-02 3.966536882873413633e-02 -2.519821632919816076e-02 1.822984273123189752e-02 -1.245020514075858425e-02 -1.269286941924970338e-02 4.652342343271216596e-02 3.116329310443556252e-02 -7.185525732360317774e-02 3.379141939020108981e-02 4.554349316093467270e-02 -4.418376324227242524e-02 4.341366209206671406e-02 5.762387258488724934e-02 -2.174767675535208260e-03 -6.695289676694463066e-02 4.829963641336612601e-02 1.665408367036528073e-02 1.413870726524858214e-02 4.906508333048801435e-02 -4.908686265529097620e-02 5.245221134034917104e-02 -3.352420397287923098e-03 4.418931257666074836e-02 -5.889342442737542649e-02 -5.957773557357009392e-02 7.693240429889254030e-03 -2.487450070417532300e-02 -2.331036879772212939e-02 -5.784400176425007201e-02 -6.020007627277664669e-02 3.709591904467129247e-02 5.474166811442036235e-02 -1.416079674398846439e-02 6.249334125956367697e-02 -4.907920467251102731e-02 -7.873575475006854008e-02 -3.245414448349266678e-02 6.894873453131133978e-02 1.005048263852309281e-03 9.122714736957365442e-03 -5.229560211038099954e-02 3.962587020251009257e-03 2.968810468383252521e-02 -2.180196487395473504e-02 -2.720632972293189709e-03 -5.119001924977375356e-02 -4.756225456395674761e-02 7.431782017721234868e-02 -3.227353017792262274e-02 -5.050991186504969616e-02 -1.253271459065053405e-02 3.725302179340228559e-02 2.544827661199829463e-02 -5.490709265709082967e-05 4.528416306607516845e-02 -4.390510743195311788e-02 -1.017739746852738478e-02 -3.183677315720085527e-02 7.526064919706744460e-02 4.900225191136286379e-02 6.891989171976042883e-02 1.119864339591504672e-02 4.619894732651382528e-03 -3.201257669440612380e-02 -3.617438848827132791e-02 -2.885094519306489243e-03 -1.561393062576915854e-02 2.804881232151945278e-02 -3.135758835659226140e-02 6.442411606463140095e-02 -6.342131367858051295e-03 -3.153431761851334392e-02 -1.263913400842155838e-02 -4.850117477629165702e-02 3.006127872892486175e-02 -4.452679920098593508e-02 -7.465937374509039326e-02 -2.703707714366635276e-02 -1.566242186855741278e-02 6.715368494619837481e-02 9.587444801315018333e-03 -8.403243315654588316e-04 5.625840688040713994e-02 -5.553191641490919095e-02 2.076794467033101638e-02 5.450041675485832460e-02 2.244147180310584327e-02 -5.791412297188734681e-02 -7.317853917090956506e-02 -6.483370626941267756e-02 4.758828162408255957e-02 -6.408699822274240010e-02 3.888654449934548368e-02 -1.046964864137811882e-02 3.253608831257046984e-03 -8.363578500276698524e-02 -5.658635211790491448e-02 2.334986856807765715e-02 -5.920069549927326619e-02 -3.678180855373811790e-03 5.061000814661748698e-02 -3.745458574763467496e-02 4.915853762784309910e-02 -2.588182531796809696e-02 6.988071962323172404e-02 -3.020972537020662121e-03 1.138946284922670235e-02 2.274977976127913817e-02 -4.857948208015548316e-03 -6.853701664438334451e-02 8.111662119219753553e-02 7.886468545196180513e-02 -8.501057167835023021e-02 1.025689827594138299e-02 -1.106266859687749307e-02 6.309221205743444257e-03 8.678142534159483112e-02 1.508655305250964675e-02 4.364691343470215867e-02 -3.341082536371076800e-02 -6.861885416942162252e-02 1.902165392694855732e-03 7.305478707078359724e-02 3.796881092172341154e-02 6.143814890603319784e-02 -3.796959860496347712e-03 -3.891080676254703163e-02 4.785405558247114027e-02 -1.703588775175828712e-02 -7.320424257316977823e-02 -1.221732091924030783e-03 -3.782196347082715515e-02 -2.988014432677313023e-02 -4.106190783870464905e-02 3.400770578316694021e-02 6.440761881041925929e-02 9.157229844870037883e-02 3.722063017406911090e-02 -2.300335547046084700e-02 6.137410125429720170e-02 -2.962701894946970140e-03 5.935799193087935854e-02 1.140912589851367578e-02 4.427203643345444667e-02 5.948503211397775103e-02 3.934881571392809252e-02 3.673828607711372013e-02 -5.266803508589967819e-02 4.229882790452325035e-03 3.327006831734712067e-02 7.891516260873185362e-02 -2.955150138416561337e-02 -7.491784394273111325e-02 7.340467394123850742e-02 1.160575713206520731e-04 6.443776260714111082e-02 -2.051816819332006117e-02 5.771197350318679059e-02 7.636740805050679266e-03 -6.347364835064465971e-02
4.427584380384787070e-03 5.761957266340851647e-02 3.752582150522861676e-02 5.348429617264569003e-02 -1.282750523037447070e-02 8.328789374233371359e-03 5.452311629609288973e-02 -3.050000672626639736e-02 3.459215902839879106e-03 -1.296690660221304532e-02 -2.459603073052557803e-03 2.766958586333430510e-03 -6.413329220706397160e-02 -9.503420341498810403e-03 -2.274992976303279874e-02 5.985549514709519875e-02 -3.591681159220046216e-02 5.352744651438582496e-02 5.616280303423814430e-02 -4.354666081412500098e-03 2.786728490178423667e-02 -2.217562024298837253e-02 4.086989574395066133e-02 -3.332343278875001674e-02 -3.827308798074163104e-02 4.312948698862929808e-02 -9.331256942948362850e-04 8.364956425030452281e-02 4.054252362182611535e-02 3.825898742946257092e-02 5.206985229080939720e-02 -3.044756562127137745e-02 -7.619979887158910559e-02 4.163887526820066534e-03 2.001828386729736023e-02 -4.557504581890901851e-02 3.987394877539708615e-02 2.294464178392106174e-02 1.718659234890802801e-02 5.410479025996307867e-02 -4.877660853812399583e-02 -7.252065594623324785e-02 -7.123492061145630938e-02 3.263165213968623884e-02 -1.352610588024930754e-02 5.328132995345578188e-02 -3.014255702266831205e-02 -7.281214874541796882e-03 -1.729993694911393515e-02 -2.670162958079815019e-02 7.208555533332756948e-02 6.908957080330871414e-02 -5.113982960040416165e-02 2.716821913898391765e-03 -2.704972209990990847e-02 -2.195033080694704444e-02 8.714019443710058210e-03 3.861013251233804539e-02 -2.589899495214649516e-02 9.620306131728667554e-02 -6.813297331932931244e-02 -6.203207571675705551e-02 8.699926833881989341e-02 -4.137448295987559976e-02 -7.446926897439749837e-02 -4.334166816364551367e-02 5.015539961446651568e-02 5.069489793381911497e-02 6.666730377376464678e-02 1.540609301922886767e-02 -3.877815190306272558e-02 2.946881041355430345e-02 4.613262785514531811e-03 7.340657441362459512e-02 -7.453357995538494041e-02 -5.517941762520547216e-02 4.613439968678410136e-02 5.178986865525680647e-03 1.214512593669606934e-02 3.416002317719953052e-02 3.656596976056988163e-02 5.230886139015018810e-02 2.533062631686065075e-02 -1.613122932120516009e-02 -3.057682272948651289e-02 -7.501349354410149703e-03 6.487190772384983373e-02 -5.042166877854343393e-02 4.112746036858396653e-02 3.794666268818017250e-03 -8.776149087761361128e-03 -2.159405823116440984e-02 -4.863925927573108793e-02 -2.412565010677423377e-02 -1.155492274024922522e-02 9.988987905804214140e-03 8.629729401292113300e-02 -4.252011830871477854e-02 -2.281176695981446470e-02 -5.553714418512019271e-04 4.135221556207716725e-02 4.501824629004770595e-02 3.674986267241953271e-03 3.007621230735046253e-02 -5.520710777169809697e-04 3.597383358022356037e-02 -5.256611401401804079e-02 7.158727929903678511e-02 -1.167412537402357127e-02 5.844116882840637989e-02 -6.256513384781166309e-02 -3.346743489790795362e-02 4.855068850516933154e-02 6.654182307368991522e-02 -4.801386330083607518e-02 -3.976545884101727324e-03 7.284939079820368368e-02 9.490299287651009566e-03 6.242387971614472147e-02 2.891324082379747792e-02 -7.490987424482994927e-02 7.715681280209003845e-03 -2.149283448746436287e-02 6.029811704662176725e-02 6.096938900568199537e-02 2.795674368925398293e-02 -6.613332614381652041e-02 -2.161751240123565426e-02 5.804476014385330507e-02 7.074793503800574923e-02 -2.313299968097078108e-02 9.762798460584486832e-03 3.781200585421514576e-02 -2.331194355114740366e-02 -1.750150719659195053e-02 -7.285165969906895467e-02 2.430563943167589336e-02 5.314871872171861994e-02 8.007278475000274842e-03 -2.246504890130526094e-02 2.362353302805089011e-02 -4.536656529650678893e-02 -6.140021320653634568e-03 1.738419027273396117e-02 7.200641912493369046e-02 -4.359283948916293366e-02 -4.391620065144236779e-02 -4.544284586512975510e-02 -1.161622309329160899e-02 -3.981146788247377777e-02 -3.069552358689420571e-02 -1.956242404546931421e-02 2.553504608037362317e-02 -2.924832089243706995e-02 4.011015236943369505e-02 5.130774625269814149e-02 -9.671112706362552588e-03 2.834482602818909846e-04 -4.648744843597706067e-02 -5.382267487956846758e-02 9.323823565022631293e-03 7.860951752448193386e-02 -4.274970718886675347e-02 2.597308808314339329e-02 4.222417418653644922e-02 6.006296326497256866e-02 -7.276411945694974404e-02 6.250831193547937148e-02 1.094663917732886793e-02 1.007641657999520240e-02 -4.651375204979401635e-03 -8.374885654300365939e-03 -8.638219182835786547e-02 -4.599173504448007821e-02 -2.896807421207839295e-02 -4.092092011085411013e-02 -6.520754332243929030e-02 4.417120001875976532e-02 2.860154876391882497e-02 -5.689210832459676986e-02 4.351392964859621126e-02 5.338011758539308593e-02 2.451861160542322809e-02 4.425877286205159855e-02 -5.715820584095454571e-02 8.085241651706071009e-02 6.502194181595657985e-02 -5.903226898619404195e-02 -5.066831406277219618e-02 -5.540744100613531620e-03 8.283678366740593324e-02 -4.272341163173463269e-02 -4.888430092677729238e-02 -7.939316179469817214e-02 3.342663538962683135e-03 -1.036103039883123737e-02 -3.933811040465082232e-02 6.098417790428659058e-02 7.446546996111848282e-02 -9.341216022021085752e-03 -6.437774085490251263e-02 3.151413675823680483e-02 -2.631446171193873446e-02 4.721621353935594873e-02 -1.653563926767061265e-02 5.146446252247765391e-02 4.279601068207809084e-02 -6.387460704985583985e-03 -1.015313001685212886e-02 -4.204080903733838082e-02 -6.404466675757587192e-03 4.043182693030784869e-02 -6.486372789911895587e-02 1.537416857879653730e-02 -8.012215712712020960e-03 -7.725838197274244312e-02 7.825948287368922340e-02 -7.725136662133433307e-02 -4.164782634162692704e-02 1.313398384745204615e-02 -8.828649535911871349e-02 5.495912817929666377e-02 -3.419743026025017608e-05 -1.993441836689922170e-02 7.548495599473670908e-03 -4.599275528403380664e-02 -5.715066253028027550e-04 -5.848254619452657871e-02 -4.305042840339894095e-02 -2.040353022268548075e-02 7.923739893547099289e-02 -5.674153002900109849e-02 5.656642092208440803e-02 1.465041836621321439e-02 7.271013432837823698e-02 -3.065307444430770759e-02 8.749695297039418451e-02 -1.377508226077567982e-02 -7.966416998493822815e-03 7.107990251843285257e-02 2.639667538492310866e-02 6.025241112557696427e-02 6.286587523881283224e-02 -2.262221455151309374e-02 3.167728157358923324e-02 3.917245399167988001e-02 3.889915576424378407e-02 -4.140934313555941215e-02 8.068231079369296566e-02 -4.239877030095153682e-02 3.289372371761827007e-02 6.285880834447306331e-02 5.133845414891782810e-02 -2.672021671871141479e-02 2.792586612612698097e-02 -4.623195018952942076e-02 7.760510251844457419e-02 -4.137906386276524184e-02 -4.667502992111623866e-02 3.838713827742980256e-02 3.051037184951019970e-02 -4.090579857275862541e-02 -7.121426103412827058e-02 2.595276189157388891e-02 -4.848800622397636539e-02 -8.399796890723647269e-02 -6.737481527619657018e-02 5.226890707840906730e-02 2.111914328007855404e-02 6.458093725080246705e-02 -3.746923896616422694e-02 2.818861415525896266e-02 -3.461315631812473398e-02 -2.204927791444242363e-02 -2.847972587423725291e-02 -5.571826475976354026e-02 -3.295821994156582918e-02 6.762966966846703509e-02 -7.473572038480891244e-02 1.107631145595972672e-02 4.284481349465552730e-02 8.835665277874801826e-02 -5.416645595307120753e-02 -1.646653789393873191e-02 -8.438350571921368615e-02 -4.358154433776738335e-02 2.349985233147700373e-02 6.654696515703709125e-02 4.545544870616479577e-02 -6.787163957185488039e-02 -2.589297105522288603e-02 -1.598109730006210677e-02 1.344456631413503550e-02 -5.694234926527644292e-02 -1.094968235081178638e-02 4.764926094386739280e-02 3.345853704554643815e-02 9.912030980627373200e-03 2.504070726486451112e-02 -5.833479308187988766e-02 1.941782436893948333e-02 7.561070231028907407e-02 -7.239568098358888093e-02 8.282213401711981116e-02 3.489409981650997555e-02 -2.523298098027609501e-02 -9.349433926061094524e-02 -7.218467026932039177e-02 4.588428563350622352e-02 2.208247159815517058e-02 -4.527208244723423397e-03 -6.836516968126957194e-02 4.148643906466314979e-02 5.038233893777749328e-02 -6.372235103717822924e-02 -7.372857733210323727e-02 9.315101993760086267e-04 3.363464917899989387e-02 -3.669834789814704901e-02 -3.257307340545440716e-02 5.577871060880743026e-02 3.990664861988699880e-02 1.469829901180984624e-03 -9.777488753124735296e-03 8.295164602443077032e-03 7.414372885334459540e-02 3.256787918741554932e-02 2.021088958890874740e-02 -9.834026704956137788e-02 -8.111344791909162744e-02 1.491098157673117347e-02 -7.813509054103759399e-02 -5.175438557323921301e-02 -4.057062218389509423e-02 5.785674408540172203e-02 -8.009366530087236313e-02 5.474499026220675663e-02 -2.075042930992727561e-02 -8.208929806382865568e-02 1.387689036107487249e-02 -3.180102485073094815e-02 3.367294320520081152e-02 7.689398995880618315e-02 2.500186391963946791e-02 3.976654071340071650e-02 1.226487472184842158e-02 -4.850555727121631105e-02 -2.094891142904022757e-02 -7.061882007961668706e-02 4.778242979188920825e-02 -9.600356344946391757e-03 -2.326444023006257918e-03 3.589701387365626384e-02 -8.221922838478731843e-02 2.146483871494847019e-03 -7.760423644244644759e-02 4.269872923036875656e-02 9.371364773167419060e-02 -6.194021135991094329e-02 -2.990590642779396551e-03 8.214940316162544498e-02 -5.885763232686241908e-02 1.538418895431641065e-02 2.052085478832797391e-02 -2.854071374591457804e-03 4.273977076234660062e-03 -7.121982787897644662e-02 -3.272075860145796239e-02 4.601406440440894419e-02 5.350230182224118003e-02 1.920214915509869946e-02 3.553445906581528119e-02 5.575974614095069448e-02 9.861614009283857854e-03 -6.403360429475295906e-03 1.868464926502509671e-02 5.930363361646225073e-02 9.784512825719200724e-02 6.763863881518759891e-02 3.337897346109983121e-02 5.843146837860401649e-02 5.017038183114746162e-03 -6.011596494003921404e-02 1.838399605206675683e-02 -1.738842001558993031e-02 -3.450216538262402405e-02 -6.787061890759994720e-02 -4.726231792409972543e-02 -6.220625204097345040e-02 -6.102631414024684009e-02 -5.150542023142740122e-02 6.643413492201727388e-02 2.133032747025235751e-02 -4.759035500019630216e-02 -7.676749034223100121e-02 2.908360181486899926e-02 3.465111991336601582e-02 -3.473025350973554110e-02 -3.166950902694392472e-02 5.303226052721098094e-02 8.079976925471470117e-02 -2.410044965974265929e-02 1.050424902846402476e-02 -8.204200509953982201e-02 -1.657548063554328474e-02 2.790433762192237859e-03 -5.727040777852802911e-02 5.546344024903284570e-02 6.595608423242133034e-02 1.067312130356202170e-02 7.732039327799593298e-02 1.487239517383819910e-02 -2.198927383963079560e-02 5.986980279536477378e-02 -4.317523097492997203e-02 -5.583738188818522519e-02 -6.188778664930704582e-02 -6.510429258349761938e-02 -4.623637625693987480e-02 -4.452409307234857228e-02 8.607504240619744161e-04 2.514672014797719041e-02 -5.017393088802949569e-02 -8.244086585290884631e-03 -7.078573741173918576e-02 -3.494693209175126630e-02 2.946409403832104396e-02 -3.073259407424146911e-02 5.411516139453318580e-02 2.450131722512918081e-02 3.095809830641584309e-03 2.293407578995342727e-02 4.618018861306554673e-02 -1.697539999505136505e-03 -5.938157477758451014e-02 3.807896944361661984e-02 -1.353337155213803038e-02 2.585083437277743701e-02 -7.552777798875704406e-03 5.116892144665396991e-02 1.325304468304046822e-02 2.439041643868783762e-02 -3.437467710534315019e-02 -1.341112000942585453e-02 -2.760585709205490290e-02 6.384425397712811812e-02 -4.950456847643625036e-02 -3.929019788678735775e-02 3.952048530288668204e-02 -1.786180911689223827e-02 -3.064424597516029330e-02 3.953831032343374519e-02 -6.657421911522194702e-02 -5.007439689941538263e-02 -8.286645265540185101e-02 -2.825442403298945859e-02 2.654359378856325016e-02 6.749830297181705352e-02 -3.867109912414558315e-02 2.694785137656584371e-03 -3.852537335709643740e-02 7.415230446611595361e-02 4.573102138605318612e-02 5.426142799428448037e-03 1.759987028723084337e-02 6.204609794541684348e-02 -8.399967975032176029e-03 -1.197334188256144773e-02 3.920466091143219589e-02 4.548901989337358724e-03 5.167979577325165080e-02 2.254784730501335072e-02 5.933648219449056543e-02 7.059730696405672190e-02 2.177931742393806810e-02 -9.202700617291247054e-02 -8.970058064093054673e-02 7.017971088978988692e-02 -6.830438302793025163e-02 3.365535150512406065e-02 -5.422113720763579309e-02 -2.120123321051341214e-02 4.360223988778739318e-02 -4.294328118544551987e-02 -1.030514373262342125e-02 -1.551279491731287659e-02 -6.926391891170484427e-02 4.130488051041070890e-02 -2.731060538733643545e-02 -3.872537192562939667e-03 -7.265970280146824556e-02 -5.572248754103229429e-04 -6.805719009003419195e-02 -1.495889831251549958e-02 -5.279676207091051066e-02 8.591948649094871548e-02 1.568023832200554982e-02 6.527289899602851941e-02 -5.898078634230614903e-02 3.280176046274187185e-02 -1.292840317998807630e-02 8.139155468999699494e-02 8.271835922837092459e-02 -1.442387976219823564e-02 2.082944913203418208e-02 2.169975866293362421e-02 -6.395187357487393254e-02 -5.757045519207559803e-02 1.171090562929192475e-02 5.876678037047741721e-02 -5.003626302140957993e-02 -1.028274381459746631e-02 -6.488344228969954164e-02 8.262702927371627052e-05 7.925706802977747212e-02 8.713796117679734055e-02 2.724636396343390818e-02 2.575149054188500056e-02 -8.369986627515915711e-02 -5.506671682547201879e-02 4.903803017454266139e-02 -1.900253795647979457e-02 5.731231665562325911e-02 -1.948476091965851975e-02 -9.360312751875850268e-02 -6.096586769386590221e-02 -8.186224552938674293e-02 3.231423721868324772e-02 6.919748885397869476e-02 1.081461839643088792e-02 -4.775791457864753814e-02 7.412697502237877711e-02 1.185675784265353104e-02 2.330572057296720421e-04 -4.484347654844388770e-02 -5.898140295280489970e-02 -6.766814541034110730e-02 -5.981467790410041618e-02 5.798917048320616913e-02 -6.986530764615714317e-02 1.230420471310111202e-02 4.459690260496954745e-02 2.721211847290678706e-02 5.628035437903724549e-03 8.193052442378434552e-02 -2.915864511920515309e-02 7.552773565236098330e-02 -5.512271206221670133e-02 3.342662084969105080e-02 2.727287910172422267e-02 -6.382693330447446189e-02 5.012243802378724827e-02 5.488647205451312183e-02 -6.063571857467123932e-02 -4.029357720285580563e-02 -2.145547167740411570e-02 -1.655767504508194599e-02 -2.665549830203481352e-02 -8.038947525666545468e-02 -1.869380394075597805e-03 -3.110474062593641606e-02 -6.422775459055675429e-02 8.484280492370048499e-02 7.678120323259342295e-02 -5.935546486573804043e-02 6.422513431752643887e-02 -3.692709417785895731e-02 -7.243198393214582420e-02 6.107911945658902469e-02 -2.773033547271804705e-02 6.182187154874849155e-02 3.615580016760209722e-03 -1.449687794229657760e-02 3.316410726006020077e-02 -1.945178277628574481e-02 -1.927504920667045055e-02 7.760846358272197043e-02 7.784030641658450100e-02 2.523535260947521591e-02 -8.075961510606630145e-02 -4.282990663263337716e-02 -7.582038202073292273e-03 -2.500511704567416962e-03 3.837526516167140411e-02 4.713105835321449583e-02 -2.112807974239101771e-02 -1.394694893019235438e-02 -2.423070673192771751e-02 -7.254392736688941579e-02 6.204246429432360571e-02 -3.567529642411115115e-02 -5.501645523379671519e-03 -4.470834145268778870e-02 -6.859635692291826681e-02 -1.965765307503873627e-02 7.248489206259725766e-03 7.110222114897465917e-02 3.709285275885077643e-02 6.599101732448012236e-02 7.370394037026896036e-03 -1.288665309223203936e-02 3.554536540372487535e-02 -5.542822046383954343e-02 -7.503454848839828661e-02 6.509136420232763953e-02 -2.132302501005692297e-02 5.576210035645944030e-02 6.274655024791553348e-02 1.352716307667519401e-02 3.651853413232288015e-02 -4.073961656750289123e-02 -1.233032081955539455e-02 -1.721627028187170880e-02 6.466131397041202655e-02 -2.040299970421370970e-02 -5.976548110740536462e-02 -2.881187760033691869e-02 2.578307789780940468e-02 1.174999080331663032e-02 3.893732584354213377e-02 -4.547527269306016889e-02 -4.853042147983734761e-02 -6.441119566277139774e-02 -1.874660923959475464e-02 1.562377595463185567e-02 -7.154812234308685626e-02 -6.128315815580406833e-02 2.949086265043250263e-02 4.305247031408235281e-02 3.677269892854754391e-02 -1.598825060336643220e-02 4.103470517491435848e-02 -6.208219314762326857e-02 -7.626443961772821911e-02 6.883346421064866390e-03 1.653601707917454200e-02 5.552226831171861582e-02 1.124183042023354541e-02 3.678623698553148968e-02 1.874940544510919280e-02 7.112253685804627301e-02 7.313112003745471379e-02 5.261156698907303031e-02 -3.688013931901246156e-02 -2.919148895535072629e-03 -8.137515204269921143e-02 -1.680047916303893923e-03 -1.253442448632099276e-02 4.100713116629982335e-02 -3.753541333868008062e-02 2.960454074471266343e-03 4.594146383685748791e-02 -3.475501173872781041e-02 -5.489284258482791251e-03 4.640780277597311015e-02 -1.026077512273583514e-02 6.086379381549874429e-02 -1.437849531126400224e-02 3.072380738608641165e-02 5.595627753914786395e-02 -4.354485387415939213e-02 3.324966325848572463e-02 -4.287726319671807118e-02 -3.172071363076347378e-02 -2.256652070834139212e-02 3.506251816104976465e-02 -4.276641738544670335e-02 -5.323630897791181704e-02 3.667912041540714874e-02 6.324986658265131095e-03 -2.674402046903484251e-02 2.750643518966579271e-02 5.768708626299980796e-02 -5.925836539349423754e-02 6.002215919435761882e-02 -3.451664771165409429e-02 -1.794813754430170383e-03 -2.861851337425382058e-02 6.798572157418027173e-02 3.498130736611989450e-02 1.414679308410495689e-02 -9.710734978282880431e-03 -4.058036121286266035e-02 -7.692691496218036218e-02 -2.579505510453736195e-04 4.999459058868205297e-02 5.082597603339192999e-02 -1.689776319325836038e-02 1.715311522101921338e-02 -5.804676018609637028e-02 -5.689579007747478517e-02 4.550268780477530195e-02 5.972087343001192955e-02 -3.821373714469106231e-02 -3.761751456887989925e-02 -5.142968176056329603e-03 5.852608279472747838e-02 -1.647601399310332990e-02 3.745977011711608406e-02 6.040795686729643482e-02 -5.566263077161513750e-02 -2.401397021615849989e-02 -3.827580806289175575e-02 -1.346802067605114631e-02 -5.932182451126555983e-02 8.841488292822951428e-03 3.772964184767342577e-02 -5.735764920623451918e-02 3.678095369185139379e-02 1.636792829192790233e-02 5.912378335677673930e-02 7.908361288257328633e-03 2.829663699533616419e-02 4.338776875490567286e-02 -6.761111774689393394e-02 2.802968580858843789e-02 4.598268710863536585e-02 3.948580814893913604e-02 7.039137923106690564e-02 6.609521276027739657e-04 -3.294727553298834599e-02 3.208344027008445953e-02 -4.253134044464444707e-02 2.890335722166464168e-03 -1.867380060062690667e-02 -2.356887401768301485e-02 -1.723963518491967647e-02 -3.469726912629009924e-02 3.484128865715820783e-02 -2.891733811060227723e-03 4.359208683284615526e-02 6.711606991544653844e-02 6.332101446717848525e-02 -2.470049862494343856e-02 -3.462647314856939079e-02 -4.202871857369552475e-03 9.211250253894884971e-03 6.150784113348076870e-02 7.190635646524268232e-02 -3.681380782867511164e-02 2.803269856936018226e-02 6.215506450101235258e-02 -8.208377798618705229e-03 1.047745919905327359e-02 -2.389266656032091804e-02 -8.149658285026714633e-02 -1.711221649938463735e-02 -5.430308149031338322e-02 -4.053806336110955116e-02 -7.078017573765253700e-02 -9.152770843285649993e-02 1.290961259429171566e-02 3.210006088130404334e-02 7.977368848511832977e-02 -1.863219983500839436e-02 2.350933489747316849e-02 4.237365915763298407e-02 1.228938641550031755e-02 -2.420849663951751829e-02 3.342760773253682788e-02 -6.658057797100959234e-03 6.932837831875715562e-02 7.499085669488653183e-02 3.341300926824410794e-02 -7.214289888722896782e-02 1.995021214041382829e-02 -6.347421741336121970e-02 -5.240894488333274620e-02 5.031401235865894800e-02 3.565797147257936117e-02 3.288545345898230554e-02 -2.190093316493908066e-02 4.670204432514009352e-02 3.853009874349759556e-02 3.828451792879114524e-02 7.059101462811893934e-02 -7.314040535917366859e-02 -5.959200786796339105e-02 -2.559294885522561246e-03 5.780603564243116943e-02 -1.314216632378594363e-04 6.421582856651186777e-02 -6.246659171293790502e-02 -3.142505250287061513e-02 -5.941956462434684616e-02 3.120862494836041182e-02 -7.202481484803363587e-02 1.485143378625073708e-02 -8.099566308301320294e-02 -4.383759079295040939e-02 -4.203327916748648280e-02 5.616548731165538905e-02 -5.002841065491069744e-02 -7.541815175038116270e-02 -1.084579062853364452e-02 -3.721664397332878627e-02 1.597783925397867205e-02 -4.283926692896539157e-02 3.197218492716655952e-02 -3.670616702973195783e-02 6.653769263350532703e-02 7.123169367303819333e-02 -5.185560107795973706e-02 1.422022855519061019e-02 -1.027785886993682653e-02 1.330233031339784003e-02 3.335972581493738820e-02 -9.155849576195107531e-02 3.145288360743957873e-02 -4.602533291850902097e-02 -2.405476957160709514e-02 6.629392982034588988e-02 5.592935744117131375e-02 -2.621468375806240703e-02 4.860634548651056840e-03 4.597316789591288089e-02 6.638503989010034745e-02 -3.330002509601213967e-02 6.877645972046012024e-02 -1.007411804860339211e-02 -2.283702276756616190e-02 4.944546151352523233e-02 2.191700211461696662e-03 -4.757508515425486716e-03 -5.898184580043171199e-02 6.956401598985825774e-02 1.480889651753036730e-03 -2.874500045122452274e-02 -3.568055713659203793e-02 6.026220498623639094e-02 1.262002318285255532e-02 -3.379289635009938980e-02 1.295607242863821597e-02 -1.798027519095040869e-02 -2.722776124678738183e-02 -6.547246804705407486e-02 3.550968915890879291e-02 -1.174553907447804801e-02 -3.575206705509924310e-02 -4.357176850868320350e-02 4.686282559361049788e-02 7.688627221667964327e-03 -7.089034933699890628e-02 -4.922749249865048492e-03 2.290545682019164836e-02 1.095411947405211528e-02 5.694940343610453704e-02 -7.328172655915063394e-02 -4.469941436803692714e-02 7.148016697172636380e-02 1.452580491994210753e-03 -2.391294283262067680e-02 2.558463408263011302e-02 -9.085357078815628137e-03 3.417393386835537034e-02 -5.832308080098075331e-02 5.868919457276984726e-03 9.757824939790707072e-03 -5.408697863987558391e-02 6.782064326132129783e-02 -1.400848247865756622e-04 8.955762318245291155e-04 -4.721817498480113118e-02 -2.047629119850431431e-02 1.280105287274949447e-02 -6.301924063346912852e-02 5.659778546774784508e-02 -6.825467097192346178e-02 -8.048379938417445090e-02 -5.338244752740102517e-02 -9.095115291445964034e-02 3.275577297914818858e-02 -6.892390048993479734e-02 4.518371912076744185e-02 6.866882947761351885e-02 8.074605652539939074e-03 3.672772024319573975e-02 -8.443245528489207521e-03 1.469098832004095585e-02 9.638104022163288334e-03 -3.422222699811525853e-02 -6.278868998642118948e-02 5.790560839862721187e-02 -5.414795227484748077e-03 -2.104170091062906173e-02 -6.810047904781417472e-02 5.374905093796478531e-03 -2.840696023115401800e-02 -2.140008187338133736e-02 -3.768749925014952540e-02 3.038618003153086000e-02 -4.797176958404720387e-02 8.184296132509444321e-02 6.788320988022608637e-02 -9.998171432279132770e-03 3.555400328067058469e-02 -3.139105325537828312e-02 4.133208662129676803e-02 2.259613372198185366e-02 -9.543629070920416763e-03 5.661120900159687802e-02 6.078620874529596513e-02 -2.084828801208387164e-02 -6.646641443030085195e-02 -5.052476799113257699e-02 7.457521254674905065e-02 8.513547810173034344e-03 -5.299079195069719694e-02 2.175799208296346626e-02 -3.156027156957119661e-02 -2.196853016126079292e-02 -6.585185525765212267e-02 -4.867424117284466917e-02 -4.847952185258225938e-02 3.643339196679917097e-02 7.279887030899047373e-02 -1.816715258495769925e-02 5.714879022276607434e-02 -8.659616931983952224e-04 1.814237807255167367e-02 -4.059993380370929134e-02 -6.288917175335981269e-02 -1.422008071907780377e-02 1.763054291652967412e-02 8.430759734972342878e-02 -4.182928677069765871e-02 6.622459298013895490e-02 -3.344535745682811201e-02 -6.522583587337398014e-02 4.033057401556214110e-03 4.487729608927732566e-02 -3.941634356489285423e-02 -5.600926133056139539e-02 4.878480176023909654e-02 2.256851100797458570e-02 -4.038922330602393723e-02 4.843822358499928760e-02 -5.367267952275504329e-03 2.647783395060653803e-03 -6.672652829743939973e-02 6.217855303269280778e-03 1.037194211673032364e-02 -3.488931041835174884e-02 -4.892998373737519890e-02 1.945750541606390202e-02 2.995142759368462845e-02 5.033947967916369004e-03 -3.385718419542062957e-02 2.217659512817839879e-02 7.166336839719893159e-02 2.848195358966542495e-02 -5.685237341409887096e-02 4.958035151421107817e-02 2.442668267149492728e-02 -4.091452401809782952e-02 3.820996050898974733e-02 2.316987591331835447e-02 2.578647262911413357e-02 6.821354458493908424e-02 5.050622859769585138e-02 2.865745134872009665e-03 2.415760780216344439e-02 -1.476360305906372801e-02 7.528069192076589089e-02 5.143792580776414963e-02 -6.022737449394187370e-02 -3.884193639205873322e-02 -2.122969599721661466e-02 -2.002747054402031351e-02 -8.383664685718131282e-02 -2.753305678843265616e-02 4.143375926458370273e-02 -2.396019673187470972e-02 -6.353777169744793951e-02 -9.238659842352267559e-03 -3.255554528663869712e-02 -2.957269379653392274e-02 -2.965312556524437454e-02 -1.423976392208337050e-02 -5.227426223335659289e-02 6.672565596962681150e-05 -2.837215801548530376e-03 -4.855974901061702043e-02 1.065006341279011934e-02 -5.714202701746930874e-02 -5.812777245441159285e-02 2.200686719113884027e-02 3.577825988845403926e-02 -3.992691256479350553e-02 -4.877573236904930720e-02 2.766256693712005818e-02 1.880199459546100932e-02 4.372115195415930688e-02 -3.169109066866326180e-02 -6.012756222571645492e-02 6.269824413874791613e-02 -4.624676075312479651e-02 -1.280625702075562609e-02 3.270355277668253371e-03 -1.693282313299503822e-02
6.582001444174258309e-02 -3.227975500350688948e-02 6.747887156844632750e-02 -2.200939841777679873e-02 4.084631255945741363e-02 -3.619646467736280238e-02 4.368512997465733884e-03 -3.197998400035741845e-02 -4.113048942718295492e-02 -1.088521045323140660e-02 2.652006686259602078e-02 -4.766093444834728493e-02 -1.681352547877136561e-02 -3.525726737915099024e-02 -1.657171428383432928e-03 -2.877427478697882225e-03 -1.916862509215682547e-02 1.590266711447740552e-02 -1.748711265528511347e-02 -4.388374067253163202e-02 5.811867398648962180e-02 5.941915874171310730e-03 3.250375738192031599e-02 -2.420802958354415987e-02 -3.826273984309583320e-02 -5.812621292371959736e-02 -8.873758494810360387e-02 -5.903148479391807230e-02 5.593793199821169709e-02 -2.782137366137792112e-02 -3.654703735684994986e-02 3.758521172857354903e-02 3.288790377228646700e-02 -4.673213971391273688e-03 7.955097236205097011e-02 -1.601041713890443210e-02 -1.242902969906405433e-02 -1.531154162741295809e-02 -1.676637999116049188e-02 -6.251498943566864697e-02 2.000556231098915561e-02 4.708143504305679905e-02 4.066107345852094934e-02 -3.033210214439724037e-02 -4.371741582045030744e-02 1.933837911759623412e-02 4.528765197120512148e-02 4.167885708522696409e-02 -2.785809222581573513e-02 -5.090160127523632450e-02 -5.886418885637563492e-02 4.027176349800161426e-02 4.965108828219615134e-02 -3.314207825821045145e-02 -3.332702743965351017e-02 -4.984622322953961848e-02 -6.935164081262625013e-02 4.901113429310532954e-02 6.774816268424382892e-02 5.960518392365708046e-02 5.999806107798365262e-02 -4.077916990550353726e-02 -4.235890781658259788e-03 3.097725397874830089e-02 -3.736567533986430434e-02 5.382887463664996763e-02 6.853380069200815106e-02 1.877108049010505625e-02 4.364591270510755072e-02 1.292241747358611331e-02 7.701122788016923071e-02 -5.171159643176281850e-02 4.684080673583261578e-02 -5.334175088833922017e-03 -3.263955830594229487e-03 3.124261389572698892e-03 -1.072845130046378185e-03 -1.748160137711076562e-02 3.974794561536856841e-02 -4.501230645035621258e-02 -1.436810901369049188e-02 5.155777337543827887e-02 4.245755751224761232e-02 -2.841933058605431578e-02 2.864376370002361116e-02 -7.190357248048667195e-03 7.260073553304410843e-02 -3.530079834430974867e-02 -7.395486912425366932e-02 -5.363824527114414986e-02 -4.788146519432792680e-02 6.499358610695297502e-03 -5.595805169867827666e-02 2.769699529046900505e-02 -5.813296035488167007e-02 7.604602473157597020e-02 1.940245223030837712e-02 -4.741844230864156184e-02 -6.163438108604263332e-02 -6.246232892749442600e-02 -6.984723683929998372e-02 -7.581570298800301491e-03 8.496090089043387139e-02 -2.562297120245913759e-02 -6.733939164901742158e-02 2.762480964992988178e-03 5.215990689862466841e-03 -6.360389973396651624e-03 4.181124740029361353e-02 3.969699152641336520e-02 -5.737277054290351036e-02 -7.090238931240133713e-02 -1.679883520987045936e-02 4.358534248681640577e-02 1.495092407078581730e-03 2.201631187149069580e-02 -1.124193345417956284e-02 4.053919545339725039e-02 -9.992227290941636461e-03 -6.712559079515031946e-02 6.584565345405561654e-02 -4.349351021149579916e-02 -7.010801140711508950e-02 -6.283729525539613614e-02 5.923623558991239491e-02 2.493389560649181616e-02 -2.953934422897832104e-02 -9.039607693043417644e-03 -2.346872754604698019e-02 -1.132588399330222663e-03 -9.981878034866577959e-03 2.623678938710253400e-02 -1.126301841839735807e-02 3.415270462158222047e-03 -3.164839502097304552e-02 2.544140192705209372e-02 -4.696221487801183203e-02 1.529605740140664236e-02 -9.127597157661558602e-03 7.985692222826157663e-03 -8.383076788060407625e-02 4.664205717520235328e-02 -3.245056855580701755e-02 4.280844345818291680e-02 6.240094541863369648e-02 -1.008901326150175165e-02 -3.032132269919252804e-02 6.204913631582490569e-02 -2.430331779055933464e-02 6.311411168657886546e-03 4.426884000258717727e-02 -2.273058755655073607e-02 -7.412272927520653643e-02 2.030450940224645673e-02 -5.964177553202263532e-02 -2.075570684341068034e-02 1.250234092619693623e-03 5.046730511054198925e-02 -9.045854428107758319e-03 2.784640602258741521e-02 -3.439193136504915121e-02 2.699687852327255222e-02 5.204183973161675275e-02 -2.797320472449072587e-02 -4.064615774100564100e-02 3.055211217493347328e-02 1.492735314612043951e-02 2.333773759024616173e-02 3.336084808603441421e-02 -8.014628996732642285e-02 2.470610326411008112e-02 2.718913446413732254e-02 -2.897098381200008052e-02 3.062822452268867610e-02 -2.025321605078360052e-02 5.734776589885920949e-03 -4.633809076561133666e-02 -4.266792820066341724e-02 -5.291717835502518508e-02 5.145268518062144115e-03 3.064799155243064233e-02 3.877706842011240801e-02 1.298472651749108496e-02 -7.469566338226582558e-03 5.151110574865096908e-02 1.569074922699362912e-02 -7.992672105240093694e-02 3.732785139290679000e-03 3.914872141041258330e-02 -4.875143326601501931e-02 -3.489280863121665271e-02 2.898238919155573731e-02 9.225707349696762524e-03 -4.182250088088767387e-02 -2.502154574105092122e-02 -9.126409496315913972e-03 -3.550984755506998193e-03 -5.150653858130741641e-02 2.011793333345859511e-02 5.301473241315956403e-02 3.634866541082099750e-02 -1.548359937697236718e-02 -1.159708377529151610e-02 7.500871764232811521e-05 1.951472423362480418e-02 -4.224896162637920005e-02 -3.310151265284494437e-02 -1.897825769039962127e-02 -4.198836716558175530e-02 2.467213619625908960e-03 7.285697620543292365e-04 -6.414985856323719704e-02 -2.252067634509868910e-02 -4.633324313101522263e-02 -2.433145499821777556e-03 2.140822469108929343e-03 -5.720606006358042173e-03 7.109035820715611798e-02 -1.880425782987156253e-03 5.104262166710587384e-02 -3.853197863049027949e-02 8.403724186820915945e-03 8.025863287811813018e-02 -5.296351261775205516e-02 -1.307511496733345345e-02 4.097952100821001392e-02 7.655936525067762177e-02 4.130358792502918097e-02 -8.275762906365996888e-03 -7.505447334789453482e-04 -3.838862394089880697e-02 -6.533383372562336089e-02 6.035568580172598341e-02 -7.742651529321646631e-02 3.941574104854375649e-02 -1.014884649435546064e-02 -3.240134458245788607e-02 3.394548583188471830e-02 3.403969901673953302e-02 4.875489027591339147e-02 -2.489778996231915495e-02 5.485708948596677154e-02 -5.092345321280475172e-03 -2.383940518475601358e-02 -9.272942118801886027e-03 2.079454241281974980e-02 -4.737560130258618857e-02 4.102208566092897801e-03 2.682569640625151464e-02 5.288831360059997877e-02 4.634128948184930430e-02 -3.904590019881707535e-02 3.060805347906862123e-02 -5.265730356840449267e-03 5.616207841605099643e-03 -4.204622551869327020e-03 -1.751662661483838548e-02 -2.015544417607714398e-02 3.884988689406901341e-02 -1.940107221373664134e-02 -7.885062084206488631e-02 -3.424372475603760374e-02 5.494146788036143730e-02 -7.054845680080945591e-02 -7.483937062815371188e-02 4.747541011249031308e-03 3.927935705342758960e-02 2.636854398632924520e-02 1.173299137544455209e-02 1.007962799423992376e-02 4.010436583114641677e-04 -3.308147328403319293e-02 2.744640991102282289e-03 -6.737942354607052986e-02 4.032321432121441923e-02 1.557855745155035899e-03 2.844406842099745855e-02 9.725571041704449485e-03 -2.897888917516900503e-03 5.976925772872580117e-02 7.832116861543653163e-02 -1.398167644389642847e-02 3.896616857696592190e-02 -2.511879845826307106e-02 6.163957154189225046e-02 -3.837847392389191065e-02 5.387526797317990224e-02 5.826459296065808480e-02 2.739156514511982207e-02 1.063424353245894134e-02 -5.673742227097727797e-02 5.277954749335794088e-02 -1.249328183397001649e-02 -2.160664439608954088e-02 5.635525496319775812e-02 4.858918747181165815e-02 9.124473479323576622e-03 2.733908228503399360e-02 6.506862640941471487e-02 4.069825817703503351e-02 -6.668027712963811582e-02 2.319119985670581655e-02 6.888201919428918463e-02 4.953857160820204092e-05 -1.497262595723145712e-02 -6.498877661509008807e-02 1.806949566965843426e-02 -7.350561023936724378e-03 2.766843552900614608e-02 -7.881154619063526767e-02 -6.609549186120623407e-03 -5.340171870510393437e-02 5.367354841720767267e-02 -5.084415284826476755e-02 -6.125543748173709752e-02 7.241694207775757619e-02 4.266828249590261246e-02 -5.891139568306468649e-02 -5.510447543862748154e-03 9.180938618319410896e-03 -2.580819676046671937e-02 1.956738290020615043e-02 4.444288287346916111e-02 1.636779125775255153e-02 6.342027404334507623e-02 -2.895773049101305410e-02 3.675488488789975527e-02 -6.773894224466994740e-02 -5.250296992169040111e-02 6.768698033162681704e-02 -1.324565011942934606e-02 -3.355652284755465675e-02 -1.573240678759370639e-02 1.183638537479161403e-02 6.377678396661405624e-02 -3.629021996299296171e-02 -6.067399246351712697e-03 -1.392093585899873733e-02 -3.553884642370930269e-02 2.645958240641020642e-02 6.177795570817498638e-02 -1.344499572416916859e-02 -3.302522947614944249e-02 -4.753088032683622927e-02 3.693343125183216197e-02 -3.221525993300526636e-02 -4.216093390827763999e-03 -3.914414896545878597e-02 -1.996428179415767057e-02 -1.041691209994050939e-02 3.062290023931416375e-02 -1.791023436983182199e-02 -3.119886394372475141e-02 1.066494524426181770e-02 -3.778913663028312525e-02 4.943679628680829746e-02 7.893221650065204709e-02 2.473104965674590219e-02 5.707867218866383846e-02 7.153719305019905217e-02 -6.679175203638167135e-02 -8.778518382566862649e-03 7.708270289892671379e-02 8.347937727055682738e-03 1.034122518934071054e-02 6.171185879962889226e-02 -6.183872480269767512e-03 -5.270603886532442689e-02 2.185964310089928697e-02 -5.403373428426487546e-02 -1.948519572263612137e-02 -1.411776752097040552e-02 -6.646838661442389107e-03 4.234359352123908196e-03 2.917000520876003589e-02 4.483485828853761568e-02 -5.046445046192983563e-02 -8.455263449639796591e-02 -1.987914151919992906e-02 -9.490974165014244568e-03 1.876060488005965379e-02 -7.299473333483476323e-02 -4.921052748968374885e-02 -2.716678226178817577e-03 -8.006439613867750993e-02 -1.003811864334363743e-02 -2.153482183643758499e-02 4.910628862947288842e-02 -4.066888274415773885e-02 2.110286515941861563e-02 3.504318108032672408e-02 -6.591857941004285182e-02 -8.006336094910747325e-02 2.479636580020517719e-02 -2.516457310593212329e-02 -3.575713050869348125e-02 1.954341936724824161e-02 4.394470808020087965e-02 7.499176093806431131e-02 -4.041342499836743374e-02 -4.427900276762818804e-02 -5.790257915955023676e-02 -4.484609969958206627e-02 -1.898891410004538427e-02 -5.499868440833469846e-02 6.231273736553421400e-02 1.515451685072661397e-02 -2.898068264563257931e-02 5.466195060565885722e-02 4.126880868545371346e-03 -7.122463139574929623e-03 -3.717678080790752515e-02 -6.375139819029303212e-02 7.199965751965404885e-03 4.507526330242320189e-02 4.632310362834884954e-02 -3.239115195823200066e-02 1.760484101756293676e-02 -2.774320386593864124e-02 2.851367980264096075e-02 -4.652157339561699412e-02 7.289189037138706778e-03 -2.775970555120689173e-02 -4.405358838538604715e-02 5.917884667840598439e-02 -3.897538359358944382e-02 7.105615670594774003e-02 4.339601486655993157e-02 1.981659664225331186e-03 8.728751441778485887e-02 5.599557575936539577e-02 -3.642939411143100454e-03 6.901195436381081516e-02 4.585145707890480454e-02 4.898386239229486627e-02 6.212064241387799113e-02 -6.907218114083418792e-02 4.986565780153235511e-02 4.900011720968793470e-03 -2.665167323677121100e-02 1.961852801085598938e-02 3.484855324694789962e-03 6.775556452536620660e-04 -6.786287269924242901e-03 9.638985349025271446e-03 -6.685116089392686978e-02 -6.784129733884531992e-03 -3.761142988130890350e-03 -5.243771580630014750e-02 -5.718532338828184042e-02 -6.304421051357382566e-02 2.798746753827680359e-02 2.495458745617031016e-02 -2.658235045894324564e-02 1.496989880101291456e-02 1.767770075939914878e-02 -3.413397613759926869e-02 5.391001754011826019e-02 5.952386162075389009e-02 7.160795915238525600e-02 8.150359353538891294e-02 -8.127833581697671908e-03 5.611041132584126262e-02 -5.178475324116010164e-02 3.609833153072452422e-02 3.333577348981368177e-02 -4.768055629156479208e-02 6.240531330672773047e-02 4.731384983885036921e-02 5.797926849011628136e-02 -2.801564407825028399e-02 -3.231556220301340376e-02 5.771377425801906685e-02 1.953823631943004194e-02 -1.776119681341803772e-02 1.409417794804584262e-02 5.315994184685816915e-02 -8.437601326379068345e-02 -5.127553940336578714e-02 5.038072589187333333e-02 4.330895160526483656e-02 -2.856430001254775444e-03 -4.721127382527520733e-02 -5.380734880549079696e-02 6.411122179584902159e-02 -3.300977312140198489e-02 -3.158343445250596376e-02 -5.276283368870897904e-03 2.534478700005702440e-02 4.676537524440182308e-02 1.437893817541676007e-02 6.317553269880216149e-02 -6.293606528853620818e-02 5.041543419708835461e-02 -3.480583852257814609e-02 4.181393945796911538e-02 -1.222423316917626776e-02 3.978140542251044215e-02 -4.023551581346974937e-02 -4.986774339322367494e-02 5.337784924498533215e-03 -4.962584909499170860e-02 3.860867269258495826e-02 2.366365902863161452e-02 -3.817071817038171500e-02 8.394147911472756018e-02 -2.776521470774703446e-02 -1.628968958610749890e-02 4.922677879627893743e-02 4.099084198167267379e-02 7.581757888782478250e-02 -3.239918829212108664e-02 -9.482540312482662381e-02 6.065470487452580967e-02 2.300112541447587103e-02 7.435803318229014698e-03 -5.470988945662630214e-03 2.613932630844899643e-02 -1.341102813417988093e-02 3.396190544859371829e-02 5.437069107946143620e-02 5.461640706328515366e-02 5.017529325804232637e-02 -1.283627479952121654e-02 -7.634056265172066424e-02 -6.989219820525855234e-03 -5.475024957480790350e-02 7.468362216323108649e-02 6.659722674065332582e-02 1.335879028213936802e-02 3.044355123822170897e-02 5.183837817911150087e-02 -5.671055072727398949e-02 -4.901611899026919739e-02 3.686318884635686466e-02 -3.606000930897883955e-02 -4.766391961833891383e-02 2.142716736628158189e-02 5.975680676390346391e-02 5.933327759824737896e-02 -2.001418645535837926e-02 -6.865585884582482701e-02 -8.576890676651482970e-02 -5.589273296419836751e-02 -9.394797085652158847e-03 5.460917469625940768e-02 -3.603729675185696896e-02 -6.150576345268377043e-02 5.650632960251016773e-03 -4.736348217980192177e-02 -3.184577049501031922e-04 6.621313076734801351e-02 -2.965186764087429649e-02 -5.958830605450997353e-02 3.035441054896971524e-02 -6.572721739607020885e-02 1.441063430068609957e-02 -3.030337690726439721e-03 -6.682440257928838612e-02 3.723230784881018107e-02 4.953550124262523502e-02 2.551000301827950623e-02 5.647578228992538446e-02 3.741314351360974788e-02 3.992681407889324408e-02 3.268292297340672642e-02 1.399301942732163705e-02 6.826116435729689957e-02 -1.301381235727596189e-02 -2.269172314035845794e-02 -1.782309209146327317e-02 3.139332787789669843e-02 3.325694989388432860e-02 5.754635280162311711e-02 2.578740894778483450e-02 4.662285851648539231e-02 -5.368781584433878623e-02 1.738336740931368390e-02 5.133812644661929492e-02 2.784926183454924931e-02 1.928968518305095373e-02 9.587087536420556191e-04 6.654743721943112700e-02 1.450852317891526992e-03 2.641108427783634208e-02 -4.391041655372360242e-02 5.237127781661721909e-02 -1.654642001348256841e-02 5.468015777389498592e-04 -6.664932063041956178e-02 2.624180696362377312e-03 5.780534848152727584e-02 5.889095436658750571e-02 3.083849209595280680e-02 4.254493577248202180e-03 -5.970218767825930667e-03 -2.527288953918369399e-02 5.967246268769869216e-02 -1.931897061129515120e-02 4.847270596655382791e-02 6.982633653960619580e-02 7.708412159007016311e-03 -1.058214450251216375e-02 6.356272680336060021e-02 7.453938031565922329e-02 3.817252221720155835e-03 -1.160908408761484982e-02 2.745039729303723475e-02 -7.643740463894067860e-02 -5.725028551706535379e-02 -2.911722433554325522e-03 3.959557860320682410e-02 6.087747097103439475e-02 4.548441437268294779e-02 -2.266919260261170826e-02 6.524980471646363300e-02 -3.938450070806947569e-03 -6.082444573013543604e-02 3.469104541992612534e-02 -6.886651114527748974e-03 7.038959261206446244e-03 -5.069364310083587788e-02 7.040042511508588785e-02 5.269843167022113251e-02 -1.209146351900798957e-02 -6.095391727005854826e-02 -7.117516895119932463e-02 3.034878192028887117e-02 6.662956748327425460e-02 -5.249956277693486328e-02 -7.177370852821489400e-02 -6.278562378170492175e-02 1.226231448173990997e-02 2.332732847011538199e-02 -6.383458712411402280e-02 -2.287873320465993662e-02 3.075192475951287613e-02 -3.241539862157075125e-02 -5.667535402878597778e-02 4.420427703722935170e-02 -1.514523853364807202e-02 -7.954954215802665859e-03 7.067126855691790999e-02 6.054475082504290340e-02 7.569207342258610360e-02 3.485402914292710236e-02 -3.558622769071553404e-03 -4.768200732266432429e-02 5.997422514435171714e-02 -3.359216019532796499e-02 -6.221890106074202259e-02 -1.413311379854161358e-03 7.095838553723899343e-03 2.221713452872081662e-02 6.706704223994665315e-02 -2.594088706133523478e-02 5.318915597962971253e-02 -3.956771263103057296e-02 6.096846602889198496e-02 -2.358835159766002609e-02 9.363058508877296696e-03 3.565119301518150652e-02 7.262982059142508717e-02 2.766593403397335851e-02 3.766218785347792003e-02 -5.802928651850838143e-02 3.180396729953104823e-02 -5.583454820391845624e-02 -6.542411121854839473e-02 -4.031049482059553130e-02 -2.706353776429993446e-02 -2.464736001749773253e-02 4.610061059294617153e-02 -3.650987263703631917e-03 -5.950983986764343814e-03 6.294215440230799263e-02 5.824366560281636629e-02 -1.650398380539479237e-02 6.592363411192074529e-02 1.868053950157680040e-02 6.075700563336765975e-02 1.682314610312514794e-02 -1.038354474399102133e-02 -3.595390209758132782e-02 4.281138030313044046e-02 -2.046459795125119691e-02 6.026776227570382338e-02 -5.118659896194856229e-02 -4.451577732466222015e-02 4.382155840833443228e-02 -2.291996893349980066e-02 -5.993049563378643509e-03 5.128570467498498597e-02 -1.438850736167341911e-03 -7.501699011083146074e-02 -5.387437692926925342e-02 -5.495922916698013638e-02 -6.318685287576386589e-02 2.945520953600065661e-02 2.544108210745130508e-02 -1.530555062207366625e-02 1.484861840077678942e-02 6.511958606108801673e-02 -6.527880184841680644e-02 -8.502224964951789546e-03 4.751451673454348996e-03 -3.858306549486792414e-02 2.120458206107781254e-02 5.718101224855786507e-03 5.281507600021259630e-02 -2.559726941280260348e-02 7.262929824821739988e-02 -3.945729595661579686e-02 -6.956254878742236525e-02 3.628110769708089295e-02 5.470843315009396579e-03 5.242549736681333811e-02 -2.675534286510221002e-02 -5.180315649994601986e-03 6.867066476708257039e-02 6.767415183575082802e-03 9.000286475334743491e-03 6.771556441608572730e-02 -4.163668178343980786e-02 -5.497196746599899292e-02 -2.714972262881868575e-02 4.662536883869762561e-02 5.595415603427243700e-02 -5.684850370145255738e-02 4.334016812788077377e-02 -7.214905994869527661e-02 3.592586098606406764e-02 -6.117374467837486535e-02 -7.346638738294845872e-02 1.903868909140740695e-02 -7.218859524876482248e-02 6.277383033754503627e-02 6.290945966168723369e-02 7.433243850683595583e-03 3.124222033395874371e-02 -6.665989534599349453e-02 2.268674660436691484e-02 8.284703929760116325e-02 -2.391699747351196462e-02 -3.924138622259695092e-02 -4.292027410731824588e-02 -6.426422537781220634e-02 3.913217184399848253e-02 6.112733171838708596e-03 -6.722760662176982538e-02 5.812557855246310717e-02 -4.966839117358404915e-03 -2.431850330747531083e-02 5.284555832492716931e-02 2.224413391126251957e-02 -3.173418073072060974e-02 5.873216200987327329e-02 -2.916058789263199086e-02 -7.485387121619098286e-05 2.616636278196785015e-02 -5.080107833963291158e-03 -4.984303252385006294e-02 -5.009931171497809116e-02 -2.965443112967918599e-02 -1.550748137103149030e-02 2.731327217312730371e-02 -5.509538472590184283e-02 -4.273175741497534097e-02 -3.257787405892564880e-02 8.056134469934988010e-03 7.360020668026676094e-02 -6.950828566968725308e-02 -6.309751724008171719e-03 2.224472660994751549e-02 -3.316787377095981731e-02 -5.837271957946068429e-02 6.352398161592302805e-02 -4.051212368634145300e-02 2.526420206239091137e-02 5.328532638896313345e-02 -1.077217650842940584e-02 6.876828603827438158e-02 1.204826677534094354e-03 5.592705066999312247e-02 7.595026665815482469e-02 -3.612032844263606685e-02 4.151995184487936030e-02 -8.667456314180347135e-03 -3.316959592034875864e-02 5.478065957457260021e-02 -7.188690861468874371e-02 3.324635901778338204e-02 -4.392227930367182537e-02 -1.123114036343001929e-02 4.299329103298028809e-02 -7.280296335166203114e-02 -7.847091797269202529e-02 -2.195250930999157954e-02 -4.403439013522909146e-02 -6.557815630964565490e-02 -5.663477496124430695e-03 8.877284641743048502e-03 -4.709837607919655639e-02 -1.699945776482348486e-02 2.841189334203704855e-02 1.939122975589963396e-02 1.733379095259021674e-02 8.403390025787865758e-02 -6.912040903764515853e-02 -4.060645901331547125e-02 5.864861175021844619e-02 -4.746510003449287696e-02 7.307336356289979851e-02 -6.426901183870524503e-02 -3.388370519431387062e-02 2.795110176366539731e-02 4.227756173034969561e-02 -7.028393014285203022e-02 -4.422964716576694572e-02 7.548439981537953536e-02 4.457177666333299315e-02 -3.862937759207346611e-02 -4.552169085043462904e-02 -1.119636043886594254e-02 3.823057114107589888e-02 1.812602003214225030e-02 -5.341702572954933059e-02 6.104312175905598353e-02 -2.768256863299039215e-03 3.201164787121928146e-02 -3.241977516591913050e-02 -2.243554864548582412e-02 -6.168867723451207374e-02 8.963159229684995732e-02 2.491932785308996479e-02 4.411691960139098312e-02 1.517281860910303648e-02 6.511784424204634936e-02 1.870820054315918204e-02 1.418931173123622047e-02 6.784375751701739177e-02 -5.512328342788819918e-02 5.148458088765660301e-02 4.190184501204261697e-02 3.904385578474954543e-02 5.319372502868439934e-02 -6.580102555815911525e-02 -1.534692783327103703e-02 -6.072900390363315110e-02 1.289380865989678618e-02 -5.224782864106439911e-02 -8.610854807774047381e-02 -1.721283782048419267e-02 -2.304345314831807157e-02 -4.889923121190809657e-02 5.979335155872855800e-02 -1.445778826995582772e-02 -2.849732792037153531e-02 -5.476958801493445744e-02 6.748523043936031918e-02 1.062943085067875361e-02 -1.710062367384571373e-03 2.591820907821464071e-02 5.542914290074127392e-02 2.211293649572613346e-02 -3.170231107071488919e-02 5.882727898212092299e-02 7.097694447415085761e-02 -3.662044044995388381e-02 2.412175007643122329e-02 2.546874433565991108e-02 -2.799508961887612821e-02 -3.019540928109747460e-02 8.820867725438467574e-03 1.072681037174743642e-04 4.515062360210056469e-03 7.601991276823548416e-02 1.450187082248814360e-02 2.288984163559875523e-02 4.931974750900092880e-02 -1.129154642828376041e-02 5.598515167064586212e-02 2.685396988464589310e-03 6.222057409534821615e-02 2.299619070189793182e-02 6.174525631552267579e-02 -6.458671129882291584e-02 4.489537995775555457e-02 3.753251161457610285e-02 -3.837852415234052628e-02 1.303935217004796934e-02 5.385384055006190579e-02 2.125658162690130179e-02 -1.316803398231965704e-02 5.250693908488139605e-02 6.644710123823242831e-02 -7.987131125244029128e-02 -2.713055150144065217e-02 7.225557595786264581e-03 3.725414092097704966e-02 -2.077447884624710958e-02 3.485527892757285529e-02 -6.550474597580427383e-02 -6.164881563091267717e-03 2.359712009920439044e-02 7.046613280180297201e-02 1.621991798918489061e-02 3.320300171160031621e-02 -4.062276915427428386e-02 3.352246550776463718e-02 -2.084175114305973284e-02 5.411753902245645953e-02 -2.584220776878793854e-02 -1.587212495537135976e-02 2.965503266263254736e-02 -1.700511788552037593e-02 -1.550455814515958736e-02 4.234197254005760830e-02 -5.327328955226783187e-03 7.329927164035425491e-02 7.145297931790450807e-02 3.661204816874478324e-02 -6.257631207512089587e-03 7.789346202614352843e-02 3.217279632534045253e-02 6.550117308043960918e-02 -1.694847127818559229e-02 -1.734440688983986817e-02 4.170044684769219634e-02 7.960828051285812057e-03 -1.573014967049665789e-03 -4.213053506735356391e-03 -3.876444859762810669e-02 2.113372612781575129e-03 -5.262140743345990884e-02 -3.262081368992900826e-02 -2.679207427627575480e-02 7.974754408978773634e-02 -3.587747881303597619e-02 -3.497791913890717364e-02 -6.731670234713234280e-02 -4.477191541335902303e-02 3.656711753636875811e-02 -2.058014409141632056e-02 -3.803918860336894664e-02 2.932236775401452986e-02 4.163443829488597953e-02 -5.861460302024951857e-02 3.308684045311344191e-03 -4.599566041727502080e-02 3.695131428418480662e-02 -1.486214368542787718e-02 -1.964779925312068465e-02 1.335474567285579832e-02 -3.640459836928638948e-02 3.275812209069853265e-02 -1.883515880208302615e-02 8.083591482006820955e-03 -3.798020754436657459e-02 -7.031221840732564121e-02 -2.223098236018217558e-02 -1.765067908057483745e-02 -4.355308546401085584e-02 -2.840511367837094542e-02 -7.018191096018795705e-02 -5.918402776023765077e-02 -6.329123955557614672e-03 7.122233857908475546e-03 -5.668274952406745539e-03 9.920430779699522875e-04 2.498838119831349458e-02 -5.953884549843901919e-02 3.771166188159216781e-02 6.499833260199938678e-02 1.481512858016515756e-02 -7.323762500329113190e-02 -5.358037492791200423e-02 5.709943501401579420e-03 -1.340366396142143521e-02 7.020298802537366933e-02 -5.572137098055147952e-02 3.321838700020780105e-02 -1.532679066968547880e-02 2.298196348360920585e-02 6.650068922798854643e-02 6.986747498638014309e-02 5.738340786077822386e-02 5.421668057980809363e-02 1.664473263643809989e-03 5.634537995384969467e-02 3.341115572818297019e-02 -2.266537055471250922e-02 4.025485095165742822e-02 -5.629762301530726737e-02 2.146785936420642082e-02 7.369541825724802708e-02 3.092687578036569518e-02 -3.518973628628828398e-02 3.567552926307753641e-02 7.513279446795100014e-02
2.521673758715653555e-03 9.758513458952461014e-03 5.448660461779097908e-02 -5.135896176301834454e-02 2.813563223778733219e-02 -5.047997568525853379e-02 2.178862758979340647e-02 5.959093656558578367e-02 -3.964308098147332343e-02 -4.630733362560085498e-02 5.778278540220320447e-02 6.424484917163551800e-02 1.146033418252178152e-02 4.041285985321967783e-02 -6.847328257673844509e-02 -2.404454286129194263e-02 7.087778310952802009e-03 -8.084964427687721389e-02 5.691371520886184809e-02 -1.864214077560066504e-02 3.954882329461959639e-02 6.480211849372660704e-02 4.295443280390631724e-02 5.124108410078148657e-02 -6.704035607718253006e-03 6.970079731267224410e-02 3.534428410743585547e-02 8.061031576469684240e-03 -4.241930274895465425e-02 5.541351878670317845e-03 -3.991230109957423500e-02 4.573176138312964184e-02 -3.888915266267017196e-02 -4.575343268661494212e-02 -5.097118281391393307e-02 4.314766226273625965e-02 -2.202233305309789224e-02 -4.444060462686766355e-02 -8.624102741820531895e-03 1.020180146312772013e-02 -4.315920800845378380e-02 -9.168275274654571691e-03 4.761086188304480826e-02 3.010515365004993310e-02 -1.947065968629626415e-02 6.311614989167091405e-02 -5.608394739765547310e-02 -6.965189924106984787e-02 -3.374236139024173325e-02 5.528608169433040474e-03 1.831376320488328421e-02 4.673829612107013171e-02 5.691813502423302695e-02 -1.691550551562587962e-02 1.639379393701634671e-02 3.277496945143769380e-02 -3.894913634453870538e-02 -1.068526591436323725e-02 3.525908054317451051e-02 -6.780591546637568245e-02 -7.480825703381062397e-02 -7.418278500377972762e-02 5.473792292752685529e-02 6.703232894603358694e-02 2.053987470592763195e-02 2.979339040640766392e-02 4.753958785287240585e-02 -1.675997230373646452e-02 -5.793317102949746555e-02 -4.977955879831327118e-02 -1.016813777929455494e-02 1.693785832317704076e-02 -1.947131727306582530e-02 -4.416152369017549428e-02 6.926396884004570875e-02 2.006669340247928604e-02 3.623543642480275828e-02 3.051169496601052744e-02 5.585409703576828255e-02 1.702969660419904191e-02 -5.835588046611838581e-02 -1.329707160759533054e-02 -1.125560605150386501e-02 -2.204539502304699028e-02 -5.732130733408145190e-02 1.124812916409734936e-02 6.663224152623087315e-02 2.764443715676737426e-02 -6.069171133270338803e-02 2.121106367701406509e-02 -4.648089506075736566e-02 -1.126661926625180388e-02 -5.654806077788290114e-02 5.745671331394016333e-03 1.292977472555137917e-02 -3.302709463561830788e-02 -8.015213767537280459e-03 -3.909052409123935784e-02 -2.675176011705064291e-02 -3.091429324340033702e-02 1.640033714333546250e-02 4.437489187841887894e-02 3.047223235325589256e-03 -2.036542708254352949e-02 6.069987109330506753e-02 -4.281968056355166252e-02 5.138239094051745949e-04 5.988263588169375623e-02 -5.549799366740572337e-02 -6.589307108341707631e-02 -7.860861670587386205e-03 3.603006378546526334e-02 -3.387270572690957715e-02 -1.747318671476040877e-02 3.596690261102925695e-02 -5.109246860427135023e-02 -3.026303533391103140e-02 4.038307111095304491e-02 -4.712196903765345640e-02 -5.821598221436376924e-02 3.066189160412029560e-02 -6.587834346593049450e-02 -7.347068051697163912e-03 3.421637976114245971e-02 3.945312921362207487e-02 -1.613767043849885161e-02 3.255083682194858524e-02 -6.129900774051689344e-02 6.555147931305403686e-02 -5.613163881879770778e-02 -3.331512396711640983e-02 -5.143329230677198133e-02 2.101557226757730379e-02 -3.843597924630925283e-02 -3.953837828364539092e-02 -3.035271700050670013e-02 1.602934432635955489e-02 -6.548326936511984775e-02 5.922476384070152720e-03 4.299251889365906035e-03 4.088316153479012310e-02 -1.562241740922695916e-02 2.791143023809515220e-02 -2.617540666078246609e-03 2.897828523289000535e-02 4.066503306927395089e-02 -1.365434931219748280e-02 -3.789596434343574238e-02 -6.835341014344063770e-02 5.639288197586471429e-02 5.058661677639560844e-02 6.035911177910301822e-02 -3.928221015201020794e-02 -2.056971982226393314e-04 4.738814771615070670e-02 3.523316614930382951e-02 -3.207438019427734377e-02 -3.881466536176868265e-02 -6.982381480107847926e-02 3.938930515053880310e-02 -2.590231101239313504e-03 -2.875851893082041755e-02 -5.514759532303654954e-02 -2.342104941403415352e-02 3.011486279888127976e-02 -4.843409852160190238e-02 -5.148876939726453744e-02 4.088779908441962131e-03 -5.925564602888602761e-02 3.903069208631185227e-02 -1.345426567603780037e-02 -7.399780591308334488e-02 1.377476064757997623e-02 -1.730316087034025965e-02 6.043551759493667741e-02 -6.319983690730193032e-03 7.274681566564741853e-02 -1.729691813829786415e-02 -6.249420647797154782e-02 -7.161616574750852282e-02 3.791956941999274910e-02 -6.299000922569843175e-02 4.776980343192239326e-02 -4.574204857204410002e-02 -3.705099928373017243e-02 1.062776199266178556e-02 -7.025274247340368428e-02 -1.369517315908201117e-02 -7.460927592831413657e-02 1.556703440262780219e-03 -4.067089956126376804e-02 -1.761363187832657232e-02 4.482488319806166716e-02 3.049895840431461266e-02 -4.167760662795298721e-02 3.511803154476532407e-02 -2.426592366377283358e-02 -5.562952151635965764e-02 -6.445849777552896398e-02 4.540932988874606113e-02 -6.955681396068359723e-02 -7.901567200625396470e-02 -2.856452544531012504e-03 -6.902877986230557261e-02 -4.043097483839759587e-02 2.974540150922734549e-02 -6.187741668072650053e-02 3.544657379803646535e-02 -4.569290092557508343e-02 1.153747345983995032e-03 -7.318510112448424476e-02 5.868154577127792509e-02 8.184094573134724493e-02 -3.657874899067793673e-02 4.901282836217243921e-02 -5.481715540686494387e-02 3.740377810732280900e-02 8.274270387667324866e-02 1.051984830073751003e-03 2.564858892057642059e-02 7.269466091749393621e-02 1.883310153708146750e-02 8.425360917696189667e-02 -4.602891278977811612e-02 6.614335907650163715e-02 -1.644447461780617833e-02 2.055216373758052620e-02 -2.558242655378002370e-02 2.748965506575689190e-04 8.032097058739033624e-02 -2.464616842241132422e-02 5.384565844567172632e-02 -4.829875483390433551e-03 -3.273451619362829218e-02 2.393958099536520195e-02 4.087065910224227383e-02 -5.356813416398248547e-03 3.311893811110348806e-02 4.457539216203725702e-02 -9.123149143681714979e-02 3.764389017057303416e-02 -4.102059670349756521e-02 2.900088545236910453e-02 -5.170470101897999687e-02 -5.249809307707575812e-03 7.189822153951397343e-02 5.063640166141773064e-02 3.909178352081128793e-02 3.492406844773159741e-02 -6.077334559359883620e-02 5.698268490384920948e-02 -5.370650834904918541e-02 5.962863307989518108e-02 2.142374341384416930e-02 4.144063819057702130e-02 -5.332339849059489906e-02 7.015728153163088010e-02 -5.628288977087687883e-02 -8.359869932146841293e-03 -4.641961791513768421e-02 2.210984657784063542e-02 -4.345751587398673926e-02 4.917414402239288218e-02 -7.038853156922211807e-02 -6.496707052531770776e-02 -5.073196876449177772e-02 -2.153010034692423753e-03 -2.621420072019235367e-02 2.992627958894727991e-02 -4.081857184073647143e-02 -2.557440707792372342e-02 3.019167115631592874e-02 3.627848362791813441e-02 4.288403685820470213e-02 -1.106871570382612045e-02 -4.458402814108031187e-02 4.956234726372418797e-02 -5.403407768480593225e-03 -2.393394978353361943e-02 -4.757722523912370771e-02 -1.205603271819086523e-03 -1.536403256349117875e-02 2.066310569167908659e-02 4.463311316948431057e-02 -1.459556178494810473e-02 1.060276407182820027e-02 2.247728042182520550e-02 -6.925771857723001836e-03 -3.904416802315292118e-02 4.043923305510929711e-02 2.024396569844394075e-02 4.654193453488657956e-02 3.134372889313979255e-02 8.368796644751738678e-02 -3.452990964781625649e-02 4.819433516457408834e-02 5.223962175060679197e-02 -2.162899871168915203e-02 -3.342667863097847913e-02 -8.035488411907737438e-02 6.524554034988261364e-02 6.596537684588034888e-04 -2.491097046945774801e-02 -5.202886034006592997e-02 -3.676736545235891052e-02 2.203070557135330954e-02 1.859420523329883071e-02 -4.218069313763048167e-02 -6.167483382289080940e-02 -8.774111023283873156e-02 1.949798609216039230e-02 -2.162610065206752030e-02 5.060076654666635643e-02 1.352958866877958244e-02 -3.533199465598334948e-02 -2.206861391533334812e-02 -4.794275248953137197e-02 1.901955128440488418e-02 -5.418758690724298499e-02 3.282242287921505880e-02 5.275108616954850629e-03 -1.867179240293389761e-02 8.038340150463146871e-02 4.355552046094529617e-02 -6.243683792748240535e-02 1.757532106844945236e-02 -4.576325374619152897e-02 -4.994709830846172198e-03 5.952842761350352063e-02 -1.048896311082243502e-02 5.224934812298132752e-02 -5.879874907354688818e-02 -7.713737827079818199e-02 1.025441759528124622e-02 -2.598893316369482384e-02 -2.635913125934406104e-02 5.065172849209684941e-02 -5.813445217813831972e-02 -1.088450511603730395e-02 -4.443222051711909204e-02 4.000133624415610697e-03 -1.995838723133694370e-02 1.397541730212817010e-02 -6.328139087048080536e-02 5.528467370178142062e-03 2.366897605265845875e-02 -1.224672417333789488e-02 1.889105123992383325e-02 -4.591338435398235884e-02 2.678205751545694596e-02 3.455170883368483686e-02 -5.363083565753727112e-03 -2.286800182697124040e-02 -2.903674682047487424e-02 4.932002810987437535e-02 -2.401668835950919109e-02 -7.266216861258893711e-02 -7.329210962290010067e-02 3.171919375864745011e-02 3.154893543171878589e-02 4.626968424187430373e-02 -4.369303096333175540e-02 1.261624245550918566e-02 5.429189062532358695e-02 1.035155922517425053e-02 -3.813724690899245734e-02 -2.855133598260477593e-02 7.261776190316319990e-02 6.642354795323866801e-02 -4.636258932049341919e-02 3.738281505392893750e-02 1.194834258917042147e-02 5.045813522124294181e-02 1.994055097588923881e-02 -4.243572947435972353e-02 2.069311335391489301e-02 -1.999815764238552229e-02 -4.179171948536850034e-02 3.239231430322573463e-02 -5.273252982880336642e-02 5.875859870583714784e-02 8.094732598548542643e-03 -7.031793427587671808e-04 -1.780256569109427145e-02 7.233588559525321038e-02 5.804984829488158728e-03 -6.808612699165067506e-02 -7.572693561444984733e-02 1.632434995845070957e-02 2.168661011569980243e-02 -5.228073992195594877e-02 7.562301012119002075e-02 4.833845859817417767e-02 3.002807984813007230e-02 -6.652622474920250051e-02 -3.079002946178345176e-02 -5.888297083127144727e-02 -5.625050068717529772e-02 -2.205029557920696465e-02 1.247328512041231616e-02 8.955140612471570311e-03 2.819450281338098385e-02 2.401423808034446744e-02 -4.355159485053790996e-02 5.994615365529864376e-02 1.890995566220261132e-02 -2.715584691699436323e-02 4.580629387200099711e-02 3.248238433192023045e-02 -3.536426100230471992e-02 2.185174559016622720e-02 -4.985701186152324826e-02 -5.415829986037828947e-02 -4.239533541573996950e-02 6.493135694157731175e-02 -1.687693591286791930e-02 4.235555437936662504e-02 3.635410993309323019e-02 -3.255303029338903892e-02 6.042996955629504480e-02 1.935122672143971961e-02 -5.788240117715378469e-02 6.119204441450874082e-02 1.599389250489877210e-03 6.669199798425926029e-02 -5.189200326201166835e-02 6.275361781379441839e-02 6.584309667603097105e-02 2.398476368305987177e-02 1.673778917077033482e-02 5.667904870114377769e-03 -5.606762518213298518e-02 -9.228405076535524387e-02 6.148137423864505346e-02 -2.706108000978913949e-02 7.962305300872647706e-02 2.341437754756894168e-03 1.862677364576144703e-02 5.566145238161143011e-02 5.855102010682341346e-02 -6.483680674169452207e-02 6.081742210409177979e-02 4.334235175288674718e-02 5.638413911476825718e-02 4.473772136317193809e-02 -2.842612321868202840e-02 -5.990913344634505450e-02 9.581122645229899967e-03 5.594368334465953801e-02 4.448509801329875168e-02 6.994910541195308029e-02 4.859862565342155938e-02 -4.516648532608277117e-02 1.703553853605631677e-02 2.097254845583656005e-02 2.664320247818981191e-02 1.808824940513578672e-02 -6.609981006358596478e-02 -4.109175466562046963e-02 2.472527578692218161e-02 6.818088958208567973e-02 4.614686030482071516e-02 3.015917731912661631e-02 3.611013013590202991e-02 5.118692664688501148e-02 -7.049677862625394753e-02 -6.854681660753575434e-02 -3.834296397420922792e-02 -5.501889744377785191e-02 3.396277613706951554e-02 -6.206506131624886513e-02 6.208457045942844706e-03 6.406069292464791620e-02 5.460534585822152120e-02 -5.410845815519598617e-02 -6.352048866434652219e-02 5.436357995432550966e-02 6.303982082590139924e-02 -4.961036557977897832e-02 6.247393420603722380e-02 -5.003482158635445126e-02 -4.487015069866678862e-02 -5.858245719767533194e-02 7.938488326380813143e-02 6.421530655196588944e-02 -7.138040931202117162e-03 2.092696218715280488e-03 6.844050301720076834e-02 -3.380494337560985968e-02 -4.421380014863907776e-02 3.673602042612359592e-02 -1.308493063051776109e-02 4.005447083917038076e-02 -3.657117830009399412e-02 2.080030065454978316e-02 3.289234756502312784e-02 2.769830034370349831e-02 2.333527199264375657e-02 -5.145960367366029381e-02 4.592318077940020504e-02 3.501570913238974403e-02 5.265019788880299922e-02 -7.844176488744745643e-03 -2.477645376017188761e-02 -4.672628112090602970e-02 6.414519209794417032e-02 -5.171580120840567341e-02 -2.608088219380248415e-02 1.134896711959708718e-02 -1.186723721941535144e-02 5.611356143735439506e-02 8.057256865431360049e-02 -4.791824173590372021e-02 -4.828982260069000082e-02 1.012682637893854744e-02 -8.213344660101293271e-02 6.786065978333808910e-04 5.254977202307304501e-02 3.400238357130109385e-02 -4.026149779439351650e-02 3.263145975498454171e-02 -6.822739013280838425e-04 -1.993924114706300404e-02 -3.475673139432704922e-02 4.491527258714586579e-02 4.149355019112573040e-02 1.112104786650342479e-02 -4.944686610560643930e-02 3.374121418799193306e-02 2.162161683941625154e-02 4.745220176196722484e-02 -3.517238756199960598e-02 4.060437886414265674e-02 4.271017438004220262e-02 -6.221665301822356525e-02 -6.231036620861676867e-02 1.207769270806493579e-02 1.737049350069941669e-02 3.696398331350577576e-02 -5.996500607801742710e-02 5.087998651854094140e-02 -2.203920916103865174e-02 3.978501936845252329e-02 -4.671142703741913010e-02 4.678054527736868334e-02 -2.899291572360634256e-02 -5.409078878112923150e-02 3.357512097846984678e-02 4.938195863168548527e-02 -4.173468272469471607e-02 1.479767252314455328e-02 -2.494160482590597819e-02 -7.730979401393633932e-02 9.448723776702587030e-04 5.987331502796009591e-02 2.782314111719397243e-02 -5.118804178837576407e-02 -1.113883707544992101e-02 -2.514270067726152164e-02 -5.732004943291781757e-02 -5.933361395367884455e-02 -6.162317340170305607e-03 -5.505876506601154602e-02 -3.341312122673150559e-02 -7.233166368096516363e-02 -4.514207172726456690e-02 -4.797285653781797887e-02 5.974817738518732602e-02 1.272018182712661774e-02 1.846288257236635214e-02 -4.439456420142590121e-02 -5.087579394407814454e-02 -2.188631184003302088e-02 -4.823675988390111607e-02 -5.533765723620859972e-02 1.743889916568173992e-02 -5.221436691461397300e-02 -1.104003765473512283e-02 -3.310869316409441321e-02 -3.373239904519270693e-02 8.096083355139216398e-02 9.142464899091035449e-03 -2.343102849951987816e-03 5.523710513270954636e-02 -5.455669498935901505e-04 -3.034710687607080834e-02 -1.577928779584041388e-02 4.936899360278580728e-02 -4.518049182126016028e-02 5.657425841443330244e-02 -5.965495696181086216e-02 4.464581848554594057e-02 -2.853443538663443663e-02 -4.353322778878916666e-02 8.637667164219448718e-03 3.719342775770189888e-03 -5.873090195539061587e-03 -7.929074372837756346e-02 -3.039412006539516167e-02 5.579349397216808171e-02 -7.749999836512705279e-04 6.087581448459169348e-02 -1.810894010595823569e-02 6.079067281652843213e-02 5.110280611926114325e-02 1.924094227176850400e-02 -3.597958295254000127e-02 -2.802112715444524810e-02 -1.777032153773962578e-02 -8.210889349704354745e-02 3.414463351538599145e-02 -5.794961332042310870e-02 -5.788586795056086150e-03 -3.913393064337881977e-02 -4.491892860000070570e-02 -5.638052633256617624e-02 -2.387094976819407674e-02 1.458517487159666746e-02 -1.232482518597347379e-02 -7.524705814154752925e-02 4.760824619060507329e-02 -4.482365257838670514e-02 -4.442451757950655750e-02 7.132527980777625398e-02 3.530280871298047130e-02 -1.983928904642218508e-02 7.819478550120936844e-02 -3.027999072770917732e-02 -6.544297021447689766e-02 1.367711673948624959e-03 -4.549528843180282445e-02 5.232933287880927459e-02 6.992666833061664255e-02 -1.610835161516535607e-02 -8.264686400769881425e-02 -2.392271306738807252e-02 2.474731720224702600e-02 -5.972397299804015069e-02 3.885106036370102045e-02 4.972230637096498873e-02 2.940865990426655072e-02 3.381820755914288074e-02 -7.027177437926464265e-02 -5.699679783887195983e-02 -3.309945155258905980e-02 9.964803929980764648e-04 -4.586179130064293313e-02 4.083230915609636913e-02 -2.869705750860105861e-02 2.743857632376651631e-03 4.401002443739183089e-04 3.551070920834641792e-02 7.241612273220696117e-02 -3.128907880439806000e-02 -2.054225130132755501e-03 5.605673824623807859e-03 5.700472820233885851e-02 -2.866435654721163559e-02 8.045811492981672780e-03 5.357956874185083179e-02 3.121927539840783222e-02 -5.994071008203601114e-03 -5.429419286196488599e-04 3.228917368881849270e-02 1.055366412489129255e-02 3.595354384021298699e-02 4.950287118081557469e-02 -4.053870011560559150e-02 -5.941571234486488218e-02 6.190189768770421042e-02 3.179353232064888873e-02 -5.117650550798283349e-02 4.966504854482273190e-02 -4.160615838914712324e-03 6.025344625678778765e-02 3.107314060325152075e-02 -3.952713978648590004e-02 6.783286185933462553e-02 4.795276698747599764e-02 -2.480873343449231661e-02 1.096024207945204589e-02 -1.005494741433140063e-02 4.011216882111975912e-02 3.370991176450797294e-02 -1.893078607309256478e-02 7.340167470200827105e-02 1.395839999170369466e-02 1.530069974970227386e-03 -1.250333012331717591e-02 -1.107170788803130829e-02 -4.364220314970381626e-02 1.759294388138989487e-02 -3.143358762089546593e-02 -2.829192685898901730e-02 -3.033924625949543583e-02 6.576319444811243309e-02 -6.052253916896856156e-02 -1.880790149758840638e-02 1.252743043973807494e-02 3.299842477933823820e-02 7.000839473324933782e-02 -3.134536044891977902e-02 1.909859997874894730e-02 -2.961753038417777248e-02 2.735739319359305546e-02 -7.272819960943414930e-02 6.199699105020982370e-02 4.074575491429496127e-02 -5.726491890122600154e-02 6.531492440341926664e-02 3.430473116264149552e-02 3.404302127218262336e-02 -2.431142674530860012e-02 -2.601709237897443031e-02 8.134146798214858531e-02 2.613345213204061948e-02 2.951677292110356510e-02 -2.120874583074284711e-02 5.686970482697676493e-03 -4.533560312857344565e-02 -8.467116912349295296e-03 -4.085495665028833490e-02 -2.920424050279004508e-02 4.831775349736355113e-02 2.151205504494042506e-02 -4.407064188810437544e-02 2.493904045240152509e-02 1.015700845304156469e-02 -3.430049246429487612e-03 -4.309830979830910763e-02 -4.481185663736389491e-02 5.557163939687274901e-02 7.881404451114008836e-03 3.186806221938895400e-02 -5.506919063999791975e-02 6.692540161105507701e-02 5.115723207718592125e-02 5.565981464794466814e-04 -2.513787220158633304e-02 6.407339662506282563e-02 1.154561391990714669e-02 -7.045721985441882190e-03 -1.110354397785344796e-02 2.634528478899934509e-02 4.298925375759327094e-02 -6.079879819388366718e-02 -7.764825759144106110e-02 2.667210447307752710e-02 -2.167005700762101791e-02 1.199152468804894588e-02 3.872673851702523179e-02 3.441421804354188874e-02 -6.196916219622485011e-02 3.232471675288996205e-02 -5.114474185751630847e-02 -5.466916886271338399e-02 1.647560230385463828e-02 2.316412596021672279e-02 6.486105670257278320e-03 2.729731541658290614e-02 2.176198300923891729e-02 2.855168830592498368e-03 6.185071039190095238e-02 6.847422507209608225e-03 2.741051214555610682e-02 5.469935441243456431e-02 -1.803620846670754563e-02 5.871365426788451025e-02 -5.578333057563382436e-02 3.844626404913681350e-02 2.434842432599357287e-02 -5.668657544832251399e-02 6.478154668398396210e-02 -3.593045328991961718e-02 2.523986848130386693e-02 -5.443982196035611343e-02 6.633006263821640547e-02 -1.688936204745931577e-02 5.690986473462005674e-02 -2.153050745033929445e-02 -8.291859899211834065e-04 -5.866264707938967371e-02 4.075766146206176443e-02 -2.943406399021871941e-02 6.266080029713193321e-04 -2.772185237735958277e-02 6.361751389360464914e-02 -5.992289465505282187e-02 2.438332196998618459e-02 8.395741835419233759e-03 6.032018437047000775e-02 3.086493370699084499e-02 -3.441651819959568037e-02 -4.872111183785568511e-02 3.823688617986393395e-02 2.498016172639178425e-02 6.775275472040216684e-02 3.923972932995205970e-02 6.205999455687146588e-02 4.875263014864342215e-02 1.370778993636469906e-02 -1.478607965394082872e-03 3.492666868607036124e-02 -1.227880723679474276e-02 -2.667248009729426481e-02 -4.226114522454032379e-02 -4.088103203052221440e-02 -2.420781934355505441e-02 4.596671483976139116e-02 3.887303195120325044e-02 -1.323879353670389183e-02 -4.281494274107892212e-02 -1.734599345584959124e-02 -3.267093907651068968e-02 -3.968752433462827134e-02 -1.322217739471458903e-02 -2.186967709440709728e-02 1.631751634648435229e-02 -7.726776618006620141e-03 -4.218739335087848957e-02 -4.681028642060743733e-02 2.736539774297681860e-02 -4.793821377126765426e-02 4.561918560016445939e-02 5.612910557016978497e-02 -1.599642029331153556e-02 9.417401148482146440e-04 5.908042824811021720e-02 -6.124967447627747974e-02 -9.951833200749639341e-03 8.526082872117554320e-03 4.457825048070773732e-02 6.767097466885896306e-02 7.509360870827691721e-03 -5.075058401077278680e-02 4.495779196126785046e-03 4.378492226730656273e-02 5.090871327564064353e-02 -2.758546649717840901e-02 -7.938381507594094444e-02 4.500126701652841510e-02 -3.849943700141532366e-02 6.799800880558887206e-02 5.893701942509954605e-02 2.808716110907325328e-02 2.694489318916220080e-02 2.111902451794358399e-02 1.351410759993113171e-02 3.204877813575213175e-02 -4.352042281683224378e-02 2.823018158590417589e-02 -5.292241989718873135e-02 -1.261864574277222865e-02 2.390682353949032807e-02 -6.670470845139069016e-02 4.624636010284548931e-02 4.726883755360646727e-02 -5.298685326339717949e-02 -2.072458659867892905e-02 -7.552156089520427329e-02 -6.787697533801022309e-02 3.235476231146645898e-02 -5.959828452120576048e-02 1.666944221303685858e-02 5.492403768162167077e-02 1.879280145047014516e-02 6.324525369731265334e-02 -2.342542580515221372e-03 4.133182492246084694e-02 3.831192435406333141e-02 6.548974538234388076e-02 5.824320116174094841e-02 -4.238751967597060438e-02 -2.347832252623672372e-02 -9.308536400043034356e-03 -3.534383972799596402e-02 -1.190619708403941983e-02 -6.659139382145466690e-02 4.988479357362123751e-02 9.514767930197775073e-03 4.968821840513757554e-02 -3.295104092991293226e-02 2.600882894571412626e-02 4.900285690084486140e-02 4.602166012242185633e-02 7.369480664517692736e-02 2.473626464579341266e-02 4.820743843562257103e-02 -4.171460753470996458e-02 5.805346840566673328e-02 -2.657859821901282366e-02 -5.772914349745791873e-02 5.817688139588336055e-02 6.474887264798237507e-02 8.558585141251339248e-03 -5.167596020907874038e-02 -6.541740335922927030e-02 4.116732763154789393e-02 7.667222526451183441e-03 6.128137658817461864e-02 2.152730025910496933e-02 -3.384280908194697152e-02 