20
5.735212415935081465e-02 -5.585029667325666636e-02 6.771861498994263817e-02 4.219261850175304307e-02 -5.735393035781206905e-02 4.319088577421362207e-02 -7.012938909754198868e-02 4.714782303504689437e-02 -4.181216351486027188e-02 -1.470357533094314266e-02 -1.627583764191574758e-02 1.303910260652609183e-02 2.555572123662815109e-02 -5.677445520447204491e-02 2.595670013272405536e-04 -9.699532014844908234e-02 5.899477669653796497e-02 -7.588090470266556364e-02 -8.098348438998013293e-03 4.625311841721887335e-02 -2.536557611584826233e-02 -2.872033496229980682e-03 -5.727645986705588721e-02 5.852526875747726676e-02 -3.732185401959930982e-02 -3.298674198189430889e-02 4.414160988193067958e-02 -6.708637871842070693e-03 -1.299634030205433673e-02 6.769443185029613841e-02 -4.389670503367245485e-02 -5.978029195470273977e-02 -8.436040385287849053e-03 -1.815125655742086050e-02 -4.229291603629432850e-02 -6.194064280244261644e-02 3.224032316908966890e-03 -7.904522116564829948e-02 -5.353907161061691178e-02 -6.318253455587480305e-02 4.376946375473141776e-02 5.380703714375583563e-02 4.625982551372790491e-02 8.825654436991677704e-03 6.517087081824220196e-02 -9.181527492470217475e-03 -1.472788318057994704e-03 3.067260696453638722e-03 -2.816400909811058242e-02 -8.083873521974804799e-02 -1.032115976540838934e-02 -1.951177052967760853e-02 3.273793364026719721e-02 -7.136888893592331640e-02 8.288292148754332692e-03 -6.133025710886013532e-02 3.457733306510735877e-02 1.716996296227574909e-02 -5.072408389310619631e-02 -1.307163778749952966e-02 4.600665082396161037e-02 9.203129672280714602e-03 -8.122987773669647360e-02 -1.326569372845507432e-02 -4.552853516608806189e-02 -5.058304402933838650e-02 -4.284379511871595075e-02 -5.214847366887108426e-02 1.543604468399239343e-02 -3.211036812882143293e-02 5.057228718402278361e-02 2.035407848591908042e-02 2.453970284690393591e-02 1.154110970802653402e-02 2.804622736220961643e-02 -4.736589761324794950e-02 -3.845471404875461870e-04 4.596261786321598208e-02 -5.582900396518629405e-02 -2.426743564400081141e-02 -6.000497029678794614e-02 3.177935235784375839e-02 2.625222274891434240e-02 -5.043120441111111074e-02 -3.311671156852436654e-02 2.170301652848156959e-02 -5.135566481713910170e-02 3.527383897184954709e-02 -3.281689562272360750e-02 -1.340306090475976630e-03 -7.209136615162087258e-02 -8.591135674146325313e-03 -4.331384686365193082e-02 -4.887381003220162695e-02 5.136307325988521272e-02 -5.346631996272724341e-02 -2.098306854606234173e-02 -1.265557170368549963e-02 -3.352236704047789877e-03 -4.939111985368463409e-02 7.546719991436722126e-03 2.581405811290173394e-02 1.887872673077690662e-04 1.347729736527185362e-03 -9.928372310046637214e-03 3.909117705632888379e-02 -1.354004592567877203e-02 5.474167806548734319e-04 -2.431422119734329840e-02 -6.273426851910994528e-02 -4.895124823389256780e-02 -7.755594165305663978e-02 8.447518133140305419e-02 -4.846357646624561283e-02 4.503234438864821276e-02 -9.324397024201307518e-03 1.158827806802305467e-02 -2.743817838099258180e-02 6.002355858871948058e-02 -5.968553533148093782e-02 5.168587107591055517e-03 1.822090754886170755e-02 2.293645480031765178e-03 -3.627877214866931377e-02 6.156905579262000189e-03 4.474341904337471310e-02 -4.573322665046157358e-03 3.331868483452950225e-02 7.352828977212302018e-03 5.906371269447444755e-02 2.630886710362285649e-02 3.437932408853590360e-02 -1.485774174104899543e-02 -1.319205911394279174e-02 -7.141862975974098970e-02 9.982865247175095984e-04 -4.617465304528103193e-02 4.534987280113408209e-02 -6.395949221094847370e-02 6.029069191774037023e-02 3.587235010951967448e-03 6.958584725381881941e-02 -3.692472222162833384e-02 5.411089305268319133e-02 6.874419396733994284e-03 3.991813389244816546e-02 2.350387846034423731e-02 1.273734275364522481e-02 -3.352317226027154429e-02 1.418559034650426764e-02 4.467313117168630887e-02 -6.458059825904167994e-02 -7.583180817594568912e-02 -3.180208652665919566e-02 -8.279746838258626729e-03 3.603203679232761664e-02 -1.781897683265632956e-02 3.523781336096571543e-02 5.970267654554976822e-02 3.683062532250340471e-02 4.932529953873251299e-02 -1.526679829947401486e-02 -4.875183682191087248e-02 -1.923596664331193862e-02 3.752111779281609716e-02 -3.860148439209692278e-02 4.496521498902620456e-02 -4.475940814359437997e-02 -1.109839217494065604e-02 -9.750872608863781280e-03 -3.048641398027933380e-02 -1.699477058932969548e-02 7.166045580066210396e-02 -3.923398963492442937e-02 -3.542713134132761260e-02 -2.499249010841376236e-03 9.295622781266976373e-03 -1.302561266071894375e-02 1.225520674119767207e-02 -3.528427462928895864e-02 4.562292899497373414e-04 -2.160762616758317694e-03 2.783887194173298094e-02 1.847690192806186738e-02 1.681421627525418738e-02 1.791356043998132419e-02 -9.174148762373081356e-03 -2.205829794915960609e-02 -2.390169075384264430e-02 -2.931982223253422684e-02 8.008427034301072002e-04 -1.026199366651801316e-02 1.794947557732807369e-02 -4.752868324225638375e-02 5.337247787790764392e-02 -2.836930751605326248e-02 -3.279246759960836172e-02 -6.548264645721971373e-03 6.618685033078745839e-02 4.478626573862178745e-02 -3.072497781689823536e-03 7.301967774969958525e-02 2.751085221737482531e-02 -5.762255088510770742e-03 6.453317670148840668e-02 -4.488674956495899288e-02 3.084027950137319465e-02 7.494589757826228271e-02 -2.023907930470789530e-03 -2.884562523781695684e-02 2.975518117770483209e-02 1.452846411201604883e-02 5.241583217504677816e-02 1.857537100516950396e-02 5.144924658782315530e-02 -4.738849258197457698e-02 3.979240688136186782e-02 6.451063958639766116e-02 -6.694209343863992412e-02 -6.834895693104618697e-02 -6.817637759444544754e-02 7.807448339525384362e-02 3.762219005768680912e-03 -4.431551603069305151e-02 1.789619616132842247e-02 -7.173980589070219627e-02 -2.308616267990000817e-02 7.477799674612381486e-02 -1.269051857261844704e-02 7.529637057485136231e-02 -5.692118012152430628e-02 -3.795819835589394481e-02 -4.531383580467503863e-02 -9.354806861198263976e-03 5.914220335483882408e-03 6.821907372741219111e-02 8.084596094125182791e-03 -2.988312821061898245e-02 1.295005484777339046e-02 -2.936325219100435757e-02 -4.731743429473220935e-02 -5.380334434393196918e-02 -3.602526365989094925e-02 -1.296964464444826798e-02 -2.703522355805819052e-02 -5.596930687872982840e-02 4.674549374370442351e-02 -4.091934583596498060e-02 7.232323143653539288e-02 -5.114984066548555752e-02 3.367406249785525468e-02 4.008363750589186147e-02 7.369449828810871461e-02 3.774067060276253827e-02 2.863057480781375577e-02 6.438290465183550693e-02 9.085507370560809079e-03 2.930179140204339228e-02 6.633591380996023412e-02 6.562492393236882271e-02 8.164157948631541387e-03 -2.770628040737466505e-02 5.508147712466705814e-02 2.289867257805488707e-02 -8.056755009568276893e-02 -4.730305892260455031e-02 3.834099050439409694e-03 -2.048370338692511589e-02 -2.004329722092158123e-02 -1.467035730633003271e-02 3.187125381873596314e-02 -3.544120326894048545e-02 1.386133211921234017e-02 2.307561859492968624e-03 3.779123105204224009e-02 4.486839077256404157e-02 -7.240865880718083680e-02 2.083822926203649298e-03 3.470285797839471175e-03 -5.721989527404825610e-02 2.920660081612889980e-02 -6.610618181341673671e-02 1.045150259535266787e-02 2.417431579730632690e-02 -1.546139079606074183e-02 -5.550409376333611394e-02 -7.539191210916379449e-02 -4.420959330038917723e-02 -1.561978650339751126e-03 7.646339249707136132e-02 -4.162603970459483049e-02 -4.299503469028811975e-02 2.720392366626884703e-02 1.050048405496502822e-02 -4.857983243739415896e-02 1.374396679758615319e-02 -1.988104894039716478e-02 -5.899238444008080007e-02 -1.116425157370026094e-02 9.275390767317159141e-03 -2.454383687381594872e-03 4.359787193420614003e-04 -5.207984404526024708e-02 1.493198837345231615e-02 2.238193484996182925e-02 3.445966254312063382e-02 6.158120525361318598e-02 -3.955090304396450401e-03 -2.467502153902480233e-02 2.880523599309354338e-02 -1.789942796564615926e-02 1.015321559050780600e-02 1.840142520161094225e-02 5.226535993830262739e-02 -5.191734184631123517e-02 8.272041781139442135e-03 -7.742305466410857873e-02 2.874929313486839638e-02 -7.801793159187613014e-02 4.477949207363895318e-02 5.546845444271508718e-02 -5.499634232648491911e-02 2.900794866519877321e-02 -6.453600397864980853e-02 -2.912859207535115763e-02 -3.745088368708333199e-02 9.489878665234116259e-03 -1.651913547822436018e-02 -4.985721131251502625e-02 -5.366802793680081063e-02 -3.981546388277704129e-03 -3.438174910278127272e-02 -5.719138224512303886e-02 -5.891971381666818303e-02 5.804312552049449569e-02 9.279825085412342356e-03 1.421356679675950599e-02 3.346125709105360335e-02 1.374460385277359760e-02 -3.662287970465025796e-03 5.751521741231798573e-02 1.296075519741705234e-02 3.401462244703757493e-02 -4.480013848676493715e-02 -2.944279594197898083e-03 5.497318420296411906e-02 -1.150537080073259395e-02 -4.622590450682297764e-02 -4.259569844843492936e-02 -7.175341163539768197e-02 -3.634443185092105233e-02 -1.003714769239107130e-02 4.013616708673356515e-02 6.152589623340924685e-02 9.235141893156732784e-02 -2.290131343218834020e-02 6.851755349044907906e-02 -5.277323007098675550e-02 4.478952084933316563e-02 1.638369155431134566e-02 1.677031510449078500e-02 5.691360869207794104e-02 6.411931152083245877e-02 -7.623831898800002838e-02 1.541708988222508132e-02 4.719343110241232264e-02 -2.226313484069461501e-02 1.146276175495514020e-02 4.816244947891017841e-02 4.703807402759308670e-02 4.923419961444502890e-02 2.236182040198896395e-02 -1.468965229581807412e-02 3.871357683002579070e-02 -4.513069501130826527e-02 4.743217931505051138e-02 -3.441264115418430497e-02 -5.227463895624170215e-02 -7.894852385252399589e-04 -4.209365169341856838e-02 -5.451974093994044201e-02 2.426041228525426321e-02 -2.849282971757693961e-02 -1.907278256307635284e-02 -2.240800956420394008e-02 6.113655813155620053e-03 -7.543868445340777724e-03 2.610392034876321890e-02 2.938340441857247021e-02 -6.489677628016850275e-02 -5.911414306615309089e-02 -5.988730996032250870e-02 3.721128062975239542e-02 -5.209165126966705528e-02 3.918167477287348016e-02 -1.648654018629376258e-02 1.428318950361495004e-02 3.719111784075353200e-02 -2.484365909744934431e-03 -3.896401483145078143e-02 -4.074646922041592206e-02 2.264858762321747890e-02 6.093694401624848156e-02 -2.290623598670684866e-02 -5.398461487973720691e-02 -3.456452365838446478e-02 5.135577504768736035e-02 -5.581010635972823847e-02 5.539702080110591592e-02 -5.706007105144104280e-03 7.447964187488707866e-02 -4.061288042770404977e-02 -5.453568840442327842e-02 -7.985852790752835662e-02 2.113759665745944955e-02 -7.432914499466505842e-02 -4.433447048791339801e-02 -3.566302185942991920e-02 -1.531660882759933173e-02 -4.478414701404215964e-02 3.783610238429242073e-02 -4.707137254540116195e-02 -5.801487518823833511e-02 -3.022826123336045875e-02 2.855639526087670483e-03 -7.193762394510622160e-02 7.335272254194252772e-02 6.892438903068737188e-02 -6.491351282072319040e-02 1.732799888072443159e-02 2.805099257983683508e-02 -6.756131491311041619e-03 1.179967712502476632e-02 -4.658393280449745627e-02 -5.506850329439887115e-02 -1.636071856788385431e-02 8.056957941326013672e-02 7.005536084129136698e-02 -3.890815617556145356e-02 1.992385787800192778e-02 4.350045793472218786e-02 -7.697457902226662041e-02 1.713324565318986858e-02 -2.905171460760518076e-02 9.040984779432915952e-02 -4.178602544776180427e-02 1.700970665453191075e-02 -4.513418464782611300e-02 4.008843227198440745e-02 2.850046188897371879e-02 4.115946512179845251e-02 -4.359217814887933473e-02 3.454590595874984515e-02 -6.555112424986048181e-02 1.926475382206542216e-03 4.887935962635182180e-02 4.523224264082668922e-02 4.569668194191132266e-02 6.050972551441907710e-02 -3.052230592266049619e-02 4.810206498429133587e-02 3.546647226463416069e-02 3.418844500423328520e-02 6.790560373378257131e-02 -1.392335340943451349e-02 4.211509803436433441e-02 -3.522060585015835549e-02 -5.836243129862313944e-02 2.202608688660061959e-02 -3.981856520181673714e-02 2.560980009322439549e-02 7.148841852729100055e-02 1.643127860456286213e-02 3.469239117019857349e-02 7.196051412393101622e-03 -5.340380043645311797e-02 7.990684422341337578e-02 -5.402649250741120568e-02 6.309975732138979609e-02 8.909631159928634025e-03 9.843029253230693026e-03 6.239585899335355068e-03 -1.149374550997997110e-02 6.582569583169670113e-02 -2.967912986472980713e-02 4.353174646899039401e-05 3.465972019047018626e-02 -4.301929608904347946e-02 3.720550316509341204e-02 4.233447992823351214e-02 -4.453968977048753525e-02 3.783567177792460795e-02 -5.292612731489786809e-02 4.841238675175043443e-02 -5.430454501927536870e-02 1.702768775313222641e-02 3.892276628323236565e-02 -2.951879033220813214e-02 -3.073975253037299418e-02 -8.792949095571753193e-03 -4.877314711714120926e-02 -1.162377636322797086e-02 -2.699267274922399415e-02 1.952547325510532381e-02 -1.895667190216326328e-04 1.314627371533469945e-02 1.601897113810600570e-02 -5.755017816498769756e-02 -4.199890177041788741e-02 6.785727915121192444e-02 6.742049398180481601e-02 4.021384428068322525e-02 2.350379568805801428e-02 5.522699115537074710e-02 -6.030178648493471349e-02 -2.622924280915674491e-02 4.689046933914142734e-02 -6.685396531326109892e-02 7.320302520961048665e-02 5.587003571873164903e-02 -6.315961808822753709e-02 -1.224609668406343062e-02 4.840233318205339891e-02 -1.650628983610631650e-02 -4.401840726692220901e-02 5.445095579153440973e-02 1.874000686119081660e-02 -6.138193966594506813e-03 -2.005087125155570124e-02 3.737517183842993529e-02 -3.338866554250785601e-02 1.814703058067930821e-02 2.271549099236910493e-02 6.322708991831930969e-02 -4.259114912303370304e-02 4.385490656334561227e-02 -8.116648998276880175e-03 5.825779010629946256e-03 8.064137816489475724e-03 9.470729086671817940e-03 -5.086589259572504157e-02 -2.589802945628714645e-02 -5.727567895794611480e-02 5.181938463828095892e-02 -3.264299681346713444e-02 6.178634717281911853e-02 -8.053201918861656317e-02 -5.951426943090671468e-02 -6.284680500017340854e-02 3.553502913803556484e-02 2.871231666766251717e-02 -3.616674090163328470e-02 -2.358017360304567184e-02 7.237813115171420897e-02 -1.787977862200265319e-02 1.309732815364640689e-03 2.860437142297664933e-03 -2.343334968941395910e-02 1.460064796334541561e-03 5.920383669305658188e-03 -3.728238053395679930e-02 1.179550180597631510e-02 1.372542604674099019e-02 -5.897639436851297851e-02 5.403695256040035033e-02 -7.244589638935285125e-02 7.894189578961240128e-02 3.459740641439380121e-02 -5.324141795920420139e-02 -2.132868151829243192e-02 -2.961703982257947801e-02 4.995374776907471857e-03 4.971811194919090182e-02 -6.155402153370614915e-02 2.479769726040761263e-02 2.423427762868668109e-02 4.264651672787202197e-02 -3.072380655592948581e-02 -3.103169113566626308e-02 -3.859201576292916464e-02 -7.384861611049424977e-03 -6.671109640366305882e-02 5.677428670040043229e-02 4.147520414565638441e-02 1.014828226134705490e-02 5.398293771812731623e-02 -6.255932061388840004e-02 2.924241926279233864e-02 -9.244521393942878307e-02 1.532533699220143143e-03 4.379077463725602505e-03 5.892716622395743897e-02 -3.919545809369145983e-02 -3.053476071339826167e-02 -1.822658736103419455e-02 -3.069216935440484406e-02 -6.093852140111809604e-03 -4.901283871155335398e-02 8.994263648749604989e-03 -1.522085000794596091e-02 7.961868637724489606e-02 3.635552844879235551e-02 -6.645382526684558838e-03 2.349832675464908621e-02 2.614394936614495776e-02 2.317678005698477553e-02 -5.213716514938977059e-02 6.882990014267182342e-03 3.750743181873240906e-02 -5.498623215925928925e-02 -4.949193290254207123e-03 6.415297318717473607e-02 -7.212953995821599039e-03 1.139673871088640877e-02 1.345073576839917427e-03 4.349312757818910025e-02 -4.562738446028386657e-02 1.871384379722563357e-02 2.097924908540111516e-02 4.244418065197176626e-02 -6.142097472582240536e-02 4.867721127318895558e-02 5.069765538269486310e-02 -2.954074538207117351e-02 1.883606327960638330e-02 -6.310667626628603533e-02 -1.634037459434522707e-02 4.819698275059316334e-02 1.193658121555888664e-02 5.919204632222210827e-02 4.782654925930582973e-02 6.935247641029572419e-02 -1.798467147098179592e-02 -1.241091717236257608e-02 -5.362811679158401013e-02 -4.059116759393485707e-02 3.999791218527747744e-02 -3.641048885700878118e-02 2.472090922819791120e-02 9.553218234787327207e-03 -4.409022032412909450e-03 -1.901029982692112666e-02 5.203610486862246705e-03 3.427665635317950904e-02 -5.358193034392449289e-02 9.054431603554676661e-03 -6.084744483106607760e-02 -3.241163190697345098e-02 -6.510505470893059032e-02 3.297865152099320202e-03 -7.215067436217786206e-03 4.609191677673016990e-02 -1.706836364909521814e-02 3.653597120247967928e-02 -5.348265563533713407e-02 -3.311478301380482020e-02 6.515060222530207057e-02 -3.865705671631416290e-02 4.492149727590469960e-02 3.601682037613245652e-02 -2.441802376709665753e-02 -6.359788727551733689e-02 -1.477243145463291718e-02 1.959106118013327971e-02 -4.209029205333467138e-02 -3.959472781521714002e-02 -1.400066752595807706e-02 1.339606288683580469e-02 7.688593501520177287e-02 -1.544889440818936720e-02 1.816565403782374397e-02 -2.638757703849345035e-02 4.063727323535966385e-02 7.759754302636269474e-02 -2.549960190264423734e-02 -2.272385180095402597e-03 -3.291920840934232928e-02 -3.895314118980761076e-02 2.174428603710374178e-02 5.954933777678708684e-02 7.987101686890284158e-02 -9.380670356395660187e-03 2.716847752587714035e-02 6.231574178826961713e-02 3.094917831432544494e-02 8.668000501095571644e-03 -5.301030055321354767e-02 -5.890626179586275213e-02 4.301105757839767535e-02 3.322014540351356932e-02 -2.390028985050020663e-02 4.985491972706777852e-02 -2.535565935626857281e-02 5.849520448180148963e-02 -3.874288365086317465e-02 2.004249307473417868e-02 -9.502534381101511440e-03 2.705089557357314572e-02 2.093811242585089799e-02 -1.246610506766108670e-02 -1.395023493661684023e-02 7.001164719169773731e-02 -4.517823517205354737e-03 4.774921785096841731e-02 -3.077272842598086783e-02 -2.310678438721503261e-02 4.979449762152805652e-03 3.871506936256857018e-02 3.529867210298519384e-03 9.139574044723039470e-02 5.600277256769861656e-02 6.759945784053252027e-02 3.041079374913775030e-02 -3.859196994201407466e-02 3.971838629290620759e-02 -2.113800176004182463e-02 -4.816386381001108025e-02 -1.440908586447292410e-02 -7.990015861760667304e-02 1.671929143877112084e-02 2.567875121622401752e-02 6.230135481760916416e-02 4.750550944366987299e-02 -7.412600406588855384e-02 1.057272763754696192e-02 -1.818409495873631737e-02 5.527771325885943998e-02 7.107069531827892852e-04 -3.955679333583066865e-02 -4.496732718995267997e-02 3.493182708075134868e-02 -4.080938453149379752e-02 3.234412738950313837e-02 2.590441593671672163e-02 -8.561705844765177265e-02 -1.419542876558815142e-02 -4.582317172799137139e-02 2.323583673559480919e-03 5.138790093295771133e-02 7.236333891858896805e-03 -6.903985494881480223e-02 -1.210865143526627420e-02 6.360192217403648485e-02 4.539778618966335000e-02 -4.133275953038543366e-02 6.989634354894413981e-03 6.295572238034652032e-03 -5.258134425592821126e-02 6.547422658980084353e-02 6.502872196472649080e-02 -7.760524856489756096e-02 3.596259271371547717e-02 6.978690722739977481e-02 -1.210692935401264450e-02 5.172750857952616160e-02 7.669079396616688971e-02 -7.273345085461055404e-02 -3.023501539193180696e-02 -2.046865235905240624e-02 2.707616180325402716e-02 2.590018475422424526e-02 2.680908355801286599e-02 3.455637268436671100e-02 -6.979499525999526173e-03 4.838671163032032957e-02 -4.358094672108960704e-02 -6.350024975682015682e-02 4.934912219167562897e-02 1.868291896564820698e-02 -4.482015492429010373e-02 5.284943141340025380e-02 5.615031535669855189e-02 3.686138212391970592e-02 -6.113047306438059575e-02 -6.330413767009888948e-02 -2.438832892924254828e-02 -5.209796244900836287e-02 1.562382821431566524e-02 -3.448131517809797236e-02 3.774875106848550599e-02 1.849382717222085304e-02 -1.808169779969278149e-02 8.741344267698954174e-02 7.905737386036533476e-02 -2.427249213125441674e-02 -1.234817382950991263e-02 -2.421271996105156879e-02 7.008255695785699235e-02 -1.430190808013512976e-02 4.052452574644914429e-02 -7.067548253850448881e-02 -7.247474251116775221e-03 1.585709797886000749e-02 -4.078119705060040401e-02 -2.027143760608924108e-02 -1.954941623336653098e-02 -5.749473289104771456e-02 4.331165038574782966e-02 7.996987911148788208e-02 -9.885682394333629788e-03 -3.553890982779884383e-02 5.116115883470815501e-02 -3.329222108776605515e-02 -4.426200053153225150e-02 9.222023373840702518e-03 -3.450470718654375518e-02 2.853987429877261756e-02 -3.081139917552775873e-02 -7.596762032247914020e-02 -2.423896740311704684e-02 7.016459016431879359e-02 5.224556126833111713e-03 1.686077293689619908e-02 -5.262699740101351581e-02 5.595658345749022350e-02 6.422815514883715993e-02 3.947259730734625771e-02 3.928143195743226401e-02 -1.043894515057956253e-02 -5.905297222220782898e-03 1.426212901976611595e-02 1.745544984976897702e-03 5.463254981906980057e-02 -3.483851998813337902e-02 -4.325819988477749151e-02 8.000673847052757609e-03 -4.984681073702890153e-02 1.177419461599885954e-02 3.113800706526015111e-03 -6.329706790198062760e-02 1.938399049014754433e-02 5.292714799262324132e-02 -2.556501363962711271e-02 2.061665235947729088e-02 -1.283630746793040182e-03 6.574991671840864360e-02 -3.962179553659026660e-02 -5.488403846150352594e-02 -1.794365878570779518e-02 2.445273904974610418e-02 -1.823661457443733272e-02 -2.326345614350474461e-02 -2.740779079874790854e-03 -3.388925167081174080e-03 -4.575770032341214938e-04 4.553410591527236317e-02 -3.467652515312991124e-02 9.090239722463232253e-02 2.826292525196108171e-02 5.880038618475875306e-02 4.372215817209606364e-02 3.313590815137607004e-02 5.351983008640578098e-03 -4.929797179484191744e-02 4.162425428860479226e-03 3.833482735998357954e-02 5.025860966132167373e-02 -2.212283274545502609e-02 1.638653543009930061e-02 5.102464597888062975e-02 -1.334581353236866282e-02 7.710449126307464263e-02 -3.165138449388578412e-02 1.370089520211156819e-02 1.700670635450960907e-02 2.521230660628060588e-02 -3.927971033411313539e-02 7.394503596129776979e-02 2.947104186724575775e-02 -6.692352117795741240e-02 -3.675633567202031549e-02 4.859468463671554744e-03 -3.979128169122654601e-02 -4.428084978336600114e-02 -3.273672114211304690e-02 3.178567121092103209e-02 5.996593597909764123e-02 -2.821318266640856012e-02 -4.039716005212856675e-02 -1.838056480164055456e-02 4.572666819145860401e-02 9.510850600249183204e-03 8.466891446842761404e-03 2.296078184108459389e-02 1.448991500045584101e-02 -1.730563725222186711e-02 6.168708819853654240e-02 1.080180815339502887e-02 5.249333884010315421e-02 7.066992728890472697e-02 -1.084365747937000336e-02 -6.524797442193670804e-02 1.450215134310061001e-02 1.911553237799984775e-02 5.214160097625025747e-02 1.233971898688076586e-02 -2.225710191055368589e-02 4.814845219340681270e-02 -1.441130166341814990e-02 -1.631441590837394082e-02 -1.238504393965960022e-02 3.254124325115790445e-02 -3.260056602017782218e-02 5.491200817818284174e-02 -4.976610908386780441e-02 -5.291716989244441005e-02 -1.660831452528700042e-02 4.910356938785230552e-02 -2.990956482138958789e-02 4.894169704437575236e-02 3.704575707787791800e-02 7.874251524608855135e-02 -1.977085115491343439e-03 -3.184875810167454857e-02 -2.685491875242332696e-02 1.721782003472418013e-02 3.334664442540411639e-02 4.087286853756195298e-02 -8.992341586228177379e-04 1.369252070307908770e-02 6.202943924190887359e-02 -2.974737338070171724e-02 -3.477160804507557074e-02 -4.525080171780428845e-02 2.916049070396594181e-02 2.181980392343957006e-02 2.469809844792475017e-03 2.448171594566500055e-03 6.307163154218087264e-02 3.133296870505319909e-02 -2.681990688427185465e-02 9.134506747074364096e-04 -3.461552305144768166e-02 4.995057718695248075e-03 -2.706897845251235793e-02 3.968996351452321741e-02 6.792224553235580442e-02 1.677094590719926254e-02 -5.029267519471873615e-02 -1.427261368158594911e-02 -1.724494070273223682e-03 5.072619663742123503e-02 -4.227139370291222581e-02 2.968661666216195535e-03 4.024608602410872232e-02 -6.693290241843252719e-02 4.670619358047332220e-02 -4.762295108665491605e-02 -3.222374405412697235e-02 -4.415640473058543049e-03 1.127542471005299994e-02 -2.530289359997319257e-02 7.067924760482774404e-02 -8.222769499814396033e-02 -1.722118878680508583e-04 -5.911783590429627033e-02 4.315901643530296178e-02 9.793610038005058638e-03 5.032308575647415766e-02 1.420713886550940656e-02 -5.518062854151781216e-02 4.655708797524617248e-02 6.375943348333916461e-02 -3.666898934457937104e-02 3.809887087241359965e-02 4.880239712464090607e-02 -5.907553189806079991e-02 -9.217056290221138301e-03 4.614819121076895944e-03 5.109273548184139341e-02 5.425056342653788999e-02 3.135494957409851180e-02 -4.451959314771014586e-02 5.294674427168925834e-02 4.462313420872042816e-03 3.562652899188124833e-02 6.177181449467076396e-02 1.720760236968613827e-02 3.776326377999136841e-02 -4.869668343029790597e-02 5.542447813768945630e-02 1.165507942997225967e-02 -8.159579895203730726e-02 4.123720043059016238e-02 2.519513069722098021e-03 3.375842296481437049e-02 -8.016818319673134526e-04 1.292311562920756864e-02 -6.721572865891249637e-02 -7.072890675955179063e-02 -5.506442654011875493e-02 4.059607828409476926e-02 -4.981188941636068013e-02 4.121496994545115894e-02 -3.328383745185961584e-02 -5.579761908788566371e-02 4.400330372979455867e-02 -1.417405051925476646e-02 -9.030632129951959158e-03 7.786773061227269220e-03
3.606602962181650052e-02 -6.480853007331554595e-04 5.334534603375540307e-02 2.845369833425525838e-02 -1.833547222269503105e-02 3.639378843395955215e-02 8.457177158628401137e-02 9.496020083423041894e-03 2.683106403262112711e-03 -3.358667922106890746e-02 -2.113263143131760557e-02 -6.267715512594350391e-02 -1.546791317710947966e-02 -6.335509456106414028e-02 -4.855148020728691088e-02 -2.132087919588986427e-02 -5.253815909443930454e-02 3.018013809630184369e-02 6.275820192322127677e-02 2.164217858876978443e-02 -2.422887726412371184e-02 1.666244762233530519e-02 -4.628843522090945323e-02 -1.791019381837200691e-02 6.484685512192360501e-02 5.221597283878413875e-02 5.160080540643351837e-02 -6.760776737882664977e-02 -7.147728146227096948e-04 -4.650630634442219635e-02 -2.466005679333836340e-02 8.142329283141994112e-02 -2.976336985863753740e-02 -3.079336933631868223e-02 -5.286253561013212754e-02 -1.461393166926945944e-02 -4.872903996139895527e-02 4.355436449452419756e-02 3.030894451340486809e-02 -8.430668521066278509e-02 -7.523675467074436574e-02 3.126551845018186310e-02 -2.171124061838628633e-02 -3.426340796938997374e-02 -5.058397708829241030e-02 -4.903172770219557663e-02 4.435211245241894862e-02 -1.642936644839744845e-02 1.251929393788732067e-02 3.156352676071529778e-02 3.732543637984288981e-02 -3.476830099422182491e-03 1.739530991435536342e-02 4.557663421835855128e-02 -1.793872041375093804e-02 3.267740886708389320e-03 -7.832868859548763538e-03 -2.445952850275320486e-02 5.714552739816500249e-02 -2.591395168384864542e-02 1.853674923536276220e-02 1.091386486797716465e-02 2.120602081627025876e-02 -1.433397288336826260e-02 -5.624917379937462159e-02 -3.528280775987892998e-02 2.447926721228393249e-02 -5.711858508576560418e-03 -4.353990639973093907e-02 1.601840169440523279e-02 7.473814970705108807e-02 1.336258345165356040e-03 1.908590336134137824e-02 7.397608098585235770e-02 6.235625629788387955e-03 -3.458075644438417251e-02 9.922200750127613614e-03 -3.368973057840581042e-02 -5.837002974228921309e-02 2.694290044623896471e-02 -2.503886550122432983e-02 4.622441216400194341e-02 4.191530368883125690e-02 -6.751594765717638946e-02 -2.082329423929819498e-02 4.161377767269502925e-02 4.186128929679522326e-02 9.428333666133490928e-03 -5.622153939167926634e-02 -1.483648706726847614e-02 3.592293353648171039e-02 -4.692291786664764923e-03 1.592553209938632822e-02 -2.085528532685079761e-02 4.803490818082382929e-02 -9.069470724520296845e-02 2.569963052734780280e-03 2.630663008119443758e-02 -1.127586061624006458e-02 -2.602527068251379513e-02 -2.799262294418777830e-03 -5.175649683801051421e-02 2.123434478615638873e-02 -3.849227601378866354e-02 -1.397154194858593948e-03 1.473414212632144678e-02 -6.772823993622062444e-02 -7.137280382329572181e-02 3.883260199013943703e-02 -3.382176436173372353e-02 7.112060945262761724e-02 1.606616578611675186e-02 -6.672047551475594751e-02 -1.625625864647549032e-02 -1.589865570499840106e-02 -2.368252444965711356e-02 -9.018840388385414297e-03 1.516542621939046161e-02 -2.124568354587725097e-02 -4.211797017478714766e-02 -7.368369626820008012e-02 4.990720542727303949e-02 -6.682060591552815842e-02 6.312910819409028873e-02 7.518725050697441792e-02 3.081906982364459799e-02 -3.165208877572494445e-02 -4.850003255937362923e-02 4.821792639431194544e-02 -5.560738089233669031e-03 9.483313704787894871e-02 -4.250075445872490004e-02 -6.199382602348089619e-03 5.702115044361624058e-02 2.543503649957415402e-02 1.764032162944821278e-02 -1.619884014874562947e-02 6.241478427858493383e-02 -7.104971010272570844e-03 8.071934613946916970e-02 3.320795442310274515e-02 7.057957497466145480e-02 -2.313746006829451793e-02 4.462448323470877970e-02 -1.194455853392277500e-02 3.222609592218707297e-02 3.254825067537000377e-02 -3.812646702636529605e-02 -5.065149274176335842e-02 -4.368377605417585186e-02 1.269859817254194619e-02 -6.845577135004900227e-02 2.874735424556897762e-02 -7.250838813134249071e-03 6.092593873910170932e-02 -8.873654331879124793e-03 -3.540723832822550987e-02 1.286808019414921976e-02 5.174648776844429504e-03 -8.754169479492361627e-02 -3.957486486821404879e-03 -4.714447508334024262e-02 4.816476607221061718e-02 3.772358607704261180e-02 -6.861259403425527814e-02 -5.823949037195862849e-02 4.105331172904467391e-02 2.382075539871315178e-03 6.706025844634015687e-02 -2.805865938244673716e-02 1.141131167387647409e-02 1.551540102425825497e-02 -5.744474600732403340e-03 -4.168880092353494798e-02 2.076345035054625102e-02 -4.946308028531814366e-02 8.164649750869704473e-03 -6.388076634654386854e-02 -4.329068262883083162e-02 -3.358795681927906340e-02 -7.356973508072095491e-02 -7.645048611726695809e-02 -4.596514054089977097e-02 -3.698036054683138257e-02 5.772585369076586870e-02 4.837319375583507518e-03 -3.720348641373473486e-02 1.796633365982426393e-03 3.258901426395129086e-02 5.930280013990595761e-02 -5.467711242324671712e-03 4.788939644209832397e-02 -1.626587728571065455e-02 3.618630885744028580e-02 5.522064497521243093e-02 -1.842902438462390435e-02 1.577039642482765472e-02 -1.113875801926739054e-03 6.391722172189272244e-05 -5.098936545971671092e-02 -5.736069583074948630e-02 3.872874936350308162e-02 2.663757246249666422e-02 2.947957835546954550e-02 -2.650361081797659307e-02 3.280068208853827855e-02 5.614746184092405529e-02 -4.717468322514633758e-03 -5.504199857141440361e-02 -5.074095292865966889e-02 -3.682876705700624531e-02 4.688599800803617407e-02 3.028762680701534149e-03 1.290581936342797588e-02 -5.581867161089650725e-02 -4.536170657935048589e-02 1.290528845680042822e-02 6.326326246855307200e-02 5.133373420406144028e-02 4.231863746741937327e-02 -1.514936071009821521e-02 3.622436335134957691e-02 2.131434497892617866e-02 1.900148547423502476e-02 2.374206310141404111e-02 2.893091530916308204e-02 4.558450616918024306e-02 6.878067445318886142e-02 -6.980965475709466350e-02 -2.329198384978662523e-02 -4.259325529260121757e-02 -6.518984651471576575e-02 4.747405962029102762e-03 1.137970413984328195e-02 -3.457304301671833280e-02 -1.893262845022154750e-02 -3.205773364450803520e-02 5.494129152629905616e-02 -5.012522667174253849e-02 9.799321543167956519e-03 -6.848705299846256922e-02 -3.549205819446957927e-02 6.320700444742227697e-02 -6.609741867258911441e-02 1.052493175806477145e-04 -3.336081450988986202e-02 -7.242389144078148489e-02 -7.420379497068567247e-03 5.630046087711094993e-03 -8.522125057768302481e-03 7.751180589544615085e-02 2.237412345384172385e-02 -2.061303381786924131e-04 -2.020052732265403828e-02 2.485234720044913678e-02 1.004994749993028472e-02 -4.131471005866690915e-02 4.319518442391781510e-02 1.209365882934931510e-02 1.942062040624793762e-02 -2.201671955007333814e-02 -3.754660342682897972e-02 1.907869907092239747e-02 6.122922651195282506e-02 -1.866557249307528379e-02 -9.769164859167697376e-03 2.919964487482168500e-03 -4.393124471868907650e-03 -6.403494832314723939e-02 6.536377678553138490e-03 -5.577080990567668400e-02 3.744205919563457080e-02 -4.249444207711298473e-03 6.111151331488652583e-02 -4.812522660074276815e-02 2.680962727506185084e-02 3.349616460853386407e-02 -6.712891429496112283e-02 -5.589317969733246724e-03 2.939292140653500252e-02 -9.472788736074395921e-02 -2.066661607426524550e-02 -2.258053835689907696e-02 6.139261788624244404e-02 -1.272961668043587694e-02 7.053524505887359686e-02 -8.368350828377899009e-02 6.204908214636649030e-03 -5.161145141224763450e-02 1.231371380362970662e-02 4.458983307558282705e-02 -7.073350443973559776e-02 1.317185580099625858e-02 -2.986526164438301975e-02 -3.372688565246308168e-02 4.874946196547737254e-02 9.845873817357281895e-04 2.838051900207706410e-02 1.235537906831928219e-02 5.249456130015917737e-02 -6.435396011879271350e-02 -1.025436336471281101e-02 -8.005584481742744618e-02 -8.190213943953382481e-02 2.441892156770640240e-02 3.501886803532942155e-02 6.962014798396977400e-02 -1.620832334650620585e-02 -1.732701465635530860e-02 -5.644505998208076275e-03 -5.018227441760894636e-02 -4.360444182739228042e-02 2.691476278985039522e-02 7.174355944034650767e-02 7.512239089190410335e-02 4.140289715477015603e-02 -1.357653973365510573e-02 -1.337776411794860953e-02 -5.402783234440296928e-02 5.797283679770091902e-02 5.536511929919117614e-02 -5.781588415505440476e-02 -1.028034210312352538e-03 4.511313258445329155e-02 1.332324957316105389e-02 7.566790744855434597e-03 3.396458309167017797e-02 4.294404466928612024e-02 3.276637304618959523e-02 3.299738688509547269e-02 5.909102157332416644e-02 -4.238381841113746107e-02 8.500409398489837051e-03 -1.100956997032213544e-02 -3.097922982735839409e-02 7.658513660279739343e-02 4.888906925854098057e-02 -8.580913610086098736e-03 -7.630651276638537178e-03 -1.130332583622622620e-03 -3.198813101983600388e-02 6.254768876880169998e-03 -4.047930918394093691e-02 -5.207626816562822142e-02 -2.242221278230611264e-02 6.471168788160902574e-02 6.615733330859493999e-02 -6.503875682794089952e-02 -1.663607263630194691e-02 -4.959493712194218418e-02 1.275149420349595657e-02 -8.299197720418868135e-03 -9.225045306509430110e-02 2.705547004827678695e-02 1.597452008445577470e-02 5.678095171664071170e-03 7.710180838680055770e-02 -5.515848167299950214e-03 -7.965395753668094714e-02 6.869523138668202911e-02 1.999869446197936884e-02 -7.775339526949386938e-03 -4.143598823659698505e-02 -3.092282943025591660e-02 5.831666215838711420e-02 4.182614004006643404e-02 5.924118130704742087e-03 -1.013229197069700702e-02 6.198280660933382091e-02 -2.431665271939392400e-03 4.617399537737178900e-02 -1.045075027430365268e-02 5.901485363089277979e-03 -4.503336759647978693e-02 -2.173654506280369315e-03 -2.759643633591356282e-02 2.982184137960521182e-03 -5.499225454508471084e-02 2.275061632636710129e-02 5.617223262093043457e-02 -1.360435148316405628e-02 9.956390372176859502e-03 4.414956084914442060e-03 -4.653399193116364296e-02 -1.425808516256576314e-02 -4.247432950333376867e-02 -1.791578851628079783e-02 -4.306033366447881844e-02 3.479588747085913397e-02 -4.865896925049006949e-02 1.435450512571958236e-02 6.276830080712443583e-02 -6.066561432824801176e-02 1.767755240363398997e-02 -2.495782708019234769e-02 6.857554094084498952e-02 6.523179613067922600e-02 -1.467834225792091253e-02 -4.061532411080727434e-02 5.536904019536260935e-02 -5.983834428318553916e-02 6.479750495835165380e-02 2.170527556689944709e-02 6.281764038257049709e-02 3.135716606654429146e-03 -4.833961437864622152e-02 1.549330920531444928e-03 6.934036016771077558e-04 -9.845902635970370242e-03 -3.275396182089599512e-02 5.007665786106008793e-02 -5.483761929083458969e-02 7.318892270503091213e-02 1.369694812489230355e-02 4.655343912539717556e-03 -4.312040746339286523e-02 -9.022044604505358167e-02 4.914973282750217248e-02 2.713912451971335626e-02 -1.065840182313161459e-02 -5.708738685221072945e-02 -3.617942324476539073e-02 3.824472295140214553e-03 4.441465692340498816e-02 4.883267370903016796e-03 8.211272034377960910e-03 5.067399788378196268e-03 1.263485851863515794e-02 -2.308568278628491538e-02 2.665057330082247489e-02 -2.538516362024582917e-02 -3.311703045766537651e-02 5.593772227889293180e-02 -1.352647003016170697e-02 -7.338392086932432612e-02 -4.228050862278551203e-02 6.474653876264068603e-03 -2.313338316822704036e-02 -2.588867120855454368e-02 1.399400590177566836e-02 2.242530272684294113e-02 3.731512436076139805e-02 6.280382866402724196e-02 1.882399431500163950e-02 1.713373158826804812e-02 5.207937485380457338e-02 -1.396326678464100343e-02 6.098246703965684579e-02 3.392031156023505439e-02 -2.584267527635747408e-02 1.208106316000703145e-02 4.324230279230700108e-02 4.774984840974674793e-02 -4.082344155879869679e-02 4.854933443263596132e-02 -2.332670091702917711e-02 2.176181104738330110e-02 3.361977887307626006e-02 2.794902593099659813e-02 -3.498632072096691942e-02 -1.296703868166494515e-02 8.852382301789742114e-02 -2.902382752037975522e-02 2.387400208301120041e-02 4.637682041811843486e-02 1.161057509506999499e-02 -4.491017299970711391e-02 9.089511501216793188e-02 4.347101278281612774e-02 -7.636775081088202632e-02 -6.840810069854479092e-02 3.454030699513940122e-02 -5.389936214505960943e-02 3.757812868663461953e-02 -6.352906195473100037e-02 2.534098897406797044e-02 3.301789650459606429e-02 -5.864070879320971291e-02 4.140583759990935919e-02 3.319269994553349090e-02 3.365172576229186890e-02 1.170362361565875989e-02 1.380824228486123018e-02 9.643081498593113199e-02 -2.095405646240682332e-02 3.586595421054245697e-02 1.602681780197217146e-02 -2.884755384405422035e-02 4.177196355707548520e-02 -5.126339339119251326e-02 -5.760352127031206915e-02 -4.757428663462699020e-02 3.675300620018918940e-02 6.276548829074683755e-02 -2.160547155329744368e-02 -3.806120066412858188e-02 -4.427567316361412375e-02 -4.618459137160565303e-02 6.974985475570336102e-02 -7.300214100353519947e-03 3.872921971266086311e-02 3.305566602644446211e-02 -6.616356316049815112e-02 6.675840438309868508e-02 6.659541577113414768e-02 5.654475552246585740e-02 -2.030848741854659328e-02 8.741157379681787146e-03 7.257255225500035267e-02 6.084661048900028707e-02 2.675243780350199455e-02 -1.995364126716734146e-02 -1.829907732403808149e-02 5.426738124002011832e-02 -4.208923600773701451e-02 -2.775818228602591406e-02 -1.002075129842955499e-02 -3.644732367856282074e-02 6.070102388648023622e-02 -2.703036332976751360e-02 5.978902658621388679e-03 1.317050298813139675e-02 -2.775164737216437999e-02 1.982410128434767313e-04 6.560214340703848790e-02 -3.659063108905100808e-02 -4.571289593164793580e-02 1.308014235576813490e-02 -1.721599848975326197e-02 4.573912992891741164e-02 6.797394143249804732e-02 -2.553763387460699155e-02 5.205135785002487636e-02 1.482915172794362253e-02 -5.669332824942989457e-02 -7.340145555573412972e-02 -2.441880795399632015e-02 -2.385021012631435844e-02 -1.148814784719690008e-02 2.738495432383227304e-02 2.285799415799000603e-02 2.516613264962280772e-02 2.324463605706561867e-02 1.430903431854450153e-02 6.044831526310381897e-02 5.206549446668675557e-02 -4.498803619645490998e-02 4.430516990408396583e-02 -4.418689978703543852e-02 -6.531730073981936377e-03 3.484179998537403206e-02 3.179721728706257078e-02 2.563269701641760975e-02 -6.028339176718407882e-02 -6.501212637714344489e-02 3.776464394547583009e-02 8.594800648898993228e-03 -2.218177336357843484e-03 6.143593935283519353e-02 -2.473573534206131852e-02 -6.887456408295994370e-02 -2.785138417038060879e-02 -2.220832172909085328e-02 2.005824625943494061e-02 -2.763248998132633236e-02 5.175585643497915972e-02 3.442110461008800887e-02 -2.138251065566984001e-03 3.112401952510277306e-02 6.593758611931090086e-02 8.367339795845080488e-03 -3.731952656015532360e-02 4.641410084888394211e-02 5.265682432828137222e-02 5.678892276744247798e-03 -6.681725549284730451e-04 1.918705531310924139e-02 7.743296768553550868e-02 -3.575670145602193734e-02 3.847683369364511552e-02 1.214588662659792442e-02 -1.742948717889570426e-02 3.877727647443954956e-02 4.951953524916687804e-02 -4.729020389972430488e-02 4.000249130115583057e-02 2.494594520271616045e-02 7.187547618402227723e-02 2.598931206807648248e-02 -6.962709449227195979e-02 -2.876364429314595336e-02 2.663288707286467702e-02 -2.965977375941306407e-02 -1.441324833910643220e-02 -5.672601996133253346e-03 6.864945265340040292e-02 1.883700890368800868e-02 -4.188673620305363027e-02 -7.079293903707756241e-02 -3.242653186857270831e-02 -2.159466775746896744e-02 3.918427516759110697e-03 5.789462261329823139e-02 5.725536096002065839e-02 -1.161744042009930748e-02 -5.168560933440345673e-02 -8.274437611722822508e-03 3.921528749265432851e-02 2.723497243242082450e-02 2.695512835656291989e-02 1.197815924302635116e-02 -5.771680711058913005e-02 6.441631879322846921e-03 -4.305796206281688188e-02 4.364127595962710021e-02 4.328653638844610907e-02 -1.157398251210992046e-02 -1.788351004961322849e-02 6.637397966163897933e-02 -8.801362974410056189e-03 -4.429987788065666010e-02 5.391195332977387344e-02 9.490408256095868300e-02 8.112282013851980500e-03 -3.439889023551406105e-02 1.577152395571981836e-02 4.133077195854321234e-03 -3.731333582067329624e-02 -7.826715602850090742e-03 1.843752850331433282e-02 5.348359504195826508e-02 4.054503464726601225e-02 5.529728159428921874e-02 3.906193585863118600e-02 3.682478582376205734e-02 3.889146280346304080e-02 6.846603202559070622e-02 1.533569409024867353e-02 1.972883943839685850e-02 6.551342783368097056e-02 2.445675128806875862e-02 5.070528335988969820e-02 -3.182996848405738460e-02 -6.021632578070034575e-02 5.205175512387173742e-02 -6.263064095610906823e-03 3.453310304806810754e-02 2.096134125761508343e-02 2.143419662694110231e-02 3.921471932852937936e-02 6.004420829904009299e-02 3.998710094696485140e-02 2.160515558030158198e-02 2.851464529482845497e-02 2.507880775369936838e-02 3.586800424255131431e-02 4.204200169123080422e-02 -6.034491702907324173e-02 -5.729417962540809400e-02 -6.355318654764241515e-02 7.717877412899722123e-02 4.689462229609726168e-02 -1.969873019798362365e-02 3.662552349305697730e-02 6.156361961029264279e-02 -5.174794118147382077e-02 8.775748540133779599e-03 -1.750273735412128176e-02 -4.432605954127017550e-02 -3.071174536515057854e-02 3.352995740718160006e-02 -4.157994581291191150e-02 3.765197061136114215e-02 -3.110436063421952429e-03 -5.990377698819936841e-02 -6.135163754688558943e-03 5.555068664962170555e-02 5.996488456360579873e-03 -5.504440054857899500e-02 5.380265321830933478e-02 4.030420980739689990e-02 -1.920323682927484350e-03 2.312404677453221494e-02 -4.458319828736152096e-02 -1.081465859967105717e-02 1.918740322419100822e-02 -2.022802080425687918e-02 2.277094598746896847e-02 6.919743219899905651e-02 -1.885969834062869652e-02 2.644239032827323810e-02 2.818459863806325322e-02 4.645147900171351513e-02 5.779754309343673735e-02 -2.232686021149581437e-02 -2.098567630636746437e-02 7.401853985604275876e-02 -1.802283131387714607e-02 -1.428453534077095931e-02 -5.745524081307439197e-03 -1.936150774574529193e-02 4.588919879432944854e-02 3.384044124041014900e-02 3.669944008347233305e-02 -4.973072949219784628e-02 -6.881824629442073737e-02 -1.018890280477221556e-02 4.520296082014212125e-02 6.959019831431451086e-02 9.088790243571941152e-02 -5.796207683585926501e-02 -2.212264045120248060e-02 5.011784986094264260e-02 -7.052018320124808781e-02 4.774297323519870184e-02 -7.940568100659873077e-03 -1.396205063019142524e-02 -4.327732377325330809e-02 -5.819610129361230295e-03 -3.200517838261245085e-02 2.022668861686582886e-02 3.824731007898404811e-02 4.050684729350388646e-02 -6.075587920303928552e-02 2.107365795443441256e-02 -4.899971627244763261e-02 -3.520641329519733770e-02 1.377678878106177850e-03 -2.241596783082014030e-02 -5.967022375321767019e-02 -1.886613062476465152e-02 -2.767602229134686134e-02 3.670355078313237290e-02 -5.026579082474846166e-02 -2.600131351921454448e-02 6.819627536955701064e-02 2.083363614057322927e-02 -3.948024251875965895e-02 -6.760995944175882122e-02 -2.582788438735187861e-02 6.390035971749106168e-03 6.151206328917513226e-03 7.233980964079204934e-02 -6.566335840969905746e-02 -2.835359781912435290e-02 3.408107209030433044e-02 -1.900171454942381488e-02 -2.239361438084185377e-02 -4.588681745973380993e-02 -5.457560267068947008e-03 3.223590022830383900e-02 1.802049316734085152e-02 5.822719633393261957e-02 -1.673520988610382662e-02 -1.689911162450764143e-02 3.220795494694145972e-02 3.132612409188247071e-02 -2.547771159752293749e-02 3.852362637822535213e-02 -1.602432976897004424e-02 -3.965826138669092255e-02 2.148878812748912515e-02 3.638301610458316571e-02 2.179246224188320646e-02 5.726203757509072678e-02 1.794155386296475765e-02 2.319665065687426600e-02 -7.158843784108660790e-02 -2.127765364157983494e-03 4.752608570022609155e-03 5.497295847827195735e-03 3.966155244131228975e-03 -7.399445949724951788e-02 9.850932274919961540e-03 1.582873185830825299e-02 -3.197499589165014172e-02 6.086827688776940554e-02 1.031950812688228357e-03 3.723316615042101402e-02 2.867718533966849559e-02 1.789569577405339396e-02 -1.294885022897940990e-04 4.169649883144545266e-02 8.148147930995646576e-03 5.133585885448083835e-02 -2.355444329176166821e-02 4.353568841094140190e-02 -4.919420533922454902e-02 5.357554340676662363e-02 3.926702183122963291e-02 4.526710129130680216e-02 2.870760120397729200e-04 -6.517874347689212033e-02 -2.055037659978189643e-02 -5.661488148330271614e-02 9.386175650479619895e-03 5.138757592728353252e-02 -7.273524196839642464e-02 -3.196244211121496842e-02 -4.945925409296214603e-02 5.878725629948176878e-02 -2.624802450379562849e-02 5.688733086373392450e-02 1.421511754451822672e-02 1.887556677803215593e-02 -4.412161486083398393e-02 -3.246826876037055363e-03 5.520022184949963627e-03 4.964659638067212000e-02 -1.264960739957198682e-02 3.123911856996613914e-03 2.615880468268849159e-03 5.644822190190461331e-02 -2.425706079215996652e-02 5.180057612658138522e-02 6.729158798848045020e-02 2.218664562491665451e-02 3.142260168811214505e-02 1.235032978186500693e-02 1.936135049912445297e-02 5.470893537565198889e-02 2.855336420177289128e-02 4.977819453701975289e-02 3.523052477452495029e-02 -5.876096197073933484e-03 -3.418140042398074702e-02 2.140019398608055193e-02 4.464937624107921665e-02 3.173381511811046440e-02 6.212862151394939485e-05 -2.552946168627768034e-02 -6.149105194775630889e-02 -5.033808514890229097e-02 6.111436593168398553e-03 5.708662870683791496e-02 4.350295728183189992e-02 3.301093340294555117e-02 6.265238572010153884e-02 2.979021864695527520e-03 -5.530439759536463773e-02 2.545934094737892575e-02 -2.593603840060177117e-03 -4.748018306816385176e-02 3.217943579217980715e-02 -2.462875929386441204e-02 4.979634618591070871e-02 4.036694164068749258e-02 6.744909178569521990e-02 9.210912396256121584e-03 -5.602347192273030713e-02 2.732462916898604002e-02 -2.355872388747692892e-02 -2.058106204771949221e-02 -2.802835406346324346e-02 6.112696222780813690e-03 -1.690740181217239776e-02 4.803980927572853998e-02 1.611173052923805388e-02 -3.999447075635553100e-02 -7.315103420904810194e-02 -1.069217207195655855e-02 -5.325040821855391016e-02 -4.473649682473813255e-02 4.288348488780652223e-02 4.704142717739662888e-02 5.672955709401248520e-02 -4.595701687999687035e-02 4.094399583241890156e-02 3.170793939239095749e-02 -6.577372428956666794e-02 -5.907496956773142412e-03 4.301880484529312793e-02 1.202647410325174450e-02 1.589993228428477831e-02 1.729215233945180855e-02 3.857260331980633117e-02 -2.521339362234832626e-02 2.378945177848989720e-02 -3.058023071414507979e-02 1.852391827702287372e-02 -6.067486576338074200e-02 -6.340921319106195692e-03 1.149616291938026710e-02 7.762824078735974798e-02 -6.153668434878830501e-02 -6.376830144073197815e-02 -1.430547659706304237e-03 2.645688711843216176e-02 4.900660262681860030e-02 -6.304768937012110788e-03 -1.116040948298870940e-02 -1.264999568373089030e-02 1.802726830319768131e-02 -4.230369610191000995e-02 -1.590210104420688780e-03 1.206296122385307548e-02 2.738194912519636287e-02 7.574807925680187475e-04 -1.633290075185119331e-02 -3.731562145097200994e-02 1.283833602093179677e-02 -5.230318482476410680e-03 -6.861304645964798506e-03 -6.486119495507333688e-02 -3.659525703640031241e-02 6.902831477040960451e-02 -4.795465521590852598e-02 7.124727542818342328e-03 4.992613573415345674e-02 4.984918928585673620e-02 -2.818222949804033428e-02 -2.457322742127692958e-02 6.150900680718199287e-02 -4.691792478107088132e-02 6.123377882312949771e-02 -2.932244390640119380e-02 -5.859161540831234194e-02 1.134121355567955895e-02 5.584153687647646497e-02 -2.246612382013534956e-02 3.269781417979174265e-02 -2.555086645412112112e-02 -2.121462450940978656e-02 -3.484806127837476036e-02 3.652650593282473490e-02 -7.196137631603102824e-02 1.618713751249685126e-02 2.855396553494303491e-02 -3.926835616345709760e-03 1.142923098358003021e-02 -2.457872853789891399e-02 3.272876049643086427e-02 4.550638007104766680e-02 -2.468908708627878118e-02 4.977032062891571795e-02 3.559662757379758197e-03 5.101374234738731417e-02 1.897448824566108638e-02 -3.497290345377952053e-02 4.863736582477957288e-02 -1.218732105149597511e-02 5.575357881787245534e-02 3.807042541209849917e-02 4.399533090953341302e-02 -1.154067874113600886e-02 -7.045944762554962049e-02 5.599652073833429056e-02 -3.093500156453381830e-03 -2.009802240297615603e-02 2.287111365041325992e-02 3.317704506419677513e-02 -5.057008400770456047e-02 -7.273965127900716351e-03 -4.859933721534433204e-02 1.959302038305038574e-02 -5.448046414827645983e-03 5.889186870563765941e-02 -3.138679536104133777e-02 1.484341315837685478e-02 -4.532064952445232636e-03 2.371720515203678756e-02 1.959397830015243216e-02 1.541394647450029451e-02 -6.964292182058420821e-03 4.653890100837668881e-02 -4.132591998902968716e-02 3.428003267189786568e-02 -1.417678261378940187e-02 4.515035192374040884e-02 8.977404348506248799e-02 9.257069556014269063e-03 5.422461601653486701e-02 7.060332632178678569e-02 -3.416103637633622486e-02 2.107073824978026103e-02 -1.468831032933730525e-02 -6.302170925295837167e-02 4.698221708353860632e-02 -6.470916448428667977e-02 4.720516692541544546e-02 7.627346516015573279e-03 8.529335268508696222e-02 2.287123275629616287e-02 -4.566219700226540473e-02 5.291182097806917256e-02 -4.873901648566451167e-02 4.956798982827604477e-02 5.827917331419082969e-02 -1.167642815852103525e-03 2.375787608423347158e-02 6.068127561200700737e-02 -2.253838163348250920e-02 -6.187724649488397788e-02 4.659662957470863537e-02 3.696310092581937129e-02 -4.346712885864421894e-02 7.690957551491821309e-02 7.152881931933029180e-02 5.033124837307696026e-02 1.166296053658876300e-02
4.972316211650577161e-02 7.068220544156111895e-02 3.686327572451539303e-02 5.022755249046478160e-02 7.829667305183288240e-02 -5.545227133730613878e-02 -4.881290872337800887e-03 -4.843769937858311697e-02 2.223958164132223275e-02 3.369253401816124649e-02 -8.648775061080590798e-02 2.349404216935416928e-02 2.914772032515041203e-02 -1.016689142052608672e-04 5.576061569204496249e-02 1.237902807761046171e-02 -7.407235525538538590e-02 -5.922082502703886718e-03 -5.858235366038150316e-02 1.841413099327123687e-02 2.498164154077091650e-02 -7.143528420310021887e-02 2.355201716154873767e-02 5.690807572660001867e-02 1.447342784037912401e-03 1.906916258293127157e-03 2.623995865023192459e-03 1.879983663845107358e-02 5.059947875905014547e-02 -2.867448802992975110e-02 -9.242985258930042775e-03 1.062512758147567994e-02 8.624084830467709101e-03 -8.636228919083993594e-02 -3.509461515958294062e-03 -9.122066230795861444e-03 -4.039976551238883690e-02 1.944019258248294579e-02 -2.029704236881291896e-02 8.418132116398613363e-02 2.746517037953057766e-03 -4.076236887502648898e-02 -4.037343693846771192e-02 -6.196330596149307590e-02 -5.118323787057488250e-02 -7.312357307778589305e-03 -6.738689377373752176e-02 -8.498060388774349161e-02 4.085235271276388413e-02 6.350625689635297152e-03 -1.260432437776698965e-02 5.128806163840766291e-02 2.842112452737432723e-02 1.732006687374537625e-03 -1.462065911157225213e-03 -2.454810074048197413e-02 -2.975620030511292799e-02 7.500326868671794434e-02 5.152413631879648043e-02 -3.853376073004037561e-02 1.271230885892512055e-02 -6.329437611257335283e-02 -2.093179410335012716e-02 7.979756236069336997e-03 -7.905108741173706710e-02 -7.651722246823712548e-02 6.357730394732023782e-02 -8.608017007511469670e-03 6.614068462794298053e-02 3.528960595924564292e-02 -3.300492562306051730e-02 3.037484262746940195e-02 -2.289095465573403806e-02 8.267212502076379255e-02 -8.563974568139896826e-02 -1.090495784313288280e-01 -3.477969916770792813e-02 7.357001703774831980e-02 -5.389977760587136291e-02 2.222543345496854651e-03 8.979373371474622112e-02 5.189886384683176784e-02 4.464894540341059204e-02 4.481797573842142418e-02 6.184298879478700162e-02 2.139609168618284221e-02 -6.577109006105824607e-02 2.876344225346983904e-02 2.928253865459146121e-02 2.022912453308532352e-02 -1.798665711665124387e-02 4.605661095941262356e-02 2.325369882666633234e-02 5.326914777950087637e-02 4.355651202464935062e-02 3.228551376947419449e-02 1.185771604811391468e-02 6.012304899610266054e-03 5.652647847700213724e-02 9.282779517054440266e-02 -3.410741142026024048e-02 -2.914842723282143767e-03 -4.397236113974615362e-02 -8.660758778225323418e-02 6.463626380775369662e-02 7.848953182415933580e-03 5.638394981415001915e-03 5.022035207117830913e-02 6.921371349228699899e-02 9.119922848928610493e-02 -6.830952465321538103e-02 1.000578886768138803e-01 -1.578075017537532848e-02 7.913788494614200364e-02 -3.406243617250306194e-02 -2.616597229915047784e-02 7.159506454296546418e-02 5.323698193543889567e-02 8.172614801191607770e-02 -2.765764306479513712e-02 8.665829809605642142e-02 -5.268092740414246494e-02 4.013177061619577907e-02 5.957132332944750641e-02 2.794059928757168867e-02 -4.105279091505060346e-02 -2.391229688622172750e-02 -7.959320343546552601e-02 -3.222350042730479439e-03 1.371680069136206950e-02 -1.874033689516173620e-02 3.442997106696202292e-02 -3.836782249829980701e-02 -5.177897357428216246e-02 -5.468877289593557928e-02 2.290124039269888362e-02 -8.621968469826316039e-02 1.597676796023293766e-02 -3.576149483062129181e-02 1.417847305216050425e-03 -2.980204000690559601e-02 -3.740557620765707497e-02 -3.264869123036493598e-02 -7.006288579309478959e-02 1.239551237694675422e-02 7.387881506651575170e-02 -1.511546168174128860e-02 1.371151737318017892e-02 -3.567349576852842097e-02 4.078957540811866539e-02 -3.364504851455701884e-02 -4.130846885577597188e-02 -7.592888028540359380e-02 -2.565887765664360415e-02 1.394125067939147415e-02 -1.944666870474892964e-02 7.524912484606841034e-02 -9.525442120006543181e-03 -6.361250187933556455e-02 4.967796050221656018e-02 9.126753297940549958e-02 2.078709664436476784e-02 4.471717629643433972e-02 2.491865804584812716e-02 4.782483560968452813e-03 -9.919958550936849861e-02 -4.863361342753938499e-02 6.416612937122274929e-02 3.089599893142634668e-02 2.971775790577136853e-02 -7.429235719037664831e-02 5.084221930525593958e-02 2.034411971134159405e-02 1.043983045057818131e-02 1.193053130249623756e-02 -3.498168344025346516e-02 -7.768813686686157349e-02 2.699646954332350982e-03 6.773810414456583884e-02 -2.033766752172143366e-02 7.313745739646773658e-02 -7.798988146575326630e-02 -2.636707058023396097e-02 -4.946733072154643057e-02 4.449509220313014463e-02 -3.335518230170606696e-02 -7.870607682028857299e-02 9.617575986242143937e-02 -4.503053868240457919e-02 6.670477681459005548e-02 -5.671888386309484331e-02 6.561789043466925708e-02 1.192368684185134316e-02 -8.294186462347688527e-02 3.346629607583778004e-02 -6.620361462515293727e-02 -6.533049114357430964e-02 9.967353797524677872e-02 5.003467570440912893e-02 6.557618011417533366e-02 6.478507099205393568e-03 -6.905349682955332080e-02 -2.598486970167018448e-02 -5.489485547738210541e-02 -3.493738399236259035e-02 -3.021774249377276803e-02 -5.018040875311020887e-02 2.528054831337119002e-02 5.796205826946881912e-02 -1.005060980088584577e-01 7.711537282576037822e-02 1.289666896435257264e-03 -3.621985846078500104e-02 -7.305021235175869487e-02 -8.169006351626462159e-02 4.058193938130067596e-02 -4.607172012336785416e-02 -3.346101370657876550e-03 -3.034374774959947355e-02 8.137935682694283357e-02 1.150761620744164548e-02 -2.961664694566110492e-02 2.522204266456933019e-02 6.938697786514340382e-02 4.895267064886003189e-02 -3.675984045457630911e-02 -6.723517172798758323e-02 1.451764240293627536e-02 5.763195155634554673e-02 -6.310330876514258502e-02 1.550665752686397093e-02 2.634398586048700142e-02 -8.592607492086053178e-02 5.066059549321065558e-03 -8.314471527823870389e-02 -4.646690653683754196e-02 5.850724428935560884e-02 1.076850098004069646e-02 5.018602155349524002e-02 -3.971179750861434515e-02 -2.557211045112738404e-03 2.017273744586987883e-02 -2.070554631311300603e-02 -7.760101659208788402e-03 6.880361891620289522e-03 8.979873944696042942e-02 -4.211482271140597200e-02 7.880112159747977574e-02 7.320234452494850386e-02 2.900967934446924482e-02 1.672819173406845869e-02 2.618707494358766055e-02 -3.485909837562393282e-02 -1.742518988436147706e-02 -2.192376966733664348e-02 8.304239233685836025e-03 -6.974008605840023578e-02 9.038066483278009433e-02 3.751971674451430594e-02 -3.455384179971075775e-02 -4.068862764322263292e-02 -7.728541693151527725e-02 -1.424685278205106492e-03 -7.895487224228178724e-02 1.459100598750810197e-02 4.107101928863485935e-02 -2.135888880522556627e-02 5.149358850997102360e-02 -4.831850300888759775e-02 8.901243788180274175e-02 -6.242277205093794967e-02 5.875340657241229919e-02 -5.892335046103133050e-02 4.428636935193652063e-02 -6.967421878662986671e-03 2.375976794952024476e-02 1.610998239653427255e-02 8.759226505446611466e-02 2.152052203143796708e-02 -6.057689818563145173e-02 -2.070722687599821712e-02 3.960965515181162633e-02 -4.761761061586522459e-02 1.484830825829049419e-02 -3.006394505348743487e-02 2.318098745879018305e-02 -2.274417223357244264e-02 -4.144155267939269444e-02 -1.119769795810877412e-02 5.629565853943251617e-03 1.449919436916233609e-02 -3.256563547838214195e-02 8.134960697741513980e-03 4.565317277462082983e-03 1.119714635226737656e-02 6.528130187244834959e-02 -3.962892620081130690e-02 1.988781773008391901e-03 -1.960535664833661876e-03 7.641032067963758612e-02 2.512688174529815674e-02 2.021742225577457044e-02 -4.671757865630649965e-03 1.058015956721344505e-02 3.836008721704656232e-02 2.603824063808180336e-02 6.329518281863803775e-02 6.281699996549065801e-02 4.808283805714892029e-02 4.204365120018196955e-02 6.587605788257400175e-02 6.833021937156984194e-02 -6.402857936225282709e-02 4.091008846838262852e-02 3.648744785875437935e-02 6.199804586251685123e-02 -5.917650135927324945e-02 7.666617057987405726e-02 -7.420473411684484766e-02 3.568595087382135655e-02 5.556855113763184504e-04 -3.080507700113451278e-02 5.637006186019279108e-02 5.118085463211310276e-02 -3.043742080056249799e-02 2.196596539080588467e-02 -6.064246376718368525e-02 5.275892303460247290e-02 5.986227772054523305e-02 6.751703076651406621e-02 -1.103777280513902614e-02 4.872863638442469919e-02 -6.908609410280568131e-02 9.090713326946067707e-02 -3.078463390066583580e-02 -3.987945024813055461e-02 3.673750017552500358e-02 6.922806902155566322e-02 2.489616896911267876e-02 4.347811980276220650e-02 -8.871338109208865355e-03 8.060489448793218409e-03 -1.057212550372146030e-02 -6.925588426519133090e-02 -6.351428381449170102e-02 4.876922660946821086e-02 7.314013413301478916e-02 -4.312964355804961569e-02 -5.689009855199689270e-02 8.698451386188243983e-02 -6.241416156345463984e-02 5.609462081398195604e-02 4.900401809915613111e-02 1.331383095054645797e-02 9.170213041748984453e-03 6.104751220131043876e-02 1.722631798017230237e-02 -2.813737717565983898e-02 4.441467918349003424e-02 -3.477049506888164887e-02 4.586378024327596170e-02 -4.648472563314780953e-02 -2.329190340192842726e-02 9.311890220509202662e-03 -2.082492632101381677e-02 -2.313213804358289771e-02 1.668092807647827969e-02 6.721916006370608210e-02 -3.237587413558380700e-02 2.663339681903614115e-02 3.676314746963085800e-02 2.456464183505494350e-02 8.008638793238768983e-02 -8.363179773675971651e-02 1.211773270493654749e-02 3.864422390767910387e-02 1.116495766229307768e-02 -6.555776523097615882e-02 -2.311445469722626586e-02 4.967498414142899887e-02 5.528316193845368709e-02 -2.354227585560036973e-02 2.569495310385656872e-02 -2.574202764790675668e-02 7.772092701536459369e-02 -2.357577379660754854e-02 -1.418996611809737393e-02 2.436453204737855718e-02 1.346350378928764559e-02 -6.987755515324520217e-02 2.324469480600515475e-02 6.664069835412733678e-02 6.494750337285359887e-02 7.338277046268365522e-02 -6.200541844677771169e-02 1.798007310593757388e-02 7.176813553434362170e-02 8.365538740369238280e-02 -8.835721471865894171e-04 4.216415162048988557e-02 3.333260863317679713e-03 -9.914695235013855010e-03 3.217202215388634268e-02 2.550613632990279128e-02 7.325855983284962347e-02 -7.927504989169779914e-02 2.451963742179227163e-02 -7.545542407817366903e-02 -1.049532402660609785e-02 -1.220267374776489756e-02 -7.161914200212193826e-02 -4.361437122425960988e-02 -1.099142396955839381e-02 6.182705916033477689e-02 -3.445183429934844943e-02 2.107383637894921780e-02 9.655461247493328514e-02 -6.273824471832121878e-03 -2.461628361491525335e-02 -7.448157055283029411e-03 -2.744451037462550258e-02 -6.299792839815195923e-03 8.016990469880419523e-02 1.415095807717108370e-02 -2.796208199574750849e-02 7.836211876748772065e-02 2.171434267800757129e-02 -5.773191945533733341e-03 5.034241615208560200e-02 5.793218697478549027e-03 3.609055356822545024e-02 -4.948595043048783365e-02 -1.815406809151188378e-02 2.915836190058827479e-02 -1.099705755281954120e-02 7.756584695281035224e-02 -1.627493528617318316e-02 4.309477493234401685e-02 7.579656503131382284e-02 4.715082531250895659e-02 5.393087536648039082e-02 3.549681691595325816e-02 2.796033749721100331e-02 -9.493714766169639163e-02 -1.170155971692256151e-03 8.456238987655129158e-02 2.473395556590565411e-02 2.470539014418893925e-02 -7.042308714998360419e-02 -2.671656994518293790e-02 -6.959814585440407542e-02 -8.733031230997163885e-02 -1.685154580367103673e-03 3.467109609586291330e-02 3.644854899252159691e-02 -6.887541663979104833e-02 -1.386303911092798789e-02 8.847358517094672248e-02 6.886330212754702973e-02 6.192204353956557578e-02 -6.958001536716483873e-03 -4.691665437128770405e-02 7.994456443449128591e-02 7.229507954972297368e-02 -6.845353416539788106e-03 7.002951935420359542e-02 2.508955664988220605e-02 -9.781657738250366940e-02 -8.960915657058284023e-02 5.737138401663631482e-02 -1.985918205224265071e-02 -1.218981792394614565e-02 -3.644826320522526197e-02 -6.906776981173797696e-04 -5.196426646749559286e-02 3.604668871378437223e-02 -3.233156888724378342e-02 7.414219205903876952e-03 9.370034177089411886e-02 5.589697625674158038e-02 3.679562360840793467e-02 -4.312872734001700625e-02 -2.069240459513721139e-02 -1.107363990736969818e-02 5.748166347995067871e-02 -6.943170524252306741e-02 -7.933603897607641176e-02 -5.369996915984241725e-02 6.819671193918977470e-03 2.581603843221488143e-02 8.920297783943376135e-02 2.982762178491639785e-02 2.280377140080907389e-02 -4.698489913941505253e-02 -2.295381490061456850e-02 -5.024061076863151065e-02 1.127287902685902843e-02 -2.539472492937103545e-02 -3.682930758548496469e-02 -6.294898994196831965e-02 -2.655290256935867454e-02 5.998734625825132005e-02 -4.575278256978088792e-02 -8.576062350340460383e-03 5.740632521523467841e-02 7.943930733878884834e-03 9.235057203618431132e-02 2.984980644072580958e-02 -3.451983412905008930e-02 -5.704174617193774610e-02 2.365323555016272603e-02 -7.850257984173519832e-02 3.940473697243483675e-02 -2.123021075579286168e-02 -1.784599461766350065e-02 7.623638886212745491e-02 8.333407286880539777e-02 1.666919700289916373e-02 -3.547106781083982086e-02 -6.715531600994076311e-02 -2.378691106796643889e-02 1.728287592796451042e-02 1.978349261013580968e-02 1.975179661318968150e-04 -8.185732316640792483e-02 4.631755015097500233e-02 -1.633827941698628300e-02 6.550144978936806028e-02 3.645040171151490288e-02 -9.418288269642433042e-02 5.008344112697664385e-02 -6.529700203454423535e-02 -5.718860199565051206e-02 -3.665043989080795511e-02 4.427886293042567617e-02 -6.588592869871019719e-02 5.255887298735750085e-02 4.282905138410695277e-03 5.286180995153140147e-03 -4.200798063731524257e-02 -2.067899889326985964e-03 -2.361344402705365525e-02 3.519199237761932303e-02 9.747308583018876593e-02 1.717576220304248280e-02 4.096995772049250722e-02 -7.416484373226314708e-02 -7.893956721617148564e-02 6.801905374650547842e-02 -6.417629937978612531e-02 -1.393409576646689046e-02 8.627530196879210078e-02 3.315298944429413697e-02 -8.559040328100915584e-02 3.257746226162312048e-02 1.256736912842698096e-02 4.789592457245021861e-02 -1.740008658732648643e-03 -4.260184187930914773e-02 6.061805311669449248e-02 3.351721808892865057e-02 2.974223941203019486e-02 4.844811741028982877e-02 6.036907481099026279e-02 4.647784457416217346e-02 -4.597243940064942025e-02 -4.362580864349245580e-02 6.868829833977279503e-03 7.564216922944645705e-02 4.980906900271923204e-02 1.723673158595848826e-02 -1.708844105080297229e-02 -9.341539297731939195e-02 -2.460115408232236081e-02 -6.149711082382657706e-02 3.091455906033712883e-02 -7.396995812499058444e-03 -8.645831286057456891e-03 -7.604710686592497382e-02 1.039145925903292994e-01 -6.680345010232126290e-02 -5.873889023354849498e-02 -4.937580658906099568e-02 -1.074649695511398738e-02 2.151304883181450259e-02 5.213956088234545511e-02 -2.757805615820570905e-02 8.442637995358744096e-02 1.582789280265787732e-02 -1.703783331035187490e-02 3.768876362581971562e-02 -8.006214499944454277e-02 1.793381519623452741e-02 -8.613794468714250363e-02 2.913432452335101494e-02 -5.438618585691869928e-02 7.978520646437306518e-02 -5.386998528482560278e-02 7.156687366494311753e-02 5.377600782062348650e-02 -6.395171493290785492e-02 -1.522994732579318125e-03 1.572970465322562350e-02 -4.043906379994250538e-02 8.298138004920203870e-02 -2.390518185013254179e-02 6.121828219673406540e-02 8.926502287008199199e-02 5.220162075670915780e-02 -6.016467300148348879e-02 -2.205599388274443601e-02 -5.575822928181058818e-02 2.735236722148315716e-02 -5.283302428117039873e-02 -6.108308221343298344e-02 -7.905651390238814524e-02 -7.267152765386873658e-02 -8.886005616801674611e-02 6.015712228149574375e-02 -7.225591408626014234e-02 3.251519087772629379e-02 -5.920901839786234938e-02 -7.449001422216247614e-02 -5.688416622651128185e-02 6.240623489365033916e-02 5.658820700582574414e-02 3.899124430205559017e-02 5.668788709587897767e-02 4.443221772997570790e-02 -3.038650358031370555e-02 -3.047446489630572380e-02 -5.035194202723426021e-02 6.680926557552258060e-02 5.505061703296407205e-02 -1.517647479892100804e-02 -3.799173307129124350e-02 -3.805728063679393331e-03 -3.397424955500860655e-02 4.486423928395077976e-02 5.553843361450734595e-02 -1.368875482629829284e-02 -6.264778029780994351e-02 -2.948950172309752760e-02 -4.904080396945431630e-02 -4.925434384553347734e-03 -7.854667613082642885e-02 7.672998428851228458e-02 6.455211683197603634e-02 -6.012521853132926641e-02 -5.163472864803427681e-02 5.381200775581829882e-02 -1.128035161329983549e-02 -7.887280792671887142e-02 -1.754566526222774495e-02 -1.953764017760431168e-02 -3.961242275648425978e-04 -3.158350292242258217e-02 -2.539768304323378884e-02 3.366663606382868518e-02 9.038048337486656592e-02 2.136367945877281835e-02 2.413802695539221319e-02 -3.983463746560808594e-02 2.801702417158625016e-02 -7.213732278091920802e-02 -5.101812420977532708e-02 -8.349420235289271852e-02 5.709368197918557319e-02 -3.860150531149816877e-02 -9.674696736879586853e-03 -4.822585540755566780e-02 8.545296277301751842e-03 -2.661426207494194812e-02 2.471853998297922697e-02 1.011057074783960896e-01 7.894505590351308388e-02 -2.196140332740730700e-02 6.568735663287794679e-02 -4.356772460102133204e-02 -3.390267734129123745e-02 -1.321032867754163426e-03 -6.300391505502839218e-02 -1.368290691153452483e-02 6.008431816378309587e-02 1.041786325185654373e-02 -7.670642685044895548e-02 -2.731748085167412174e-02 -3.375233232245831300e-02 -6.361249972840024580e-02 -2.346322305251740889e-02 2.493597079822136575e-02 -4.739179219656729225e-02 -3.611847684133730890e-02 -3.549964400715132501e-02 3.344506421134298135e-02 -5.672892691149059724e-02 8.224034910180406596e-03 -4.187744785024296451e-02 7.213816839595375840e-02 5.732049202365667451e-02 -4.955778731595406050e-02 2.547221642470894314e-03 -1.463068230176902372e-02 4.643918688016663437e-02 -2.599317327154073917e-02 8.130676097566612304e-02 -3.113237776965114417e-02 -6.615429541700000755e-03 7.744044711121150781e-02 1.555204283539721698e-02 5.671997491679846293e-02 -2.986068359295429575e-02 -6.196499991117102729e-02 -2.680749954542781255e-02 3.774845581206835027e-02 3.201096060531324894e-02 9.612746571835412493e-03 -5.168489310650089402e-02 4.497467093762399365e-02 6.097823391843572305e-02 -2.077211433237750871e-02 5.215624321808219610e-02 -8.828499558603344899e-02 -1.405720032977576459e-02 -5.971814771764116098e-02 6.394163221199986036e-02 -3.864271697791521031e-03 3.523439187087918506e-02 4.618428427205061026e-02 6.083157656644430644e-02 4.619753521304713340e-02 -2.476673551378503341e-02 1.460802926839864166e-02 -5.686498382500541210e-02 8.491029447197764868e-02 -7.985771901664671935e-02 -1.001355271482536335e-01 -6.624719107500165460e-02 3.906555926715957888e-02 -2.679588572556737373e-03 4.548701113402450064e-02 2.453410560645601438e-02 -7.638519040174766850e-02 8.864786989456791000e-02 -4.124686258686558610e-02 3.317322127499620216e-02 -6.703144546735025078e-02 -4.601073741222561075e-02 -6.034529197693815072e-02 -2.255845175087715405e-03 -6.210066406861052685e-02 -2.319640722670775548e-02 1.752974306443218916e-02 -4.474943415873205294e-02 4.398634351091547379e-02 -3.684340170809272119e-02 -1.647359704965379798e-02 -7.907963174544273277e-02 -3.190157540245642381e-02 6.157593176717716943e-02 -5.176092484344182315e-02 7.395527888454879462e-02 3.007364159091309094e-02 8.318750686051274573e-03 6.708222747478173598e-02 -3.523679350837986834e-02 -8.230834099119417602e-02 -8.485053840616035847e-02 8.014728207142557403e-02 1.064898796952763321e-01 -2.253543300358936893e-02 -5.401110013540291049e-02 -6.498056654841945223e-02 -5.958178198534946207e-02 8.917584496756522650e-02 -2.911023847625903577e-02 5.812553303473044775e-02 1.753221329086922242e-02 8.371013686586714631e-02 4.555317094190636240e-02 -3.893494444393858639e-02 1.086139123446145088e-03 -5.620390150334612922e-02 -9.542949423329738501e-02 1.544139354237908032e-02 -5.454841238100262973e-02 -6.102569910937565012e-02 -8.754887880147595169e-02 -5.418493096844743950e-02 -5.847917355746291151e-02 -3.380356361775378043e-02 -8.468759980309704949e-02 8.119177983299283308e-02 -7.881988724237407040e-02 -4.561868506342611068e-02 -3.576152695530037621e-03 -3.575865521838936939e-02 2.265912936044670034e-02 -5.332205746285427483e-02 -1.023248770783699579e-02 -2.046729039517130103e-02 -2.766511013614801617e-02 -7.147846820821715519e-02 -3.727847184494814670e-02 4.688911099894821181e-03 1.509610010269483472e-02 -7.067279043384722126e-02 1.594456223428378921e-02 4.300447627357000674e-02 -8.852155669158470741e-02 1.908678855754384132e-02 -6.529681658353031493e-02 1.182502735120939327e-02 4.851184461241976609e-02 8.538410723716942374e-02 1.382731879090609052e-02 6.099076356519586573e-02 -4.628240020360840923e-02 1.972093146118929360e-04 6.130847118232415210e-02 8.493056638531039371e-02 -7.238504085183972148e-02 1.557635171282208131e-02 -2.702745835066467858e-02 7.375128275724140460e-03 -3.962261315667554937e-04 3.192216921121725920e-02 -5.710713319786411141e-02 5.093258752496052782e-02 7.218795464051729061e-02 3.116980417585673083e-02 3.693106096736430144e-02 2.988802627187087807e-02 4.206604858936297681e-02 -2.651193980248982979e-02 4.527746355816344298e-02 -3.806585101142296451e-02 -2.984599201058492357e-02 -8.951899024976298080e-02 -2.144663521187564412e-02 -1.237377080541938665e-02 7.767104803589344741e-02 2.546078235781710011e-02 4.726469154517587423e-02 -2.355372009401419942e-02 6.479289611956777495e-02 -1.030563433825617409e-02 -2.047971798151197384e-02 -7.327557336622617101e-02 -6.356414730881879138e-02 2.474381222457389118e-02 1.057025365118981070e-01 7.440633233429956236e-03 -8.062699962239677776e-02 -7.716623516002056593e-02 -6.894525373574145188e-02 -1.352163880185723067e-02 -1.807077485785097077e-03 2.144012329769445779e-02 9.057658678846057521e-02 -6.996107255804314036e-03 -4.879032565409974209e-02 -3.566792513905824025e-02 -9.140945225454355505e-02 5.987179640828470956e-02 3.235346479295190397e-02 -2.126053959627474330e-02 2.642539858377744230e-02 5.679460113410583766e-02 -3.702349433852017424e-02 -1.699694574375670494e-02 -4.415737151373318875e-02 -1.053790425556702243e-01 5.683666798203949183e-02 -5.837232170456813085e-02 3.326454636705316464e-02 -6.693614643520266749e-02 -2.493746062237913244e-02 2.413126407027733206e-02 8.615239154781192954e-02 -4.798559017347970440e-02 -3.497962431279498519e-02 -6.979122779807749033e-02 2.862984399416892284e-02 -6.651505779104029820e-03 2.873435381982984704e-02 -7.624990872217046745e-02 5.481340686934707551e-02 -5.876368182681065977e-02 3.212964206776165038e-02 -9.716540923059521773e-02 -3.985542713107013274e-02 -2.712427806450182222e-02 -1.205401594535627802e-03 5.550505215441269707e-02 8.459110078676627953e-02 6.802045902594090754e-02 5.939059230673863349e-02 4.975813005398289218e-02 -8.878720838395953718e-02 -8.223064548974517302e-03 3.176202559000833314e-02 -4.253392808523510232e-02 2.530645254480240816e-02 -2.490733829732695234e-02 -7.175179450457418173e-02 8.454446237691391752e-02 -4.164104747874237955e-02 2.814344366999563425e-03 -5.915256590189587335e-04 -5.727651790168575285e-02 -6.448293233779713030e-02 -1.702871194506251629e-02 7.347643304403168873e-02 -1.082051240194362857e-02 5.458831238289192644e-02 -1.751483877088295601e-02 -7.515131499134528048e-02 2.937032683539154976e-02 -5.187946247010132017e-02 -4.391022203795087731e-02 -6.770853223404184329e-02 -7.940366938740646419e-02 -6.680673635907520558e-02 8.070085902625130647e-02 -8.639958600256547258e-03 4.095078587579803475e-02 -1.467604189465868646e-02 -5.210722584875406016e-02 -5.409473724056058919e-02 -6.111807826181092640e-02 -2.440633075190707518e-02 4.201407535175093189e-02 4.992401390957342672e-02 -5.168624180486646597e-02 -4.243122972886825134e-02 3.408769848496466526e-02 -4.736774322977690965e-02 -6.563918185361930502e-02 -3.484658474377891335e-02 7.876680745787908999e-02 6.831282404228571081e-02 5.180710785249949962e-02 -3.623115935884182320e-02 3.399369172025752672e-02 -4.729062022676438354e-02 5.825038467648526591e-02 3.757385816532570616e-02 -4.523388368304315232e-02 -5.534253633176180326e-02 2.293293238008333595e-02 -6.787114310751919677e-02 1.172468923771408968e-02 3.645822247438922775e-02 3.009396653430011781e-02 -8.658170979780679954e-02 6.755858462929412167e-02 -2.527184763456396741e-02 -5.556783186596844781e-02 -4.582425383034981203e-02 5.806409772021230847e-02 1.768219787003189741e-02 -6.805781954358394725e-03 -6.619033758769493625e-02 -3.154684978514161325e-02 7.253164230975100990e-02 -1.997467714656950624e-02 -5.869248324678587314e-02 1.085839423800962454e-02 -7.394222633078731399e-02 -1.021174760989143199e-01 1.232926328731986931e-02 -2.334371927271180688e-02 -4.809717085988969576e-02 -4.439439050651398933e-02 -6.801043575559172216e-02 -2.692616467034618377e-02 4.091800291620440594e-02 -3.358918191223377644e-03 -7.121200601970228972e-02 -9.922947699997399992e-03 3.519018852913013973e-02 6.438002471603955501e-02 3.907400920608308792e-02 3.263101139952988283e-02 2.935599383233837567e-02 -3.377434366667028676e-02 4.748029043558690127e-02 -3.355475006332592908e-02 -3.702169972582277247e-03 9.032968367207344640e-02 -7.838839008208038639e-02 -1.289110805996406548e-03 6.576576290532175351e-02 4.722372111147873919e-02 5.690528346154810797e-03 7.941121236015873108e-02 5.843038522584016736e-02 -8.326845409368151263e-02 -1.009751267957932908e-01
2.358349192139939932e-02 -5.772782712044920855e-02 -1.478610742430777961e-02 1.431245992448957477e-02 -3.457659907800313126e-02 -6.747040208211005016e-03 -1.430740583671339522e-02 1.201478414013764512e-02 -8.309330459453326267e-02 -3.135656444944945592e-03 -2.101168219936887585e-02 2.123257170713795453e-02 -4.366953610372856925e-02 -4.472843098717016463e-02 -4.057649588625148601e-02 -1.635749099996251787e-02 1.270119187821403071e-03 3.616493927165494171e-02 -2.293471023354773375e-02 7.245158805227079613e-02 1.688242216540989868e-02 -4.371988541018823754e-02 1.838556365934481199e-02 4.711122465415907429e-02 -2.717919122707129764e-02 5.729283238326197264e-03 3.967767151645599372e-02 1.099068107730102883e-02 4.857691533810170464e-02 8.844989717325359158e-02 -4.484860266941775170e-02 1.356517138908406098e-02 4.966241860985692869e-02 -3.498665969996458264e-02 -2.995336142240164271e-02 -4.626139886078822067e-02 5.995757019297596330e-02 1.371723662215055888e-04 3.912158724438980634e-02 4.338819306483410188e-02 -7.676800148840741411e-02 -5.143119437827112228e-02 -1.895287768538257006e-02 -5.219003829955488893e-02 -2.694687192167207965e-02 -8.416762539406680288e-02 4.484929037218285397e-02 1.334739417139645806e-02 2.721231002651781916e-02 -6.441261161770206467e-02 3.659944323764013213e-02 -3.590139117307544064e-02 -3.939231934488258979e-02 -8.120987207164107047e-02 1.994958728111419222e-02 -3.887489107499796093e-02 -3.236015288128115536e-02 -2.827943215826209111e-02 2.834707353816985631e-02 1.564211499895398413e-02 -4.707623012307215332e-02 -1.326985595122734439e-03 4.323012161141642773e-02 -2.014227047923504085e-03 -7.038285499863748684e-02 -1.659282212618787278e-02 -4.684256569678062893e-02 -6.828537966786469432e-03 4.536368286518219217e-02 -3.848693308825221898e-02 5.638191341765734499e-02 5.709713959426147845e-02 6.670308932163415694e-02 5.535117580556648403e-02 -5.235466910038913402e-02 6.806852822676547066e-02 -1.606133869161197741e-02 7.245778985019050988e-02 -4.151881633075064221e-02 -2.374517884871065604e-02 3.233346948547204114e-02 1.553840296561990846e-02 3.446347803379098962e-02 -2.200255185098255739e-02 -6.078544817072422529e-02 -1.807103112368331488e-02 -5.090107399998403809e-02 4.765079709263918273e-02 -6.019469403405403041e-02 -3.163626642559240476e-02 2.443771242798724666e-02 2.018026304835879303e-02 1.266549919051587238e-02 -6.190730416160524635e-02 5.532700074473696772e-02 -1.484002286677307868e-03 -5.536494037761424680e-02 5.199832157426891727e-02 4.446771154074472682e-02 3.381969854603861930e-02 -3.075802880315663471e-02 2.279847867437974698e-02 -3.894186035795901835e-02 -4.044433605016155980e-02 1.498836225421131679e-02 6.161416849440004735e-03 2.770499309816679481e-02 2.302602149688507543e-02 3.379517404305434902e-02 -3.980744848934002211e-02 4.788785998685048118e-02 4.633961925281554484e-02 3.210801102161433412e-02 1.494189824290251267e-02 5.576471101039155026e-02 8.240645129522479115e-03 -1.631536850173977843e-02 4.206649060088103048e-02 5.027587062248187189e-02 -1.529883100027611825e-02 9.220279931701227949e-03 -2.640451742111986355e-02 -1.216971706881557263e-03 -5.629488957800543592e-02 -6.171710591483857422e-02 -5.443053210794580876e-02 6.503257288414900084e-02 1.261121927065674171e-02 -5.047280140522329012e-02 -7.309653209372037053e-02 -1.627751061299513233e-02 -8.387862744846244847e-03 4.243174037874367088e-02 -4.010281799428273147e-02 1.110130914798810112e-02 1.895410697107460796e-02 3.482931218292281000e-02 1.438417746119979510e-02 5.965962692150884872e-02 -4.418175350152100250e-02 -4.928984050699531522e-02 7.291670932518463932e-02 4.889822211592789042e-02 -4.333844334419338640e-02 -6.370796564668169959e-02 6.619017681778596729e-02 -2.997016714069092660e-02 1.936179230491423889e-02 -4.355742245699981141e-02 9.541206484220559475e-03 4.912923861441628043e-02 -6.990276922526443559e-02 -2.122355762980303664e-02 -5.108408753917013240e-02 9.780022874960764626e-03 3.305500890803881459e-02 -2.772426316267518134e-02 6.155417369890530538e-02 4.905862763800717535e-02 2.772453752264627397e-02 4.135845878908937789e-02 2.487025527415307261e-02 -3.243357224371860165e-02 5.611793178407793042e-02 -6.492239173257183249e-02 6.554365364323336274e-02 -4.801346993269543090e-02 3.734440283292563001e-02 5.192353525530959274e-03 3.769868557774581214e-02 -2.800350256156649772e-03 3.188841914353211099e-02 1.113343245667773249e-02 5.969893528730859864e-03 -8.288423917268807062e-02 4.531555713688840969e-02 -3.115665169803727430e-02 8.892594344021082647e-03 1.832521105005840631e-02 -1.658409630224714007e-02 1.810752522293703273e-02 -4.011779611854641645e-03 -3.719706785306493152e-02 4.085266990150352578e-02 5.325774473533001485e-02 3.506599302044274835e-02 -4.301941690538773483e-02 5.277044851719922547e-02 2.573872380742128416e-03 4.753478789407400429e-02 4.572643344668445714e-02 -1.495253465755781545e-02 -5.416367817501558518e-02 9.761606383582579420e-05 5.145381050001059109e-02 -5.150068290075240224e-02 -5.629553614828341351e-02 1.220889974071307296e-02 5.286530458034676555e-02 3.569569210430969392e-02 6.975135097526385941e-02 3.115380275925782108e-02 -6.049624008698410715e-02 1.598065852973000467e-02 -7.898375775060598181e-02 -2.522641507488396911e-02 -3.427650100346224527e-02 -3.783017786590189141e-02 -1.220095777788345395e-02 4.647346281978347038e-02 1.161044034686422623e-02 -8.626933565353990530e-02 -2.646011956082669481e-02 3.759641865020558332e-02 3.002429441615694916e-02 4.110278434431616917e-02 -5.768591300513656317e-02 -1.616696450495356749e-02 1.790902994594912104e-02 -8.696067614647778887e-03 -2.577331070578139580e-02 2.820223701932146262e-02 -2.755328032771289098e-02 4.468085467857706161e-02 -7.657584927571348121e-02 -1.315975532554884871e-02 -9.855835767592495064e-03 7.039637957321773221e-02 -5.972436083702327425e-02 -4.977725088100515283e-02 8.628949145924144637e-03 -3.004838480872311281e-03 -5.868957259549074240e-03 -1.515657855379690805e-04 3.738742694514255588e-02 -1.070608715194805091e-02 -1.624212912008408602e-02 -7.711624054679865059e-02 1.642851045219998266e-02 -5.828825568348046382e-02 -1.283995026077157375e-02 9.084410615090401583e-03 3.900824041996735301e-03 5.032314042420317664e-03 -8.768229822426984801e-03 -9.218970687599029740e-03 -1.949615581514172954e-02 1.105277851002264659e-02 -4.753666924797269461e-02 -7.638833898946863210e-02 4.650498013639972616e-02 6.961315069422835400e-02 5.101563025138601548e-02 -2.840176499713456884e-02 -3.603687016081376371e-02 -1.263461163756351459e-02 3.162378598032048599e-02 -8.852010574977270396e-02 4.930556350822219019e-02 9.159302572107366064e-03 5.361094214228736415e-02 9.288280607547882983e-03 -5.332793123371305094e-02 4.092949261432164698e-02 -5.145870351165644785e-02 1.110506448664792811e-02 5.497953452116556561e-02 -2.125416310906792089e-02 -4.275621810514189380e-02 -6.510289436831386001e-02 -5.966340180022288407e-03 -5.307963793034312788e-02 -2.469018341039360201e-02 -4.116680703037080622e-05 -9.015088950844074578e-03 -2.567989626459062785e-02 -2.017781838018995605e-02 3.572569724988208621e-04 -4.695407720742701685e-02 5.916168688313844931e-02 -5.219370227040098092e-02 -1.791150452652879102e-02 1.527552577772957852e-02 -3.671602776354122161e-02 -1.008583339863538923e-02 3.383453431670991468e-02 5.047860471502527147e-02 -3.975333397689956305e-02 -8.961304425230073173e-03 -3.734798750092086644e-02 4.521502624135278342e-02 1.975448220526651935e-02 -3.931879657946717871e-02 4.504293391015962850e-02 1.873824403791501253e-02 9.863411249272639736e-03 -2.400185066852301985e-02 -1.774768488184567451e-04 -4.024562530050848456e-03 -5.255901692975854800e-02 -4.122323820314530846e-02 -4.687582308951690480e-02 -3.103902966989359816e-02 4.853330884084885999e-02 -4.027075781764090714e-03 -2.453251468969618043e-02 5.794058309072221830e-02 -2.140754456971637881e-02 1.319889636753053368e-02 -6.710345830584314719e-02 3.557034154833900452e-02 4.644602915720946745e-02 4.896668365400708156e-02 -6.444702267740770596e-02 -6.752034594493806774e-02 1.341709276059842824e-02 2.683979441084228049e-02 -5.830536179084771370e-02 4.762914939349137400e-02 -4.220222700319124082e-02 1.649080113382335455e-02 -8.204214537963232592e-03 5.137804054523195663e-02 -4.792855688321022434e-02 -2.743293809595464053e-02 -4.161900458009482398e-03 -4.856037034429510485e-02 5.419339332170573093e-02 -1.080747513879120464e-02 2.499662470975980849e-02 -3.232953840985906130e-02 -1.610842540942201973e-04 -3.167327362470976574e-03 -3.169041185429845309e-02 -6.171537781902355913e-02 6.011207458819309291e-02 -2.599199712519248071e-02 -2.807778788031298559e-02 -6.324455683410740159e-02 3.042706545903239509e-02 -6.329722122863473688e-02 1.816606242942193916e-02 4.767753319502795323e-02 9.286694271579241933e-02 -3.094592059844193319e-02 -3.747556663729430942e-02 -5.293975276372283462e-02 -3.842505690559510495e-02 2.232836191706050535e-02 5.578272371688339920e-02 -4.630955633478812949e-02 9.280950180476434108e-02 -3.394063547746847126e-02 4.147216460577077268e-02 6.103385513180594607e-03 5.054515282405654120e-02 4.588582314435715737e-02 -2.517861625361656613e-02 4.627715798985967965e-02 2.744253353142721286e-02 -7.119830169355743921e-02 5.234276359175618620e-02 3.010086998779366169e-02 -2.198543342807933367e-03 5.187078761584769382e-02 4.790288924571091400e-02 6.142929765882772231e-02 -6.114292440974877091e-02 -1.373140182135503852e-02 -3.084937145196429368e-03 2.984556239582006679e-02 -4.310442087736885558e-02 5.328676998850574026e-02 -1.938235501055276394e-02 -6.173426209810894266e-02 -4.807947850956206803e-02 2.449872370968720660e-03 -5.301091465504193662e-02 4.683794857149158053e-02 1.675749776613673359e-02 7.884778738568563872e-02 -3.806492736747901090e-02 -2.811171082392930828e-02 -8.345954257323717068e-03 -2.205804226612137139e-02 -2.978146955621725073e-02 3.760257666880965216e-02 -1.687341470848493369e-02 -8.901824620342691299e-03 4.767719095533297369e-02 -6.055080500932703141e-02 -6.015040381333948416e-02 -3.873978492986709238e-02 -4.299402748700696664e-02 -5.860977231483529420e-02 -1.651366118720185711e-02 -2.013624898320634168e-02 4.432972159979933768e-02 7.852178550092293874e-02 2.330792644597641863e-02 -4.873390855335963529e-02 -8.808729537005649535e-03 5.853903211707169735e-02 4.432091178546810478e-02 2.522624741338924323e-02 4.937538120304577755e-02 -2.260600785013640313e-02 4.584752159961141826e-02 -5.123060145021627113e-03 -7.872965602482656644e-02 -3.404799612143085547e-02 -1.473349687291384755e-02 -1.156837247907309407e-02 -3.341511541421568476e-02 -2.331317381030325112e-02 -5.800328508724564291e-02 -6.131065280870429818e-02 -1.830393327655950586e-02 -4.447620619852795526e-02 3.451427003361400708e-02 2.076653668516328238e-02 -6.446316062730908687e-03 2.831999450613906927e-02 -2.321086381822288006e-02 -5.774167676626702772e-03 -2.883604875575252607e-02 3.751425859107756361e-02 1.476355404099108717e-02 1.555356116245564836e-02 4.142017700791045948e-02 -8.999759139876257683e-03 -3.770753309088827054e-02 4.607948398788681149e-02 -3.311909479432541270e-02 3.859394291238366775e-02 8.244414716196094006e-02 -2.242251916545515145e-02 -1.335598877492982610e-02 -1.562519999830304374e-02 -2.249687728055936933e-02 5.985801550152422545e-02 3.168204882414650536e-02 3.844866862096188442e-02 -2.685475702216977636e-02 -4.443372361228496020e-02 -4.098403791571135490e-02 5.946872589574588724e-02 5.337298640064160743e-02 -3.438200280063519187e-02 4.270389411494500409e-02 -6.495155818647883883e-02 -2.068919905669398124e-02 5.538572667292161744e-02 -4.658637176371930450e-02 7.017859602080166181e-02 -3.016405422910996281e-02 6.823048736396047920e-02 1.606043689571214420e-02 -5.199698241917414913e-03 3.918693709702336658e-02 -2.926518107363339487e-03 6.555306992343988559e-02 2.141648833033260590e-02 -4.678277014186151689e-02 -4.849937408534564509e-02 2.624269090926075951e-02 3.781836991489165994e-02 -4.788630613037339612e-02 1.547788668473296710e-03 -1.834626216284488548e-02 -7.734500882115287988e-03 5.029834383926946179e-02 -1.099102414745610837e-02 5.359098701014756300e-02 5.171527598755568805e-02 -3.681236502915463671e-02 -3.756907325951026194e-02 7.128572479179749732e-02 2.781518832674650596e-02 -2.372925655673328513e-02 -2.094519855834392832e-02 4.061545364796610019e-02 2.365578162653259042e-02 6.946005732543427715e-03 -9.391615739967981713e-03 4.976172222565969361e-02 2.467782418384016976e-02 -1.828500384530617681e-02 -3.487541475480074316e-02 1.645255633529761272e-02 4.280381415914131377e-02 -3.783163044902787542e-02 -5.288785726055549724e-03 7.406827418694930665e-02 5.315121374008822258e-02 -3.489040571657778256e-02 8.508124512227680783e-04 5.592906636556591038e-02 1.129527115120733567e-02 8.404969105571995572e-04 -4.621063065224104843e-02 2.405801655982793552e-02 -3.638635689600824841e-02 -4.490820420101142990e-02 -4.347356528041819608e-03 -5.757149507404275834e-02 1.643824464079758629e-02 6.929615986603852862e-02 5.344473114691450366e-02 4.966817585698057869e-02 -4.556835551833503251e-02 -1.464237880088967853e-02 -1.243224798842833788e-02 2.302181528218453718e-02 -4.640600302450179071e-02 -2.760887767030298021e-02 4.410987186681852856e-02 -3.147824311427394745e-02 1.105066350969454748e-02 2.630786434207564584e-02 -3.908054353209276799e-02 -3.379102867692954787e-02 2.149323870667129224e-02 2.641405218286862686e-02 -3.391799802299109989e-02 8.346499165903430162e-03 4.297275410039763655e-02 -8.314275491164624041e-03 1.102033014792156394e-02 -2.571193634280011936e-02 -6.551599174696450846e-03 -3.024817993123198046e-02 7.103867986903943110e-02 5.795119698604522113e-02 -6.005498326104046630e-02 5.542915660128147626e-02 -4.461423259139063457e-02 2.990622263815245329e-03 -2.167557489760688766e-02 -3.806788287378539554e-02 4.645220723061660451e-02 -5.830507210733396409e-03 3.841301957688595531e-02 -2.543610458462778473e-02 8.177667720890360870e-03 6.910088983869679125e-02 4.993464340203058321e-02 -1.361564546917351168e-02 -1.758447435113104362e-02 -9.552964472249712152e-03 -3.525249685802033656e-02 2.927287287038866231e-02 1.942926152969915929e-02 2.406874023460097572e-02 5.959711545096403607e-02 7.663755185674645323e-03 -2.687079361747727463e-02 -3.822446316209736350e-02 -2.212526854786697056e-02 -7.472437814129367917e-02 -4.871512904925918291e-02 4.644215429936279782e-02 -1.427914851063354952e-02 5.218366966002991464e-02 3.490639474175477597e-02 -3.137777730696639233e-02 1.741413037226577018e-02 7.316690331011863058e-02 3.482328532781259200e-02 1.732758010174481958e-02 4.644868180408318406e-03 -6.781911933763938582e-02 -6.214785159407777010e-02 3.468119133430187795e-02 -4.054787728051311747e-03 4.626867768525538783e-04 -6.907960729660089783e-02 5.634900164333918327e-02 -5.035102205980038215e-02 -2.813674107935761406e-02 7.018244821599944894e-02 8.410216020355716637e-02 1.718779149645984633e-02 -6.466410189959942434e-03 2.895751727651761295e-02 -3.019748239648020402e-02 5.395103376120571198e-02 -4.418642287304451466e-02 4.680958858513532134e-02 2.776349567499262691e-02 2.754133045514274829e-03 -4.939033782999378841e-02 4.907392859407308516e-02 -2.012725596897646865e-02 -4.582551223869195389e-02 -3.614812751403449764e-02 -6.346862083329399273e-02 -4.454320832595086432e-02 -6.613060542506789263e-02 -1.734062848650930752e-03 3.773748628723118653e-03 -3.593198853999820391e-02 1.738223652260422608e-02 -5.624149880934723594e-02 -3.747969115684866154e-02 2.092502543140346491e-02 1.668567490529674138e-02 -3.841185657307361317e-03 -7.693313117081265751e-02 -1.384286975418902270e-02 -5.877766718031633003e-02 1.749851219780215045e-02 -2.235652245870107732e-02 6.503952792444979425e-02 5.647611338285490196e-02 9.943577428239883109e-03 5.384417869183661526e-03 4.777708989704810422e-02 6.983907063332821241e-02 -2.302731806556493691e-02 4.760304600860785357e-02 -8.705360547316335143e-03 1.430912999818789375e-02 4.806549897435421353e-02 5.703861149285315707e-02 -1.705929257751688174e-02 -2.524656798022922866e-02 -4.923110708790005841e-02 -2.351088014966222581e-03 -1.093303762980298195e-02 4.580847314983088614e-02 1.067900029157440450e-02 -3.425622599054978235e-02 -5.156169735842971308e-02 4.781067490323535202e-03 3.556144480954447767e-02 5.490475449679557696e-02 -9.044406060102481645e-03 5.395335562967269738e-02 5.593540215888231915e-02 3.421170425133664150e-02 1.578347479642228449e-02 5.067254261364407403e-02 2.782156300872892091e-02 -4.373068359320547716e-02 6.022687374493223417e-02 1.336816446897573334e-02 5.467834572260894116e-02 5.443920248796484118e-02 -8.654973922593657554e-03 -6.343758103000980697e-02 4.449473107760025525e-03 3.700313152996027172e-02 6.273063501756494372e-04 3.123971911982173152e-02 4.033987500112379276e-02 -1.437242495810290600e-02 -1.992724831397109375e-02 1.545405528216872888e-02 -6.309797714997882750e-03 -1.957202565572968914e-02 1.627668658873455271e-02 -1.443892095116205629e-02 5.280196271967617372e-02 1.137475915321070011e-03 3.565145356079528483e-02 -3.202560730872786726e-02 -2.811124477616818926e-02 -3.627666977647433372e-02 6.410260849946206041e-02 4.230420592378621170e-02 6.111422684786480680e-02 2.982901371026839936e-03 3.232180531749901352e-04 8.042371618247388596e-03 -1.131733426976548086e-02 3.423037910032535741e-02 6.432186222984595525e-02 -1.320951668277667475e-02 7.525279477065892342e-02 6.578745356244007636e-02 3.248938762906923572e-02 -3.563649167204559903e-02 9.733829389846048938e-03 -1.878500641483098546e-02 -4.821452728581950009e-02 1.106370412184002824e-02 7.341051452645639200e-03 -6.105131585366198321e-02 1.229134774099555419e-02 3.062236606359486357e-02 -4.257903401933579163e-02 -6.262116134984441196e-02 -1.863616594790214187e-02 6.623638494205658089e-02 -1.961507920272633973e-02 1.760788709900389451e-02 -8.390862033877452553e-02 1.632039637280438549e-02 -3.710848710064761861e-03 -4.879657325253390632e-02 1.297167009967937828e-03 -2.409134057824634592e-02 -6.244655961527434407e-02 4.711948105325145658e-02 5.604087460134379167e-02 3.514450353777269498e-02 -6.768759258747308882e-02 1.389817724110190174e-02 2.909852698858068562e-02 -7.675416622988220916e-03 -1.039203065411400777e-02 8.799467386768027380e-03 2.831198291901687938e-02 5.453284392943962000e-02 -3.309690015800532958e-02 2.247543685045375397e-02 -2.499484293588763451e-02 -8.133031361622529432e-03 2.271593998769007739e-03 -4.665676003244837583e-02 -2.508979883981811779e-02 5.384858986599218300e-02 -8.578914390415537383e-02 7.470653918236434821e-02 -5.251789696510711716e-03 -5.442310937151756053e-03 -2.511381852682410820e-02 8.926302868874481586e-03 -1.838948855849283082e-02 -1.963818689741487350e-02 -2.315391532447518344e-02 -5.055995510388300307e-02 5.663263873287983224e-02 -4.774324858850630821e-02 1.912655704947493476e-03 -6.188092039315765819e-02 -2.915258169070131244e-02 -7.739471375837013445e-02 4.078831739356175712e-02 -6.472651312234160674e-03 -3.612587718373312662e-02 -1.449983760421648567e-02 1.082290545251069413e-03 6.241297552535025189e-02 -6.371855448003517497e-02 -3.995920723368773936e-02 4.447948551260440947e-02 -5.279349300577806242e-02 -4.794564374662003275e-02 -2.064790919239924832e-02 -5.705231849137994138e-02 -6.721108305840567398e-02 5.565121455345639623e-02 -2.794505312315808190e-02 -3.274781343099032738e-03 1.980728159706382496e-02 -3.327920027105370215e-02 2.385138471533872553e-02 -2.326138989382423028e-02 4.991301079315995509e-02 2.166587502243423613e-02 6.774304900226137648e-03 -7.929321654577331513e-02 -1.650896641638678261e-02 -4.866429571319665776e-02 2.342639126026178562e-02 -1.066494807572930525e-02 3.909487818715930846e-02 2.351208965466055137e-02 5.155140409919515415e-02 1.186061347952251967e-02 -6.773903949210750841e-02 -5.626752635013657078e-02 -7.110499813814201431e-02 -4.611284397502896787e-02 -1.949671184735093238e-02 -6.747238528722683537e-02 -2.475118621372315517e-02 -7.250205841982423037e-03 1.396139412557746880e-03 3.899776660164255143e-02 3.604582931750833358e-02 3.454768182914601249e-02 -4.307718161194489664e-02 -1.569644701033461390e-02 2.505699828956596542e-02 -5.353832431171431233e-02 4.969486565911955533e-02 2.427298803367919713e-02 -6.596733889777013637e-02 -6.076274865565070571e-02 2.484951132422279219e-02 3.393253244361209980e-02 -7.662012041098432980e-03 -3.435909920771587633e-02 1.291298487230102023e-02 -5.054058589742717322e-02 8.202587138929955113e-02 -1.474062571537720391e-02 3.387255833398494093e-02 1.709394424103050439e-02 1.503489850921190842e-02 2.858113638149855501e-02 7.926050136088278256e-03 -1.501156214223480639e-02 -8.147032109536408995e-02 -1.099058259564141687e-02 5.254313565323580348e-02 1.518880703890230013e-02 1.268359369483383452e-02 -2.086520598169621168e-02 -5.200388257729788265e-03 2.005907816108197864e-02 -6.542032764204622208e-02 -6.421456825942488400e-02 -2.466239074354521776e-02 7.951556461703319922e-03 -1.005189332961962945e-02 -4.718623356947801439e-02 -6.562937223966293365e-02 -1.685259957500810646e-02 -6.965164057866630141e-03 6.473217793379870688e-02 2.432208546889718520e-02 7.072131367278339242e-02 -4.082601071095368073e-02 -5.087584088610584004e-02 -6.442087641840021917e-02 -4.874108435038956161e-02 3.077728610638402057e-02 -5.336138030846484387e-02 4.089305014397149815e-03 -5.935091407357667714e-02 4.659313266146660609e-02 -3.355712942464048748e-02 -6.066520943118130192e-03 -3.303745857066998221e-02 -5.538866866573221963e-03 -6.374006867417417177e-02 -2.630153540903096623e-02 -9.440999486800364174e-03 1.208106735156977418e-02 2.850689557258508783e-02 -4.446545380546906845e-02 3.960351357855031867e-02 -2.483200733516158568e-02 5.734683614273695246e-03 -6.887649897481687954e-03 1.504867214044165909e-02 -3.568084013336111915e-02 -5.181260353991732660e-03 -3.800925663268212712e-02 -5.066805449618957957e-02 9.774212191698336544e-07 -3.784380536109332310e-02 4.596538618037533663e-02 -4.843825302631693530e-02 -1.974414336968641562e-02 3.705232452924561021e-02 -2.746824552477777903e-02 -4.628177141764836661e-02 7.112204398106147796e-02 -6.257628873059645214e-02 1.351236233139145593e-02 -3.941238701524053811e-02 6.243261848771726463e-02 -2.909018555912811638e-02 4.862072700838308142e-02 -3.914852515919324538e-02 -3.804272337537108889e-02 4.120525636452210955e-02 5.023948667724614098e-02 6.536746284598992773e-04 9.314007688467714277e-03 5.090971703444028412e-02 -5.908713905107750020e-02 1.693236007493562068e-02 -7.624701100717899520e-03 4.454440773811096932e-02 -3.832239672949818571e-02 2.305736713217786810e-02 5.362356831915961880e-02 2.080279184629820963e-02 4.961326735737994764e-02 6.426603391989957337e-02 -8.639522275514475991e-03 4.127997903866417739e-02 2.169015205883446581e-02 -1.208269088974611195e-02 -4.815398464660239353e-02 -4.549463558442448652e-02 3.948642311561416374e-02 -1.803540684740530253e-02 5.401523642038250084e-02 -6.877513188985601156e-02 -2.421072096079884481e-02 8.397750638781345534e-02 -1.508130894089226154e-02 -5.945255963469719789e-03 -1.684360004109014194e-02 4.097031853969273357e-02 -6.213279403115740118e-02 5.710409769968387284e-02 4.794137320915319023e-02 7.453655586617424778e-02 -3.297352979778819804e-02 -6.758373392738924179e-02 5.895077166296112253e-02 4.425961805991137504e-02 1.450952550652570214e-02 5.436156866680716057e-03 -5.118725958800460218e-02 3.174033587170705523e-02 6.097328553862119138e-02 1.037573381041822888e-02 4.593761272241769084e-02 9.189554758329089579e-03 6.548645582552899136e-02 1.973099814234802185e-02 5.166772117919567198e-02 1.537448124311341542e-02 -6.468438258495541604e-02 