-7524.74443 -4547.92286 10030.06880 21504.59466 -8077.61460 2428.31259 -35162.80071 10485.56578 36554.81744 -43017.28051 26376.04521 20526.23065 -33155.95846 17621.13426 -38724.28878 -7818.83094 -3680.94728 -21530.44420 -979.10218 39607.12611 -1811.50095 11860.02814 -8859.67938 6582.52802 1647.66269 -17302.37101 3507.07918 -5496.58540 -3222.94856 43091.28089 23223.94153 -5149.64580 12745.54521 -5251.97377 -27112.30462 22268.41045 50370.88518 3407.10298 -12999.40418 -28922.12184 16253.41648 -32660.99855 -12985.44868 2929.81079 -13435.13971 7326.96193 1485.22154 -5784.45276 -28198.27850 -26986.13281 -13508.37242 16264.53072 -22574.49978 -41630.24725 -13888.71689 34591.64685 13359.91506 24430.01691 23574.19252 -35320.70860 -4028.35238 18198.51251 13385.73145 11184.23531 29298.21778 -26507.13630 27705.76678 -930.81308 17735.36905 13078.52753 4077.58367 36668.98270 4323.88197 10191.63241 -3005.98720 -5311.24357 -17653.70418 -6273.26538 -775.50455 -38671.73707 6078.99299 5962.78260 9589.50077 -18583.02956 33230.59373 -2109.26669 -6655.90980 37939.80814 -17370.26705 -8091.77873 10505.07866 -42904.80252 20243.74610 2239.92291 -18523.65898 -16616.40466 53839.49980  854.20897 -30848.13186 -18249.01304 -13707.96782 -4048.31938 -4355.68161 -24946.41290 -59742.04730 -14507.68632 -30812.43029 22647.82667 -9897.76287 34125.08693 11893.64948 -9467.52085 -25195.30322 -11446.81302 -34190.59951 -4092.99219 -13805.82088 -51239.31651 12600.90938 27154.04764 5521.47879 12633.92990 9932.06333 -16229.11965  276.10456 40395.89581 -11888.36834 7773.41849 -12619.69259 16909.87839 -19216.38329 18009.33971 41990.47832 9974.41392 13680.07346 -586.13147 -3850.26968 -2949.44646 -24924.79592 38237.58684 37483.07184 1171.54361 -5146.38190 -6329.96858 -20233.18724 25491.43582 -11923.79381 -10675.57504 -35989.17306 -18015.31831 -28646.21827 -8336.44315 -38863.01562 -1828.76183 48644.65076 34078.04649 -5809.96978 -3817.08655 22455.17655 -15522.08116 -6515.67512 -11171.68329 -14065.09718 27729.18290 -14820.93602 -23536.77038 15206.50057 43381.62475 25513.91032 2976.75650 -32959.10446 15937.07460 5127.04418 -20534.29467 -31512.98319 20746.68726 11163.66615 10116.77680 7209.84032 15324.41533 25671.50704 7095.67448 17251.17291 -12782.35709 12080.65320 -11069.87313 21233.11358 -25864.16108 -40241.03074 43316.83795 -4637.08973 11979.43117 -7592.55877 -8589.01449 48025.05399 -22020.57678 2080.97512 -16823.41725 1749.35967 -19172.70630 -28195.03695 -33525.23749 12623.03802 -16202.95463 11674.85597 20712.10659 -2123.34332 -15169.61359 41736.88943 -6167.11614 -22378.02690 6142.00400 -14515.66217 -3804.81528 -1072.68977 -27131.00366 15470.05471 -16780.72584 -13343.85258 21402.91160 4569.69309 -3579.67163 -9078.69028 5221.76401 22564.64508 23738.90533 11662.49706 12397.79398 -28534.43809 -26370.53916 -16745.51929 -27362.17664 5487.55226 -425.50855 6844.83025 14984.11633 -19125.05356 1249.86925 25818.34026 3808.29269 -17138.79914 33294.95223 -27358.11192 -8346.39603 17282.42599 -46883.14561 6035.28919 11087.92051 12083.58711 -4770.19743 -10878.03613 -15065.99172 21657.94725 -16188.39216 -28751.52347 4521.67393 -36462.49790 -5336.07407 16999.76102 -2603.64321 -7272.86872 -34570.19995 2240.06934 27333.52764 11046.32445 5585.84479 18629.83186 43983.07900 15707.83255 34174.91990 -11811.81077 22197.73536 2839.06487 -13438.94562 -13596.92431 16545.56804 -17740.15829 24189.72979 -33345.99542 -20050.92923 7272.67509 20040.46322 -9092.50482  588.28536 -14538.99083 -24639.81517 -2135.10540 6171.82496 -4954.33685 22931.68461 -30122.32204 16219.74710 45073.10909 49392.14236 -11639.86926 40251.46881 -42069.98139 -40737.15789 15279.12485 -19235.46923 -27476.53909 -33522.68298 -16608.32339 3548.85420 -22143.61612 22116.62297 14299.84618 29211.36923 17681.19619 -5717.27161 -6787.86479 -5284.59098 6286.21448 -26320.55666 12468.29192 19957.03487 1572.89337 -19729.78477 25911.35985 4980.49169 14334.34102 4299.69007 -24998.22815 36067.05274 -14437.21937 12778.44511 -21760.49369 14894.46438 -1753.57213  864.73493 -3973.53572 1079.59426 -10661.80854 17370.70409 32807.66100 -42867.42970 -35780.89939 6319.68208 -53715.94767 -17621.33741 37719.47068 -6842.17732 -3892.32709 -10285.25339 -19811.09732 -30220.99962 -23289.30884 21679.45859 -577.57559 -12475.52086 -18522.87036 9700.12455 -31494.94813 29024.74252 -11947.34499 1670.83263 11833.69939 54694.96998 35223.90284 8922.52659 -347.59498 -30984.24131 -11710.50345 -22044.48183 -26390.02309 15201.08587 10751.69702 -28941.30790 6919.33910 -20381.41340 -3091.03149 -17109.94183 23061.22473 32995.74431 26667.94513 31350.09270 -2823.15242 -4861.60569 9647.49723 7276.96532 -7304.61965 -3795.97598 -23984.64791 -7587.35947 -26072.00356 6364.31284 -9591.77527 7593.19954 -16183.57659 41070.15364 19641.95546 -10085.50831 -38473.85683 -6784.42602 13287.61613 -32469.61881 25710.73945 -31784.75069 9312.61026 13117.00572 -6264.13653 2590.69859 53026.79409 -20132.14414 42842.29548 6095.58853 56797.18141 1697.57659 -20584.70498 33046.02263 5481.22384 -28962.41843 9856.38788 44977.68539 -53297.89923 -19375.69139 3609.83013 -18774.96899 46303.57359 26343.01128 -22681.06771 -4061.42528 2924.39857 -34745.08483 3539.19210 -23308.71957 2184.97951 -25354.21574 -23154.41396 27619.83228 13345.36661 5988.25188 4085.72420 8305.87833 6511.80810 7531.15327  243.32311 -27985.35992 -7139.13963 22972.58178 -20749.88052 -2695.47887 -20766.24575 -11002.78225 -27098.05051 -38528.34306 -1423.83294 10902.33780 30909.22489 31811.68653 19529.26966 -19683.31434 54989.08483 9300.19850 20383.53650 39747.63906 13154.92723 2619.11878 -41814.50644 14751.28031 7273.01874 -30620.01796 -24424.04842 -12944.35925 23233.79332 17936.05038 -45994.73267 -13858.69926 -7399.61472 16759.89364 37773.79100 -23172.81581 -29028.71996  288.20391 8672.54080 43003.55269 -20160.92292 2208.73370 -12795.18596 -10534.31546 18788.06053 3589.08543 -28139.50883 -8683.36939 9897.94465 -22401.78133 19092.35704 -23654.37747 -9659.44486 14565.06775 22337.52100 28610.02617 12657.98431 -32197.93404 -2336.90006 31691.60231 -2780.05022 -22064.02687 -13923.17296 11724.14937 41773.44697 -40642.17004 5455.61794 -45137.67897 -25101.98391 -4148.18905 40205.80181 -7917.74620 33058.43743 -9218.31819 13254.44843 -3422.36686 27461.19246 -4044.08345 -46225.45725 48698.80338 15423.25327 -40290.95624 1255.25026 13273.93574 -23181.43389 26991.37572 -39526.84017 -8100.17278 36271.05288 21766.11497 -27280.07431 24169.92852 26936.48532 4611.38457 1651.09288 29989.43465 -3806.34238 21916.98366 -21751.89062 18239.95011 -28511.64972 -38567.79119 18940.96635 -47569.37131 -5483.17787 8375.60114 4135.91761 4246.70921 -6469.11337 -22831.68100 5202.36701 -14479.28432 6550.34416 10134.89826 10125.93324 12621.66973 14741.11475 5829.33739 35816.52517 -11312.66613 1907.94056  235.76257 2815.12516 8640.91310 -2468.22329 -29239.73626 1549.34259 17696.53180 -14039.79394 6298.25275 29498.04929 15979.72904 12393.27629 -30973.08823 -20020.27074  264.15105 1650.43307 35500.80910 18648.98582 51319.86034 2058.95585 2411.95491 47637.76947 6838.08945 -950.06142 11430.78442 -519.94926 4882.27006 -23298.67291 25581.75457 -27574.64034 24482.18534 27049.93425 -14828.52526 -40199.53673 -205.01886 -1089.88037 1021.65978 -1357.08210 33371.91886 -8232.38628 7053.05317 22094.75877 3227.57648 -8178.96906 14627.90267 9572.29835 -4814.18050 -7886.13213 25902.23462 46953.18973 -37555.93416 31617.66448 -250.16061 8351.35490 4888.06951 12944.53758 -27920.64911 18620.25783 7152.62361 -34487.40670 -19001.54266 -32896.21206 21558.53726 -24982.39918 -29640.70364 -36897.99729 3831.98983 -20965.64532 22937.13881 -984.66361 43729.54167 5466.14946 11290.18920 -20429.23633 -30344.95762 38390.84457 8318.20000 10817.55955 11016.95534 21262.48816 -7089.78562 -22418.45645 -5275.76011 56114.50864 -50642.09595 3939.79973 -42617.40636 -3568.55326 18641.41425 -26135.99833 13046.57702 -9322.89366 15677.40643 -19464.46438 10040.54760 -14030.68234 -3648.02535 4080.70894 18801.91972 -27444.35376 1710.47004 5958.43507 8421.33094 51165.92897 35636.17476 -8846.72809 24380.09557 14686.74104 -445.15299 24914.28739 -15681.90096 16328.75128 -28641.11527 12627.18058 4077.83963 59348.95891 -28951.09568 -16866.68773 -3315.21133 7045.97484 -7351.78356 -13453.51645 3967.26476 11953.94222 -31391.08836 -1521.27610 -22045.23705 -2151.07628 -22989.41429 -6728.33357 -11950.03002 -15671.26164 -8220.23170 -24159.35441 26747.48504 -1141.70013 28627.63045 30099.23859 12057.15859 -1884.95839 -13745.43526 -66086.00009 10379.48846 -2163.18624 3606.62606 35905.35608 -1982.58610 -14498.20577 -26340.38651 -34913.75495 2313.63456 7982.51587 20369.33284 45668.04171 -16906.16244 5351.65744 -1840.64780 17772.50603 -24509.83780 -534.05700 9794.31251 14724.69584 -35363.63718 16438.93501  765.59988 -22614.37415 -6222.39365 -17310.76802 -48879.90110 -8460.86713 -39627.34224 8884.28060 10020.32025 -9973.21110 27296.27243 2305.92610 46532.24656 -63596.68779 12058.83566  -77.75696 37243.26229 18051.82227 -20833.25310 -5784.03658 -30304.77932 8444.60835 -22424.23369 10552.62433 -54992.67789 15212.97902 -22483.11807 8972.18180 -10330.15671 -9052.91302 7096.61488 -22680.17196 -4163.64276 13456.18281 2560.04304 23098.16618 23311.60444 37677.01729 8434.63852 14093.68966 -24914.34612 42025.66700 13302.40218 19054.44733 -1575.81531 -16794.75863 34284.18777 16743.27219 -12293.49678 13871.23442 -28606.31067 -26892.43634 -8218.49880 11000.24151 6639.89640 51456.32741 26943.82021 44363.89599 31315.56311 -7716.67762 61454.35541 -18610.39361 -164.64051 -15640.17139 -18202.20510 -10670.73072 -22466.95388 5834.27493 -21730.94028 12811.26911 1358.66707 4005.08059 7823.34150 3080.14137 -18666.34347 -20650.46579 -25548.46773 42927.41313 -14264.62218 10270.44752 -3070.91870 -8527.81625 2159.03380 19536.89078 27081.42441 -13662.10213 16578.13039 8839.60769 -23836.32408  284.20452 -2195.74897 22031.59730 3124.76049 -31460.81776 5515.86837 15631.36515 15739.91507 -2427.75718 -17506.54046 20342.68078 -26895.44068 -21570.12642 -12150.79284  441.29984 1494.25064 4108.36996 -18169.70744 -30818.52430 6730.56556 -9991.62518 -1861.09370 -26728.27027 -296.33477 15921.54955 -32675.90928 6260.18162 -32682.34564 16558.05013 32007.41456 -3918.61175 29056.09991 22233.53773 -37813.64772 -17195.72515 22159.85427 -907.03555 2012.37781 14637.36410 13912.47209 -23281.75327 -5880.82071 2842.46974 14847.69630 -40124.77682 -19788.93502 17876.78123 -3817.62961 -5217.87880 24068.82752 2518.54885 -25955.06672 29697.38691 -14216.08556 27741.01579 12068.86561 33766.71428 17302.00908 -15512.54999 -1850.80994 -21049.19250 23018.43563 9360.36895 -30578.70142 -1235.19726 18470.72599 -19687.28296 2152.20792 -2505.70136 30593.61432 -21614.97110 8915.74978 26927.40339 -44317.42309 -12019.50701 16157.62260 -10383.32500 9694.47474 -48737.29504 -15021.34496 22636.14973 -20931.04739 -39781.77778 -11045.78025 2625.21164 -17929.48190 -12983.44225 17044.39372  938.48236 40080.40978 10673.55022 -60473.91372 26194.86602 -5018.55618 -13982.83265 -24456.96439 -24797.63716 -15169.36581 -3758.09833 -4512.07024 -28472.46052 -8975.35270 9278.55989 9179.64834 -22447.66945 39229.06899 12760.75323 -13669.39037 40049.22975 52005.18529 -12902.42699 -24158.28490 -317.64378 -5630.85174 22600.30312 -16155.50938 10465.88206 -29292.01083 24583.41348 18436.07797 2019.25875 19329.01997 15560.07128 -5323.15796 5388.50436 23815.99892 39352.03696 -16397.43717 -12548.68834 29974.37984 3833.02346 14324.26191 5237.82275 -20945.54483 13048.08860 4671.76809 24363.74581 14048.29458 -14327.72724 6149.76661 -411.29619 43279.42603 -27053.69413 30187.46635 3553.58535 -20433.73356 11695.03723 -5397.24361 -411.38152 13670.89534 -28778.90581 24211.22532 -4255.11662 -26653.87748 -5930.93485 22400.83858 17504.96701 -6798.04858 -18610.96468 -37959.50566 3339.44008 42560.77859 -10970.00413 25838.30341 -7168.02307 4830.91383 36777.61962 8010.42825 -4105.35016 -3656.41864 -21863.56591 13738.94818 29310.21781 21859.09509 -18676.63984 25819.35440 8513.46771 -21734.10281 -28950.75620 -10344.28905 -21471.36011 -15472.45397 7069.18723 21443.25490 9474.21022 -12195.41740 -9987.09217 16773.74690 55368.75091 17441.24975 -20086.70314 6419.93031 50404.39090  880.00978 -18638.46887 40832.01200 19289.68441 -20333.31065 -22222.35872 46751.07480 -9349.57356 35392.88316 -19286.55144 6795.15701 -382.53965 5616.56600 -38204.10903 -13209.34322 7890.90068 -16605.24660 16611.33052 6545.06286 -63424.46756 -297.47800
